-2.856807601142667,-0.6126652138008502,-0.5664908045663722,-3.1424992709493416,-2.2008409336181227,-2.2509445272813853,-0.3029677543342446,-3.674294684741053,-2.8495326662385323,-2.3691778405849804,-1.9216959147532469,-1.3794117809333883,-2.220141869842662,-2.0244118450467923,-2.8301136540860243,-0.7511672581799096,-1.7074779643235805,-4.42046330304841,-3.751122269631927,-2.5822396826282636,-2.924309435811812,-1.0748279169884258,-1.9807353124066729,-3.1946931907872043,-2.5456229802879786,-1.4089568211394927,0.2706637945931267,-1.8195066377760871,-0.5753583554314295,-2.3445204271484825,-1.7347275737185575,-2.0861560975725486,-0.5115695773434334,-2.3640611617579324,-2.1419107936128072,-3.1140704934977657,-3.5837424771424846,-2.3517931982974507,-3.414449459944108,-0.2668446492115853,-1.2477139727159716,-3.2649217810896607,-2.447574630567295,-2.7549941098759203,-3.361766074129215,-2.9496433042737484,-3.7085039586285498,-0.6183525958044275,-0.7440861549929862,-0.7802184413103479,-3.7004270392219665,-1.3930392281356543,-1.2283861310515702,-1.2612233109506699,-4.332261102926593,-2.310006495206652,-0.9665009745204335,-2.2381071661380743,-0.948003719794388,-5.080895861574757,-1.8050227930868987,-3.8351828082609005,-0.1701536106022852,-4.082026833725995,-4.180787576170844,-1.4796241489906765,-3.2615069701476447,-2.054766561457433,-3.7146125582306238,-1.4177940370797006,-3.0953199247940852,-1.5691620322460982,-4.461361315836024,-0.543543537515847,-3.3067681082101044,-2.5361839761430987,-1.2643462377871928,-1.5583441021543534,-2.7920499668064207,-1.5643106487240193,-2.694837828389924,-2.9560409934895895,-4.224176889263532,-3.2348458891874095,-1.0836977764811773,-2.9473072812880017,-2.5414315921530157,-1.6063910586345265,-1.7784562719610106,-1.3052288878976244,-0.9272715093468807,-2.6630325560617796,-2.457782058796455,-0.45591482738007266,-0.6983511102548514,-1.696614922922414,-4.279797357351376,-1.7005188271091478,-2.925540759717242,-1.312739923667963
-2.0751855477472514,-3.657678882532227,0.6505452353982318,-1.3717854608682594,-0.6658107337265534,-5.367738983247514,0.10186694747352151,0.2570498683621881,-3.0537576881396338,-1.8877249917189571,-0.049940568371249175,-6.282252047463828,0.9353382835181775,-1.1100517452458771,4.04542562024502,-3.8253839500180593,-0.28466360987458594,0.5567650701234427,-3.837698712250562,-1.6604948998699678,-3.8313255708217775,0.6481506550842547,-2.7803339588445337,-2.8504836498008963,-3.6381137399437535,-2.5785776082081813,-0.9043795390452039,1.7062474277211082,-0.19245080455754818,-4.830868055865238,-2.3058807768323506,2.334076239688906,-2.212884877054963,-3.547906997050498,-1.8666307848133967,-1.091855315559436,-2.129807529691906,2.165744142040172,0.38783589223597625,1.3651725958487297,-3.6074515935719886,-6.176743242481388,0.6192165333093701,-2.61739695838902,-0.4908725135616828,-1.5896218924041872,1.1048620292146383,-1.9703308925713259,-3.4195144793427565,-0.26340400890059074,0.1050159573769435,-3.8715850361384527,-2.0895671517482044,-3.265719595373136,-0.4833997668963198,2.471201443439103,-2.093365404128044,-1.156312861230005,0.32088396679281467,2.790579631571246,-3.3850231864908227,1.2003607489669281,-6.825119577809448,4.172764093263891,-3.1862056256043694,-0.08285452088380206,0.994381168268049,-3.174280201397213,4.1760418316127845,-0.807186607764609,0.561213133769924,-4.959564151657952,2.3497310917735468,-2.2906758641942475,0.9395930917144677,0.5752031881708459,-1.1455137442175025,-0.07142305745947305,-1.4671179409201611,-2.8563743217732798,-3.848440358028888,4.62388834346969,-0.9487891338854456,-2.1018062209011172,-1.76168787264244,1.5561572698776818,0.8692427243840465,0.1569706508728391,3.21081620116864,1.3463702387072556,-2.544162007766011,-0.8079776915721295,1.6321806544396074,1.0510096928442032,2.1906207915505296,0.5375470875000505,-1.8511588670598182,2.7718699757854144,-2.613588929824996,-6.503794799034368
-1.1177742553004324,-5.135928378333489,0.2958906137566834,-3.6253441321554063,-0.5819636668441903,-0.5819129229825407,-3.912028719324651,-3.260013692826345,-2.266447814996836,1.351754740297697,-3.9888077049485284,-1.2084928308586402,-3.6158707443210587,-2.183479686706065,-4.096565589787176,-0.132795580210821,-3.433886784568237,-5.866692133660172,-1.5467148311573482,0.3050323545568323,-1.8624487135909777,-2.779720114632693,0.07460907059760245,-3.053360025206209,-7.536923516716055,3.5424170140299123,-2.71406161620054,-2.027633123644104,0.9089767478292216,-1.8428293437991254,-4.285050585792767,-2.6425244433070825,2.7397810479555162,-0.9889966780459196,-2.004214357589838,-2.0719995125037016,-2.2705753191952693,-3.390494567313445,-2.9017863609044348,1.8222153296724135,-2.315516198746554,-3.348203774948445,-3.7109856044799,-0.4268823650573132,-2.0079026038194634,-0.08852398205486632,-3.4817745886780216,-6.272667283226756,-4.565495578109303,0.7048237595542554,-1.21467908423714,-0.8109500522940373,-0.9749820588218433,-0.40753267428778794,-1.93201384081334,1.3788466551004142,-3.6279078678105146,-0.5085044905169618,0.39925959025640845,2.9865332116390433,-2.7051595016660324,0.9879157256374035,-1.1483163001703434,0.0016811991706731518,-3.0400498831985643,-1.4563893779324937,-2.3704370272057633,-3.8300600698416756,2.1120814420074034,-1.3028715437358935,0.17730547779589406,-1.4692785339225114,2.178469991265935,-3.038662430660875,-0.04068673125053263,-2.2041717464673747,1.94102880868796,-0.07665246243285002,-1.5935229856692654,-4.2232052267353195,-0.8878226732646928,1.7621262898625967,3.9257186429396627,-5.498927652218535,-2.0949849177929543,-3.5657663461789757,0.04432457043124841,-0.5181825998751606,1.446273828773501,1.9296902296516283,-1.6811460010929262,1.3684664589683553,2.054910271903892,2.7106263215411435,-4.512793395860292,-7.3658133592883,-0.23273376109971078,2.2058016050105516,-5.342277639914002,-1.362651041594186
-4.0629573046207454,-3.9536005271663552,-3.463376415708207,-0.2989951493628387,-6.140000631955676,-1.0431248734944,-1.1219031778766564,1.516189652416377,-6.018551251239187,5.685897538039002,-3.993270235967347,0.8990178020626994,-3.1084019610610207,-1.1472981048573783,-5.337721984317499,-0.5250923383574987,1.5012410290622404,-0.08981730414195627,-0.23243382887340988,4.896837854413614,-3.878851177283648,-5.22617770588553,-1.207560400404627,-4.7872423331945075,-4.97683741977299,1.2515820468470398,-3.5997670311597574,2.746817144182871,-5.034607931274107,2.867252058090204,-0.464219808541546,1.1052814111309135,-2.228133763071846,-1.0991305860568585,-0.32194858827511386,-3.5171457923990523,-0.8166500516607424,1.9766309678201177,-4.73025298913853,-0.36142282817924387,-1.6628801563596833,5.132944357597499,-2.907536748527811,1.1978805606510234,-4.629926327409148,-2.7396558712847776,-2.3607060032855243,0.38667521186989245,-1.7573628914643975,-4.112508886429783,2.4617609596663783,0.00856282864086623,-2.1334788236441042,-1.9782746963683033,1.9095977666307744,-1.911982319928509,-1.7947076640043587,-1.5239934773367114,1.3964629860807387,-6.7508146872807195,-0.4031683654810518,-3.6790684536670777,-0.19450245758059095,2.4378857880578777,-2.659037159305948,-2.391886825712903,1.095730586364265,-0.258556909172373,2.1700341195599107,2.206877947416803,0.8224642342747563,-0.6303559795845671,-1.6015088788523257,-2.116426170903155,-2.0746007430283777,2.3239102355134045,1.050804132157075,-1.4169680439965777,-3.9422029569274053,-1.3739133225023288,-0.3527473286628796,-0.4059773169915322,4.181090849553713,-0.6183921660977822,0.5649455573843645,-2.9773298587515775,0.24674537718146278,4.6936811828606535,-0.4983204675057639,0.5246273867199636,-0.9894875999222155,-2.9389867146133257,0.11294772653056034,-2.5182000981757455,-4.006519097085428,-1.8906945254313636,0.5469014909815699,-0.7992463144475663,-0.9031602120573713,-5.749790395290109
0.1642708366956971,-4.0640814081615275,-3.1586122418533114,-2.8830001886073577,1.5501173086762994,-0.4814385943660269,0.2710824515655793,-0.904403000661362,2.287965449841683,-1.80956344770683,-0.29303351005499373,-1.21119577465548,-0.27353965108075895,-0.3287724570071422,-0.7582432123159073,0.45700820451111074,-1.529732144551693,-2.8369026385821168,3.0136053006340187,-1.2727866921188573,2.754595082998165,1.4799307426182118,-3.6536801256267806,-1.0937165453132531,-3.9638088432731413,-2.8979652128522755,-1.2635609242728514,-2.04124811563408,-0.9906301043938268,-2.1644343317304973,-2.0392952040728938,-0.7858141115765186,0.9329267162497439,-2.563910194391847,0.029793856049258424,0.4720599282164854,-2.73391468044542,-3.6138799973870794,-2.197719672058978,-6.615031875445202,-3.5434314795366975,-2.5201694593169046,-4.004743780831944,-1.8286955704336518,-0.7071533175733048,2.7171635851945313,3.3574443502583335,-2.4208376502892044,-5.3828937370011865,-3.045729949537537,-0.8298430627956738,1.8617004631870864,-4.0898280055436045,2.6274167164436375,-1.307929621209811,-0.9769322800706274,-1.2844567294429696,-0.07346224554842296,-0.3785979591035007,1.178793803611914,-2.060126831675124,-5.328548407801068,-4.460564803646022,-3.2499882652006598,0.5108760006683412,1.777807608517958,1.4124939874239604,-5.153141349717534,-1.0980901187025471,2.69041194214737,-2.570099733568158,-1.4474655305831705,-1.23067653045562,0.7526597293756044,-0.3051916513994882,-3.4397247062808973,-2.350757637222518,1.0571254208097878,-1.6484531034442258,0.36166755383707627,0.30913069627996265,2.4797775344319106,-1.9243213258018117,1.4615773094735334,0.6684319770591941,0.36714072692110244,-1.086883016322286,4.168350075545766,-5.0263055896024555,-3.508419815238796,0.3741320234386273,-3.787038548555464,1.0446694476694827,-2.2448747302338314,-2.8297414865182677,-2.37899608278979,-1.528672000074531,4.0202411567475025,-1.853600432271761,3.5797736550318837
-3.177814684860539,3.9698546334888323,-1.2260526441498645,-0.20324835718290685,-3.064722079517618,-2.56465074412656,-0.2763180120169626,5.48188280774942,-4.120668782902374,-0.7380704638830076,2.0093190953027396,-0.09222505689905496,1.84840519862337,1.668606635668844,-1.758195765325357,-1.738407049032177,0.3759410790997923,-0.49498779908643553,-2.161723442759927,-3.5498388502854588,-1.6070781228098214,-0.07708974055051632,1.3544383898854477,-0.1814452739346655,3.18496479003782,0.6234358603597364,0.3014423730088495,-2.7479375097384042,-1.8653491688449364,-2.022954540638333,1.015426633128442,-0.2307162650119979,-3.700141320337374,0.05067774719376531,1.5382147869607172,-0.3502347724195037,-1.4826156223051226,-1.0027942474270168,-0.42992576155137263,2.931576322696114,-0.6991192320874726,-3.9024694272793243,-0.7859978977595415,-0.9673317019640085,0.528983335982343,-1.00279181416146,2.992321488616708,-1.6626469163955986,4.22615745403895,-6.413257927542026,2.6267530015547846,-1.6966523422026323,-4.388734999922202,3.064835547225149,-1.456012864120674,-4.043021334143608,1.173450196647228,-1.7043342137766546,-1.357602620015191,-1.308094208859485,-0.8213828080504717,-2.807714495294099,-5.494332650530242,-2.369670778992784,-2.9616297877476714,-3.666246843401233,2.4283607815585677,-3.0157378160678454,0.5689988220775324,-0.6269609525436465,-5.14798998505905,0.1975050098098324,-1.181440734831802,-1.367368983557568,-1.1636941387097712,-2.880860215709213,-2.235376174525866,3.772092201677295,-0.035629081685786594,-3.8532198944365312,-0.06302343858646922,-1.6735772854553281,0.3729365796859465,2.0763457200707123,-0.04890826202679905,-0.635110706350223,-0.14567834532272883,0.7813352646245193,-0.27137820610184477,-4.523198068802256,-2.0303570162338094,-3.3834672425246977,2.3882921819831413,-0.5667283612137135,3.5883639983420457,-3.967325277029215,2.221326442898315,-1.296683780265667,-3.581191792022552,3.088381231955212
-1.3696423157134656,-1.635774058605691,-2.0234762011177274,0.27077573320986575,2.716943609444595,-0.18745651886570694,-5.012866751398922,2.234394170915786,-5.408610219473205,-1.665918451792371,1.9882736175270042,-4.918982188222878,-0.10515408612773837,0.8700246545182678,-4.5839836174411035,-0.37670894638793656,-0.612975332747115,0.9768337572150858,1.086448947604791,-0.5424046019361677,-0.35785629213248116,-3.463012609139744,0.26370300219914455,-3.8543426425498706,-2.3951783488341727,-0.3164995304783575,2.8714076334287815,0.1317340419538716,-2.3774061012778773,0.10532124325580977,1.885516135004224,1.3713094631499336,2.1856180140452377,0.2426724303207837,-3.211276973389851,-0.5276986708520044,0.17093166700249915,-3.343963765554669,-0.47122858294257813,2.2640998112000967,-1.2669694022580484,5.322366103442967,-2.586322130907688,-5.760025713885912,-4.403311390407371,8.397904315694333,-0.6021018980904671,-2.976977728483689,2.8159071514200655,-8.897079040611848,-2.775360185690209,-1.781288241642922,-0.25236503702335783,-2.730542673644741,-4.713002507395222,2.97963124418661,1.6708306835003688,-2.1596142773581364,-5.1318623107301455,5.450712749829583,-3.9417954062320604,-0.3662391754321221,1.1419563345642103,-6.692670981651085,-1.7022849135905174,1.6458675274249004,-1.5036586892196846,-4.31817945786599,0.7890577018284786,-3.2023296814208795,2.0509402473209537,-3.8955100614535167,-3.2377692465864554,-1.471822936501723,-5.9862201388728415,-0.4873875017327329,-0.015393557860828475,-2.9142486711358426,-1.7636298202849539,2.195871106153398,-3.5533557283260797,-0.33905224293799174,-0.8271246520741669,-1.6029396889855716,-2.035346801308832,1.7645825105709074,0.35848821302702794,-0.3775797029803432,-3.7894312335726172,3.666550122065432,-2.371250902807561,0.06589737101025846,-3.859238916586383,-1.5987948283003042,-2.4351759505784134,4.405174664568064,-4.096623005498955,-6.819380263319981,2.3960304191397173,0.7609449111706897
-0.6844228683107286,-1.866358954738521,0.5807499131037093,-2.620302874580665,-1.6005631008537824,-2.9840926775030305,-1.677749163958297,-0.2702201187861211,-4.624270638057088,-2.9647850556973485,1.4624867827527488,-4.14606904814614,-2.791955411597761,-0.041562347347867415,-1.5360968766229093,-0.9530616053788735,1.1643873856306481,0.5721615237480924,-4.753517702567604,-1.7135212019663217,0.2386853032392197,-4.847498326391207,-0.9352856027999733,1.8986986180465655,-0.021727187040076812,-2.2721540341658844,-3.0122564403279393,0.29422994112138073,-5.588250162624779,0.023303615950740684,-1.1964547864600892,-0.5464496990933683,-2.817209301057942,1.5267704270255766,-1.8838981900218024,-2.9747266085199002,-3.891014443334734,0.41412455063751835,1.9196281540066598,-1.0671715464420324,0.6725617635827199,0.7287709623336853,-1.2204297267873006,0.5468636048513112,3.4592272614590045,2.670733887604613,-1.6053537671105627,2.109260528336834,-0.8859808183191091,-0.14928184386816626,-4.3118081140961255,-1.1919326206034222,2.008460782140273,-0.5484059969467595,-1.5795051767820654,2.9224655260636947,-0.4505938181200483,-1.1048744059665716,-0.39539686935591667,1.3050633807368572,2.579141282222649,2.438955923615508,2.161543304981304,1.1851654531821707,3.581968579214545,3.006191858665153,-0.5002730472360118,-0.8759721420535094,-0.2747517325741559,-1.4001353379105208,2.5025635217639244,-0.752139698442567,1.1630029784514195,-0.5774226086215695,-0.4206373356634592,2.9654120124670067,1.4043910296760571,0.408751700233076,-1.9181931365115437,-1.9312125530998139,-1.1958925353382304,-0.7624943500743538,4.588833729806143,0.037148685803589515,-0.43265464204625487,-3.4147734632431144,-1.254699542088193,-4.429739320387387,0.02611250062882142,-2.3490908717574484,-1.7379591155814487,0.4341983311919744,-1.0124285572922962,-2.5538294235065977,1.4578052198324185,-2.2145491283277474,-0.945314477548085,-0.7084822750042202,-2.442769557391855,2.7094920500507014
-0.7085067513677675,0.524211883503891,-1.904437979313566,-1.7608909003791773,-2.51910569110835,-0.4833925287047446,0.708162403735348,-2.360278632367639,5.343417633294975,0.2986389763016055,-0.8026439318333181,-3.6479617193470077,-2.484910242395994,-1.544139780789116,3.3938689335215937,-1.1461508994460712,0.24326074961341032,2.0575677851683793,0.6575029130205909,-0.715218878682704,0.07506554241197383,0.9234059749240887,-0.930728653391726,-1.0858058397921382,0.8415474587171448,0.10789542745208558,-2.3244481610406127,-0.37747703491333773,-0.3479523786007782,1.8750245965681571,-1.0013724948913867,-1.0634930881827767,-1.9498801932828627,0.74968791784372,-2.8709545250116917,2.215502616689857,2.0683730294568816,3.894686114026144,-5.223338143266843,2.9875619464523724,0.12388672961444205,-2.9082665051414773,-3.705820625998463,5.1210375072122964,-4.778095935995275,0.8573880761803531,-1.784738228212815,-2.294138223948636,-1.2647255347785518,4.58173611443393,-1.702221865034259,2.3826250933816873,-0.6139380558741154,-3.231585127612437,-0.2543197700102395,3.771223876279868,-0.5581048595925414,1.1317587623674037,-2.018053917573908,0.44373360072781987,2.1561375730290178,3.346966869047205,-1.0370566043025093,-1.4526210316602608,-1.0884294301340753,-0.40615528437054366,-1.234260566597593,0.78145826817023,-0.19012887555319674,-0.3093224797620594,-1.9578328630994486,3.4766270651617415,4.81551531009541,-0.08013579441049813,-0.858667581270069,0.9923287627137651,3.0695463501830904,-2.557601172710128,-0.3276859139634995,0.1395057294286409,-0.2780279587644974,-1.7941396128263043,-1.6061181283252546,0.9130933668752581,1.3958209423316033,-2.3078343906107452,-2.3743363281124874,0.7007712352295891,-1.8948294470759957,-3.1744686113507927,0.036447793363798144,-2.0495459463098165,1.198421174422445,0.08314502486708411,-0.9225528339911346,-4.400407043231777,2.7569433925432256,-5.791396684342585,1.0091838439555967,-1.7055309017000437
-0.7024388648386726,3.5826868768896443,-0.38045598689376725,-1.1806491318128607,-4.35389928789781,-1.750218972959759,-2.647212915657512,-0.872746623954567,0.2519658388842125,-2.6928807094692213,-1.4949591667355557,1.7725015094419792,0.45887493716225464,-1.6193974341380266,2.9586272310448503,1.7877853660307113,-0.14969282505487994,2.0255981048988745,-2.410664136449047,-2.662586261339082,-2.4360236609498456,-3.543466920544003,0.8470963434138878,-3.9974407876035274,0.6135252876523793,-3.8190514360882,-0.994029282958949,-4.603573837156242,-2.5058083663120896,-2.1350077125116873,2.1946907600103644,-2.2656107687380893,1.7515924753128405,2.767361747171489,-4.280167074859729,-1.6257468130269026,-0.564544742209804,-2.068200852513505,3.0198213656416613,-4.089891237591718,-0.5657819225040237,-1.428332952939445,-3.516073932085643,0.3643013086235492,1.9951276895772743,0.557367512988306,-2.6597313839105934,-2.778498280979412,1.3552548922833594,-3.2831108710620107,-0.031255520494687286,-1.904176930749559,-1.5840047189921864,-2.2835290037716436,-0.5360872256278395,-7.445872438639911,-2.4978826772855087,-0.7048833053845607,0.4093963901052083,0.19484603484481577,-4.4529665234613836,1.7085561234199285,-1.8870507493163429,1.999196276868284,-0.10819859916883631,-5.711770273812172,-4.451813435560449,1.0343694375480332,2.6755423735263766,-1.497869596831501,-5.602161778674038,-0.32350387539100167,3.0186565134305305,3.4350570075599434,2.3327403767899373,-3.1216867506787795,-6.599225338490584,0.3723182531121512,-2.6254651505600193,3.3984666342629564,0.7944460975716746,4.857452942160676,1.9246101126692072,1.6227644565044486,1.0447195618395413,5.566821423403805,-1.406242379123133,-6.546273237171683,-1.7593201322271452,0.35088675581958123,2.3931516930469905,-0.40715582875057815,-3.818336050409557,0.6003308418264885,0.5266760373115827,-1.2341904932146865,-2.158945742016895,2.6444147186823486,0.5547970570941462,1.6917590240117897
-1.6217475508434842,1.6237884334118822,1.9293255653942505,0.36522032883121763,3.8118956625238227,-0.4406518213303555,2.759126789017131,1.4163583977910474,-2.7183837784847924,3.6468328698697694,1.4071960479274792,0.47800832712351227,-3.685459940596795,0.6169312057356424,2.4751126329579,-2.0313155337720197,-0.9959597114993228,-1.8872669410965923,-3.8800802403194115,-3.356164715370688,0.6997584371948329,-4.087604399632889,-4.056449024368577,-0.9502944673443238,-2.575052749283071,-0.34325637470669523,-3.702670595389139,1.893409506149891,-5.130162088900158,-4.235286963727838,0.784470561397919,-3.497865156882289,-6.107680525108695,-5.537421781102097,-2.260629154393676,-0.1322417083111118,-5.522375677759807,-0.8877229948949191,-7.0408413691072935,3.7081212061914104,-0.1971644210925273,-0.05482795797082935,-2.8208875315135384,0.5592786701211719,-5.196980070912004,-6.323671011933978,-7.287113669275941,-1.6659227178343536,0.420648126981509,1.8600894806938888,-0.002044536496513995,-0.08252033748279744,-1.5359674748087586,-0.7617235157094778,-2.285768739025393,1.6575532961679338,0.19660583879596705,-0.7040559147883488,0.24160569499703344,-2.371045910601888,0.7548134960663849,1.5851122334576453,-3.2223170679175253,-3.059890971413282,-2.7219365979136736,4.6506220966408724,2.3788233855561836,2.0807355371426985,-1.5866843101012933,-0.33045149686169883,0.25624815323119365,0.3186750371852052,3.358610928196674,-2.370390092970501,-0.6076803890759502,1.3807041292263396,1.787921962650444,-0.9889385955848374,-2.1835898621054097,4.577768773582566,-2.7595536223220236,0.8731211905562162,2.9173650993292557,-0.7886993017128402,0.8299036605788936,1.4784873261145046,-3.1426787340286144,-3.6153476967036893,-0.5465874957924145,-2.0236351902456584,-2.7401034621241975,0.7976561883236137,-8.252330303272544,-3.493722590557752,-3.0421756310648584,1.0976014106301224,3.7382928210595634,0.20825519414969657,-1.369053709547807,1.426078442157373
-3.9731574556549174,0.20603467619147628,0.5568695093231372,-2.399715679171816,0.08811234603004019,-1.8048970814174397,-2.930465232425805,-3.5564128589260813,3.638085634127505,-1.3127834689087916,-1.7631708740738374,-0.5035175433875542,-1.1618393083737086,-0.3963982858522877,-1.934166948232739,2.8290382714176987,0.09016258689090512,3.0712489094326827,-5.621631189646463,-2.095828154497767,-4.406728762745513,-1.897830385616746,-0.03988849973959174,-0.9358399518246875,-0.8890438308958318,-0.67332115815057,-2.3221586826838543,-3.306876364986309,-1.4463777740484434,-2.730046346347553,3.7553725272581637,1.1472759384475062,-3.3290179709562056,-2.825010641014343,-0.8080837702585869,-1.7568220455078722,-2.831931565710518,3.8287688181479833,-0.9892511665421495,0.02494471368310639,-1.715801607285306,5.068183394238852,-1.71291572650937,-0.8996847144577756,1.4705000497808787,-1.8134185126644944,-1.9237218325096468,4.680357844922258,-1.1427384488234666,0.4874921780661306,-2.102961314661144,-2.763826299252738,-0.2946770271083245,-3.7018121590639157,-0.7120003255860716,-0.5776167457607496,-0.8134494182769619,0.8492982074420774,-0.12850604147923742,-3.3272480817163443,0.45569202348151444,-2.6418559220569393,-0.5999741654125419,-0.9175127143609769,0.9712132072049235,-0.36324285772492887,-0.5529291258119181,-2.802382979344646,-1.0194861770865515,1.7683065493127397,-2.577883977381635,-3.4535025706040545,-3.0298144257022566,-1.1834696965530147,4.4419263891542125,-3.6932941029413504,-2.7644046062846854,-3.171885862606754,-0.27047492785722116,0.2623386811490678,1.6225889561417797,0.11481377234157142,-1.4166976960092248,-2.435625160367333,0.2806572328087575,0.8023151344868902,0.03580314455113404,1.2077605717705089,-3.308415862465475,-1.6736074193529753,-1.6131383409740112,-3.638692563646191,-6.050364654811729,1.279049763622406,-2.025128321453305,4.867047861293303,-2.4701143774215066,-4.7645344858905485,-2.020060732035943,5.422975792229124
-1.762987062927902,-1.6231964264655623,-1.2110129259556042,-1.762063584799477,-1.8514711335557443,-1.6847726613613478,-2.197256267750423,-2.974929800448712,-0.3596806709283117,1.7813130673528421,1.171703481031176,-0.1573070949077426,0.7004608441049376,0.5354283632416585,-3.3784224141869834,0.9936115115621243,0.3988148252091663,2.881184527272436,-0.9573286778105694,0.11921280863361129,-0.8840095097918165,-0.4847873458239654,-3.6215792905195707,-2.413979054430279,0.8254308937834703,-1.0233164256333238,1.8658304151278393,-2.720451238932424,2.7211351875999314,3.350177000210134,2.8834502096800128,0.26520800815909396,-3.050047701246666,-0.9748729161962489,1.308316956179102,1.406484158917183,-0.8046286685000257,-2.0104498982807764,4.241539424249732,-2.9183130900055003,1.5316487903077176,-3.231701495964567,5.210068527367447,-0.8697423183900904,-6.440180501116625,-0.03238426279871611,-3.6732588202823915,2.9613167607150075,1.8190708629061738,-3.321043194057719,-2.5161673184907167,-2.4758825861834706,-1.6310470627082516,1.3859035703455989,-5.8106653753413395,-0.09187657879433138,1.7490650998204857,-1.395092838022205,-2.4739215481577848,0.6815101327519705,4.696511369567579,-2.8161800758397217,-7.376520344222005,-4.640993148495914,-2.113220288826802,0.39985463029847823,-4.104335592978121,-1.2653639349760846,-2.39715525513197,-1.6632441287636328,0.016279340770161597,-0.18793394820394166,-1.1463729159556035,0.6533116491680611,0.4662817176404407,-0.38448829895482745,0.12317355202805852,0.28543086242349924,0.7575112667656171,-1.9196294674277719,-0.6441977684119918,-3.25678222606917,-1.072871739234552,-3.363578797850809,-0.1968160913494654,3.269176349690337,0.34104408881467035,1.0425155388176566,-2.3271728207537197,0.045514225010781145,1.9981633522458508,-4.00528315182253,0.669962760479439,-1.2801258749022957,0.3274257635066386,-5.448710074493293,-1.3099982373806165,-3.25586766267455,0.3644278589134231,-0.9655926609633634
-1.7345291866558175,-2.619248578033765,-2.805842865053665,-0.48523709476612975,1.3029396388565266,-0.038997825808376546,-3.095888549685467,3.1728221687006277,-3.6328690707668962,-2.6216152964713615,-4.237764402679273,-1.2367986877856352,3.3458551614922563,-0.1545679043457427,-2.155664300102138,-0.3575817213958173,0.42158695479367925,0.11784540521750378,-2.654421853973077,0.05016167072808407,-4.436770135695752,-0.3415339421376678,2.174736112757656,0.47716925582838865,1.1786982515471145,-4.041968727829427,-5.230024699192488,-2.5605987898386244,1.3955956309540831,-0.5256965896572718,-2.899184464283203,-3.7499757810083385,-4.031317740136894,-0.36124198083380027,-0.6152854214385292,0.05901836669140305,-1.4137568222384418,-4.308933900718772,-0.19148265433470413,-2.251324556874982,0.1583416144381419,0.2709660971263855,2.622087637024228,-1.0882028260015928,-7.983863289012684,4.009777548677021,-1.0165314702043537,0.18352094224316695,-5.01344122962388,-0.05787871978773889,-0.12229366588414159,-1.664488560381534,-0.20516264195666425,0.3735880845408224,-1.1373671448763165,-0.21581798060232407,-1.396280939992519,-2.9151339984572875,3.8457173074239344,-2.016966140850445,-0.8479743077803101,-4.565444291495913,0.2835521950028186,1.453724557749116,0.09317307054164516,2.536124099650113,4.335344096845202,-0.18739864289273184,-5.275345119101036,-2.17970072362607,1.7495069238647776,-2.8338040527676664,-0.11993975671411658,-0.08540615488328876,-4.864343293659899,-1.4948363527545492,-2.5636796647357514,-0.8804785403547063,-2.580103036346018,3.678190201208474,1.067958787786239,-0.8168034546600796,-0.6913977722230745,2.3573469524435997,-3.3274203861643836,-3.1350732371025094,-0.9363647370396637,-0.5162465816191651,-4.502805139574765,4.0137181004112765,3.91257522383557,-2.6084614338061667,0.1383914227406648,0.7137310859638939,-3.0798282420502034,-1.5357205379912424,-0.23196570157402213,0.012010066181213131,0.5049659880496515,-2.326968927365488
0.5340651461950732,2.6911210076525394,2.5432946529115883,0.2957043215437671,-1.1185485775751658,2.402624961007419,-1.9749200301741463,-6.013553163310642,-1.16465647142828,-0.3864849817344772,2.110422934969005,-0.2746545555228985,1.0708503029155407,-0.49838383404704745,-0.5563782875446972,-0.8968412566991618,-0.4708678925526289,-2.104965470651822,-1.3585186908753326,-0.626684647818859,0.9369202727918694,0.3624556072012477,-1.0683808825323278,-2.2989492431799903,-0.494535163745292,-0.05964836888803675,-0.6848048812893512,0.10290050172896452,-0.9453322165738668,-2.130126664986569,-0.34320411366123,-3.582169560519568,-3.0353165513102973,-0.9274691627969421,0.16535911899198527,-0.5876324659220117,-1.0348525884811324,2.9612690607847703,-0.7987718330708848,3.5575333809030796,-0.190043883218303,-3.8620077911675708,-0.7016819485484644,4.003896267339236,1.2443724660782858,-3.850041433059395,-0.14776086821150355,-2.2869264401550926,1.5601635194610906,1.994462168907646,-0.6545895839968694,-4.472466434055118,2.1181784775568593,1.3983971301544509,1.2155783545931969,2.695994342273835,-0.9334345457832863,-0.7090849066447615,-4.744931794713743,-2.11060945135408,-2.178229062836011,-1.8435007713689455,3.841545433122363,-1.6053753210162367,2.4231985876187347,-2.3232808081836387,-1.8912623569811482,-1.1537702783170507,-0.34380114631036474,-1.0079043511576251,5.533772545386284,-0.34766271014858496,2.0033380840282753,4.378714757827978,-2.413766016542415,-2.2705018065801976,-3.9324502856455523,-0.33341118266981806,-1.297417874606895,-1.6494264250655142,-0.6585107784762215,-4.305193254306467,-1.4479953147835214,0.0383096216059249,-0.31673053460015654,0.29506514851988436,-0.9072522296492028,-0.6597120407224734,0.01703319404905865,-3.089094744302576,-2.5316668676464396,0.08118566369914076,0.08762937254200538,-1.2589389842960472,-0.6022580478431377,2.6862581239574395,1.033513439848316,2.4892094341223667,-0.9510231189919759,-3.1587923332467733
-1.2266638578528148,2.2182765567895273,-2.082041074822169,1.1589388042564477,2.4374554528284706,-1.3662408631341227,1.5385319738821774,-2.270731119643497,2.464183676166141,-0.04322230244920912,-1.7255505000788276,1.2219500044504525,-2.9310464073558418,-0.995566857561239,-4.182412414502942,-0.34131353153643024,1.4813698864327582,1.9768838031775873,3.738756845415716,-1.853701069720666,-4.7109510201592135,-1.6032507113114505,-2.7485035127762205,2.2916701673508206,0.1425992248251413,-2.9661461513308764,1.2636978451956222,-3.0742437951465122,-3.9223898087163893,-6.077602440568807,0.579053359434283,-1.6098053417315907,-5.018614181104399,4.904354435482422,1.7491610293080309,0.10234898021256277,-3.1216413074307394,-1.5410234095643056,0.9104192133451412,-1.2769058393934374,-1.1117494346801209,0.4540304250451426,-2.7980705158887234,-0.35510666518076134,-1.6925734921437452,2.453601529094418,-1.0346490461650804,-0.8951860537988183,-2.0042118520585253,-5.521855396905931,-5.715718733501706,1.1492336363223006,-3.2585829602893877,-2.0942069647985657,-1.3172410629471776,-5.074148207838166,-0.4335036061265649,-0.9334248413337634,-3.0348911080957874,-4.40568238858423,-0.12495066368289101,-2.6613638587246813,4.735459223639534,-1.8054907835978706,-0.703162782436565,5.757615479225704,3.7363296872456973,-2.4883695753761237,-1.436451845906231,-0.3369190275893969,-3.95114556624248,-3.9617220620896045,-4.469027282035649,-0.7739109459375986,3.3748645385542444,-5.357323884435655,-0.5912365038931423,-2.9685689266363084,-1.977569588629694,1.3821306075750686,-2.3040277928311808,7.463369687594367,-2.5797549390716084,-1.6134793172204847,-1.6402143770883828,-1.5029852289025574,-2.0773571574568495,1.9263926340197866,5.532593851856042,-1.8521473141358742,1.6897781962327698,2.832641119318521,2.682824411956191,1.0911727889729401,3.1732310333886935,-0.561904319840494,-1.6126217718519034,-0.6961239516385026,0.17436210861455453,-0.777689860516488
-1.9425054175579748,-0.0630013937677787,-2.8588695455992434,-0.6323959500903824,0.7773097304188972,1.5454875773853665,-1.0568410876323164,-0.994859345285898,2.4200332512804947,-1.8614659253210053,-2.5088743491380265,2.374037056740149,-8.03604894933605,-2.956095802050739,3.5260980245924576,-3.34406550924784,-2.04134857166804,0.42290059987046646,-2.5530875388794465,-2.4164920908733114,0.37197308796031664,-1.6704716894946554,-5.572456028888209,-2.916909621407924,-0.33015947590456346,0.2897530279133855,-5.663560582174788,-5.636475696288351,-2.874949570542345,-4.412539533554097,-2.560675220984011,-1.2501283859056203,-3.8658083226476925,0.280179869312534,1.4781474262858474,-2.8815650565895923,-3.0057623906704323,-2.2996653087841588,-0.12167300088783001,-1.5605554568033693,0.7152065580200208,0.21928435544070304,-0.8263017883777968,-0.32991704330826865,-5.565903449950628,-2.40792659993057,0.24136799297428768,-0.654638786829381,4.432959415174517,1.638164470639226,-2.8682627388754542,1.1579844394198395,-1.0737336623326534,1.3303401825417012,-6.742978878482978,0.8240192838387458,0.10173909878283878,0.6652056901011776,-0.36524271257175966,-0.4926442938901697,-0.8751693727386454,-2.1580503402896145,3.7017008144644596,-3.8364853756996324,-0.7860273412113141,-0.08369147990250896,-3.8706179943836583,-1.1389913123270536,-1.8977829741138996,-1.378525659635849,-0.2900211824125983,-1.1488175898788422,-1.0676197682964017,-2.36346751649453,1.480599333259276,0.5879069655318143,-0.8905116061027796,-2.6084633059865037,-3.116298060803694,-0.8658813087096547,0.13289800064856122,-1.618072912522648,-0.5354703578353787,1.2125684171607916,-0.23416278391506284,-2.741589782870369,-2.6390877745636585,-2.58184751041451,0.23077622011099164,-0.8208382639903246,-2.867414948795987,-1.0252555028059713,-0.8471709112284017,-1.3728473893342594,0.8246430086279253,0.6183004646738066,0.21927102016336436,-3.848083969110036,2.291895320253048,-0.18061254146575842
-0.9703502438688795,1.8301206520870472,-0.5794634661844243,-2.892901106984323,-2.6844031404282567,-0.8959799505262906,-2.1224908918803,-0.5316896750223679,-1.747661660665051,-2.002328994435942,-1.6484555715606286,3.3379172206075163,0.8632508402736531,-0.6881897135298257,-0.9871146396282019,0.3794577283533669,-0.023893019765701566,1.591271847407295,-4.380715405009474,1.1277270753637845,1.253525064103927,-1.5033051039395748,-1.7586133194724616,-0.567503854055239,4.293391931704243,-0.9527405972217565,-2.8725093963535984,3.6301250438848625,-2.7675583061157876,0.18980179195573285,-1.9192182673410725,2.217844216097447,-3.4535226560304095,-0.44751151717755344,-0.6595504047912774,3.011023282649575,-1.5356939323918999,-3.661240022916458,-3.25933496396194,2.265972048818843,0.40288567911996853,-2.726462106283267,-4.803734648083798,0.40388208645869705,-1.7196510650404178,0.14320856799207418,-0.9664953032430653,0.09921767920915382,-3.332845926542719,0.9139897209067824,-1.514613258875817,3.7410876547388083,-3.754982682380786,-1.8549275123902393,-7.202584761604791,-2.6467831468225667,1.7677401472870145,-2.0694001579393166,-1.8456195144724612,-2.56058929393116,-0.7427693031657634,2.0886537342979823,3.4187197405034047,-1.0952356288153362,-2.0326317132890295,-2.1188039005878903,3.6392563237035125,-0.395653372315471,1.129241526953905,-2.5794161538382196,5.130522698873524,0.44212899421881874,-4.8795378326069025,-3.1439785614666165,0.4766379515611732,-4.4006457186513925,-2.690021937907124,-1.0425526242058616,0.3438365685444862,-0.39048976045255496,1.6171253136675108,-1.0634470547067179,-1.2069818509349828,-0.1598841455128547,0.0457218501557452,2.730723707960722,0.14208775211811264,-0.3843967914023455,0.17895548708567566,2.836314301934789,0.9651387829700733,-1.8979447615935017,2.274118093048808,-1.4312212508122146,-0.8590704499706721,-1.7875408918038758,6.438032710159957,-4.529405954478654,-1.0471682725547655,-5.251002443816653
-0.7296103239918674,1.2920100871591647,-0.21989633738257366,-1.888063177201707,0.5004787564664676,-0.9072092597240533,-0.09569299183492723,2.494511632328147,-4.517691228367456,-1.5062377886718217,-0.4089322783804268,-1.624041214891099,-4.9704895841775265,-3.318223084871017,-5.772681202518553,-0.7205140970531522,-0.5592379674112163,-2.9622076385509293,3.942469255899462,-3.804525366824728,-3.798430745302518,-1.6386532553091997,-0.6432260878805233,-4.23056834487299,-4.906314739784049,-3.8608504663591363,-0.36544361628202904,-1.1756176126107147,-2.1704171305986812,2.1190122951943926,-1.578104560645992,-2.4396112843160482,-1.727682101454331,-0.22299552479853837,-1.8882233580907615,-2.505412119933945,-2.2122773954312023,-1.1064584007864096,-1.8524920335653252,-3.7719810101799776,-2.089195593585187,-1.1701786944994303,5.374312052020814,-0.5940935149391748,2.758040073768372,-4.523247968577717,2.247494348595456,-2.0468393378995033,1.462357607883652,-2.226695363143239,-1.311129071234956,0.5725082783781402,-0.9753435272845353,0.6281742304835208,0.14657246377102662,-2.8976480612805173,0.5506859957390888,-0.43019432299855886,2.1004514490979167,1.558974073306596,-1.9429523023126523,2.1744906253444074,-3.5151503167434615,-0.14251289467232037,-3.6090340798678007,-1.379604347711933,0.4760928598796027,-3.620414184186992,-0.8817141705565441,-1.2878546191344409,-1.294830323709187,0.5961169090778728,-4.255227854419869,1.3341981994874885,-1.3312220531606664,2.3745067893276293,1.079834741554946,-2.3176803946314366,-0.6251771374589832,-1.509295356958716,0.2317085667146821,5.1273824671337636,-3.4703966845030862,-3.129662038456272,0.05075215768396513,-0.4161169032535607,-0.09479298978822752,-1.763127004037448,-0.09899314303908097,-4.679233601255643,-1.0504856840134256,3.060115501877801,-4.101192978149619,-5.493752616063315,3.278789925597885,1.1974751098236949,-0.4690216570025125,-1.5465199337739624,-4.864303725087825,1.7356144009229053
-2.0564307786094385,-1.1001260112992794,-0.9719956417326365,-2.2753955091484195,-2.821793002259095,0.4019128477155456,-2.3391991673402863,-2.814103254369259,-2.257189966035816,-1.8095567760718843,-0.4036863848535116,-2.3700270619071584,-3.3516555555911105,-0.2738310714832338,0.5279763426022721,-0.6252545956303261,-1.4096175191070612,-1.1099056400313596,-2.3685705332663534,-3.209715248075435,-0.1572833588668517,0.4195630505140694,3.8123274975705095,-2.7218625832762116,-2.987416445481714,2.238676342136653,3.018742943197686,-0.6219916089306917,0.1308097853288435,-2.853149963991956,-0.6421597767917611,-1.1020371591881537,0.5446082470432743,0.35043265969107434,-1.6559146458199308,-2.0022262855799142,3.0690550690839244,-2.797366045730453,0.04942462454621027,-6.135945332796438,2.981766265307086,-0.611686843638027,-0.7874961824788008,3.4695146532746013,0.09315487878556826,-5.364656154806179,2.897880966259429,1.0289418829109689,-0.820534411231965,-0.9942047846595471,-0.6354119903391083,-0.7928578135328631,-4.1090301738267305,3.1067368998222102,-0.12338788741535749,-1.2468507378675076,3.9135846080866745,1.6774880362899212,3.872598176485128,1.844290993969346,1.7249880654730547,-5.905466112839705,-2.190645972256771,3.8891688419906,1.7494216678481211,-1.4032246414442247,2.0956869445652435,-1.6706550428799383,2.6571935462925755,-2.7185978331671676,2.4445636176384458,4.461311165742072,1.4143692292073333,-1.303427926795047,-2.038316177677515,0.6314955495599671,-0.0790643636140377,0.1006842806821876,-1.1609000281366244,0.8980051905179516,1.0906209937912204,-1.5832433754320574,0.8114957520098888,0.6735648233279572,-0.17082219633895093,1.8851010475558234,-1.3508258163645235,-1.6483905246254411,2.039267227102675,2.1230210527422027,-2.8507311787291623,0.6962936461593411,4.186217107563526,-1.035521882151594,-3.34489902588454,2.291306129022661,-6.646989190260756,0.5654176495848717,-1.1669664369949075,0.6340376636604372
4.288609025838403,-0.7540106941780911,3.0876202616323396,0.35155999022950796,2.8648217380659204,-1.265995544911343,-1.6248098689288044,5.046498549371041,0.7568338130906459,2.801670866640927,-2.9524988070897593,2.3511349600095497,-6.402508327073039,2.2514545908918837,-3.3261874279336086,0.9777385990092334,-1.0991423275439236,-2.033849286291066,2.403298279429972,-0.5189412439785852,-3.9482199168026155,-1.496621208055364,-0.4619964023453043,-3.957005897045087,1.6361624769462784,2.2502332008432546,-2.432654568160768,-0.09946159131565462,-2.436036728195056,-4.672028334949874,-5.191666715668539,2.8987938966831863,-1.2540813835185378,1.2215660724980006,-4.720467135083252,1.7404805545801072,-1.0202245017935123,3.013246837912704,-0.7556266744107835,-6.832437513160845,1.8752033110976192,2.452937824760001,4.031973971517829,-0.1019429284282095,1.8314887600337255,-0.6479705995191029,-2.2080689766524455,0.1671557183104448,-3.6614607518592477,-3.960363545011478,-6.169528710090366,4.214903144582453,-1.109912811472158,0.22104750522193736,3.4754615844183676,-1.996676048235206,-1.7610516914837027,1.7804107608422282,-2.252283481900096,-2.8607483310165773,3.929344899371742,-1.269691977992721,-2.1865674002980873,-3.732808154148488,0.7367126729619314,-2.683509881830886,3.0799901942769328,-1.9054297385833157,-0.8244435682083716,-3.247070371711698,-3.687568871077604,-1.876070550245605,2.685552549558597,0.02359063325497631,1.874411358315285,1.8863315041455861,-1.5145155033233635,-2.038001958630125,1.279161102590999,-1.4091128412050866,-2.870452763678566,-2.5985239597411205,2.9077503635075757,-0.699287303160385,3.821798881055142,1.5818345100445113,2.9249055433821654,-1.0325741158437645,-4.5854369561316854,2.106114189119355,-1.796064358992641,0.3382630468593697,-2.2807009096448714,-2.0814044666578773,-4.256885957042732,-0.5462674980014851,-2.4007388473728635,-5.224896707718342,1.4854810997729813,0.7025871901912817
1.2812754654031466,-0.024196949501290005,-4.799016133297947,0.058482218475587135,0.2029341395885276,-3.690393059783534,-1.9827677266050325,-3.652822111913215,-0.383623130197603,0.6267390074530285,-0.33741097452753066,1.0698439019790922,-1.4394651139223298,-0.6548920456590999,0.9175888914589868,-1.9736250563015052,-1.0311664684470911,2.413488537332223,-2.0741860545403923,0.6028243431961026,-0.3258090818682629,0.624979221332466,-0.3104228193364105,3.6342350709877116,-4.656070480403156,0.23182028013113842,-3.2313061623785315,4.116852639385315,3.032939626138819,1.6111101099794232,-0.610257341426607,1.7506210901027819,-1.989733026883857,2.8887798274243197,-1.1946128362907176,-1.4757665531389128,0.8352912609498296,3.1030506273837624,-1.221780623385339,5.465049782848611,1.4964517619986217,0.34319000945689293,1.7346904845601705,-2.0298645783695246,2.4664473193158676,6.011056458562127,-1.034000802037284,0.034792323603901935,-0.6972716569168709,5.341502570509756,0.29999269721081234,-0.44802461538047067,0.8123462183306475,-1.4257632043719723,1.6330735826365077,-0.2833074651583094,-0.1902692911883357,0.4653246932012845,3.6250321052215884,-1.8947303520589098,-0.6555025404911955,-1.5009462249178127,-1.4816080873148114,-3.555636993213683,3.9537610487680968,0.21717872873575583,-7.8446134622659764,-3.6355046355486853,-2.7742865782115227,-1.657266915210878,0.34645133743042067,-2.2111207365397667,-0.3645480768877405,-1.9209319421671465,-2.280704340551907,1.0218932314301163,-2.6638893210644645,-1.5710279642997307,-1.7092106243266867,0.22318360940234866,-1.0840159108233298,-0.35990101663665136,-1.7231887205392162,-0.6801616230956947,-1.1959421978431664,-2.993830611553986,-1.5594947621728052,-4.4874743269427615,-1.1794908772985155,-1.2006238507298521,-2.112654947846473,2.1678097710731867,-3.4067256149814726,-3.9461664684140056,-1.171261006099779,-8.33499680103202,3.13708448868248,-2.834160822883074,1.3707237107370553,-2.2034006361524434
-1.0479042850430607,-1.207542278520525,-0.7684035335731517,-0.8747246137129572,-2.6443507778900592,0.9206962421820848,0.33672017305044727,0.37291312908780117,-3.2135517107073395,-2.1911607178235446,-2.093341807331476,-0.7954062792284473,-3.073306063089829,0.07611923217724419,-0.6147842979757707,0.6624238471284504,-0.3537165265136955,2.6505593723069576,3.024454273559665,-2.2362048210740193,-1.6902287035375936,-2.578972575526855,-0.7135610058441904,-1.9715272447382703,-0.8250097265816557,-3.0527685231408546,-1.8753151337138247,1.1904752285709137,2.043239889001481,0.21325920363742354,-0.9741818780911792,-0.5307297336754084,-1.128193991558576,-0.9287784460211927,-0.5318676251145645,1.4889360020548053,0.25845449200334314,-0.7699813916067857,-1.1445650317602942,-2.365693798404235,-4.170143894980852,-1.4657720726823193,-2.395216891093362,-1.7019752908564265,-3.1145967526629077,-2.1276351388825794,0.830239725216219,-2.580649739037062,2.727312677191219,2.1415323184966044,1.9009372954397845,1.241611739002277,2.12101177432314,2.3611105405611554,-1.3442147172249292,3.5153442680520133,1.8441804780983881,-0.22797306776284648,2.7345746042061063,4.4293094725041,-1.667109973348988,4.191230603125258,4.876042113482982,0.026020659049411702,-2.3869557242755652,1.5231417384195187,-0.030739842077941695,0.5047017187863512,-2.755095222708148,-3.768374309338912,-4.05963813020964,-3.9756834085448687,-3.0890139468678046,-2.8514297596385707,-7.2296663399444565,-8.91115777840824,-4.690260978095116,-2.6847885911929676,-3.696754242152732,-3.6058582849328213,-1.6431570316263315,-7.402836519917429,-5.322718273020206,-5.540998580160304,-1.9804608620351636,-4.408055034535962,0.06094629077131695,-3.054970332917183,-6.5923444755751515,1.2122622478700287,0.8988997147604328,-7.50840040826521,-4.924387232582805,0.49849669897083637,-2.056613691244447,-4.217823354798491,-1.6006660870149365,-0.5980597477073389,-0.8176205883102731,-0.9827227223123428
-3.060422208396625,-1.4777021684742575,-0.7835572663233614,-1.8445095932665014,-0.6867854593551184,0.26370101778259664,1.8548116971413162,-1.343388083493909,-2.1289384406821106,-1.2386615720982568,-0.0132249099927553,2.29879311075308,-2.1221850815992664,-2.2614570620449284,0.01054560946948419,-1.2012920700995904,2.403106120623044,-2.4053218574089033,-1.9086714107755796,-0.3648298888658257,-0.7200888887501437,0.676549304599275,-1.7874785374591964,1.3050757723959476,5.217362810717402,-1.786442304313462,-2.481916249999275,0.7542715985210782,1.7398075060381477,-2.391784085609196,4.0591783356608735,-2.183633583943228,-4.813392188353001,-1.2349402265174667,-0.534092388028774,-0.8307406058360104,-1.363554521561349,-1.9968152099875156,-0.028182158029790093,-2.462949343067273,-2.3500710907807294,-1.6263389580589516,-4.38833038194091,-1.712825702569027,1.7599613202293543,0.9920553958974065,-2.1677280306371096,-2.844300340653005,-1.5160538607577214,6.203174888282025,-0.6263519532475988,2.968044321304964,2.173842199301355,1.7268397303153422,5.376537243436349,0.041587932421784816,2.2229805241007394,-0.28280370573427915,-2.2412096831736923,2.00728407830543,-0.8526448002776007,-0.9906294799869814,-4.5273962278045845,5.205296162577807,-2.119419788898383,-2.251720202963904,-2.5735484081863897,-1.3184000158591498,-2.079837833163143,3.6771783531704196,-3.7109078924623904,-1.68222088148429,-1.0431751992349996,0.02660235948146479,-4.777168146466933,-1.1763916287694276,-0.6306339220310201,0.5712523073091251,1.366720790153597,-0.9798297825046035,-2.518879747944853,0.4789706092428145,-5.601579745128461,-0.3882832085352143,-1.0362158340104615,-2.4478457048554936,-1.4355376560648074,-3.9753781515708537,4.277103566866215,-0.057547928448461294,-0.1326742465350749,-2.6729432938714752,-0.7797340810685746,0.25744037311035145,-2.7052937957992116,-0.31361461429294185,-2.3284939321438696,-1.9854248451714216,-0.7772689950646022,-5.075514651279926
-1.1827847703612095,-1.7895547477273968,0.9069658458612574,0.3058821427864399,0.1295323656267587,-1.2894123786934675,3.4422792661557153,0.6297676525708482,-0.0972205152828114,-0.9454771419730491,-0.7434415733690025,2.4311152463330132,0.34079062749048017,2.5203374409989356,-2.157530227022618,-0.6550340764650222,-0.4707392761693162,1.5996611673154815,-1.4007230672668198,0.7295262554383974,0.6816183789421525,-0.8885601038022808,-0.5238097071213759,1.3164477735931044,0.24113580479838298,-3.7783441068346226,-3.212654160888138,1.4915706973595497,-0.9761176138070652,4.247575829372763,-2.7634846038388696,-3.818133331317898,-3.326416649630704,-1.0977948992844127,-1.3043640832116354,1.6428457967401922,1.9084433941667642,-0.05385027907826548,0.3749999262208043,-3.4730920462237314,2.6432075201151295,-4.048391110300924,-2.3679257036684573,-4.451067670235119,-1.4088263827959617,-3.1460318036332953,-3.2678035089805118,1.036263953301043,-0.09638189969662216,-5.692442041715266,2.6237541640626665,-2.7031306489814795,-4.505798769392114,-0.36850660169940874,-1.1212504257830413,-3.095509546563508,-2.5625793529417433,0.08960200935897274,-1.119438139968316,-4.766980264625257,1.7561452395520514,-0.7827559508135115,1.2361213836434093,-0.28964729180241816,-0.7277364400311057,1.8694039553551742,-2.1767098653682346,0.05663860757645203,1.0095496774110482,-1.6847039328312756,-1.7398387656316174,-2.3576971650078886,-0.8937914960245694,-0.3030513926329163,1.4220993534036843,2.760460284277641,1.0828951266467393,-0.05398481779981448,1.2818033003158562,-0.36551264377343395,-0.6317437017642132,-1.3127641396068472,-3.210212957088744,2.141775349992181,-0.29172876532219577,-1.2347615818596909,-0.14076793074958324,-2.0919911339878223,-3.462264356257476,2.8708687460014053,1.7943623503210249,-1.4274440737118672,2.5565772527537356,-1.2628609851821855,0.900873671878387,0.45542343168122296,-2.3105603767570035,-0.9546365867840354,0.49959542996673467,2.1544178360523554
1.2448147763651778,-2.3003920262879873,-2.6040476516881044,-1.0454394962978721,1.4077378066130306,2.4135256275206105,-1.1219214185324073,6.682283838463632,-0.3856256318703988,-1.3768735347345775,3.7483532866791327,-0.3512950735564526,4.252133196698086,0.2922196957228991,-4.908986589751617,-1.1816727104332538,-0.39500683458396146,4.212832198473751,-6.454828459808094,-0.11415606302375293,-0.697895595618107,-1.2840456206706552,-2.7428971601913443,3.495996180538557,-1.8735608318863493,-1.6630598954399574,3.056318854613379,-1.334153930078537,-2.840819270613815,-3.4642708520838905,1.284543285228598,5.833944207183446,-2.005908284059307,-0.5639817614062738,3.696665347611791,-0.9856258981799205,1.4972086138392604,-0.6769833476614239,-0.36197964785813747,-1.636608764260481,-1.8263686078523262,5.821314295612759,-1.240197092130496,-0.9557493505476613,0.19758296734935757,4.567693918873167,0.9961676021440659,-1.741287274510808,-4.1666003020604165,-1.2705863204451857,-0.012627434334266595,-1.9445163810391473,-2.628737769028445,2.205778704198175,0.37595856807956907,-2.0644539991099555,-0.4385913613982453,-1.2827058011102912,0.02679121198999935,-0.6246193733049529,-3.2932978353566202,1.3359128908055353,1.5823307176426655,-1.7913295828266256,2.621013292514103,-3.5624102838795535,1.8576255663437042,-1.4943312814830123,0.552968557595443,3.349294656708509,-1.6363041346441436,-1.3361881621585718,-4.568091679781078,2.167158221407512,3.5065386274039008,-5.39003956924827,0.10771703520213119,-1.0442733323850069,3.5221647274310577,0.20696912054615402,-1.117808405178464,-3.2868476602356878,-1.1276455799133835,0.1500235579324669,-1.1250651469801045,-1.2350065709180778,-0.8138708600920738,2.7132216405704432,0.39601809065498644,5.457961847142947,-4.851419985231872,-2.5283005859864067,-3.2977389598249203,3.1666583743815346,-1.2395114677017687,-3.0411069360378136,-0.22376321478214134,-3.142778493751539,-0.8391389728670275,-3.811098656348884
-0.8395948870539529,-1.669875831700483,-4.356444129605835,0.1866778737032648,-2.6389785249645428,-0.30833410580483733,-4.044434856389566,-2.6443996834594508,-0.3268359575699741,1.6058166720894833,-2.489201740049582,0.2939096402355598,-1.0153238033197611,-0.8451507897696321,-4.94950649851654,-2.592599233676864,-2.367360477222697,-2.195395707322528,-0.4610865017819351,-0.0894607616081997,2.3052503406229254,-0.5283949661619705,-0.7458729235346832,-5.023297818710988,4.518775319087623,2.515899398362669,-4.473583675378645,0.18726464226198541,1.8571823097136588,0.14162679305155393,-4.086752776346458,-0.008547379837471319,1.0832280717550464,-1.586146706777716,1.493928370011502,-0.8409117062376202,0.9726377692545323,-3.0175521161450725,3.3604915166823557,0.14600956007325422,1.2580402931763663,-3.221466119102738,-6.172949606778589,-4.80631407774411,-2.555200217654779,-2.2155526059939756,3.0772413710181357,-2.983402889956426,-2.660558598981261,-2.488448572043246,-1.1752215045188366,-0.853658385753562,1.6731623380067315,-1.6768554813361447,-0.2229022288125112,0.09969528103612703,1.0023269953378084,-0.8574379876325943,0.24539241846580304,-1.4433288376287945,-1.3686223275118665,2.9787908922492625,8.731438490268937,1.3409954152418517,-4.7757386561952355,-1.1550389744869705,1.3388645125755683,1.3030446207371953,3.4516065043915454,0.4189403312765214,0.20300069496790815,-2.2137667193841124,-2.699098275542436,-0.8963204946405767,3.4584648737833836,2.0986282499970277,-0.8259185655592558,-0.11067884547058654,0.31094551778669877,-1.9851681369207717,-0.8262455437162569,-0.015747940922746093,-0.5174717687563484,-1.2938994650080622,1.0764058586554628,-4.637331818264917,0.5565681490105101,-5.1948668022700115,-1.6347959002461174,-5.7354055720846935,-4.940372399222467,-5.278820221019367,-1.0485031856081617,3.801829971915508,-2.7451291890272898,1.0354521110944717,-3.7137942114429894,-3.4584385933926116,-1.962144484181971,-2.515680180066675
1.0447738514894405,-0.9172718632826456,0.09010275419981892,0.5196549710313343,-0.46475649702866795,0.5949568707858006,0.31489631348058134,-1.718927579201109,3.0840105722297353,-0.5319782822975383,-4.552266697293141,-3.1971765460269075,-0.5124629498121636,-0.6520970953550324,-0.22334797563402561,0.4692515551889283,-0.7017417574558528,-3.158416742662407,-0.8970968480867477,-3.8461876222589497,-5.07825786245565,-3.6709843420288517,-0.692692136523031,0.45200525808069614,-1.80213833177607,-4.278475760825229,-1.5647791106071198,-0.38116877764138346,-6.101659041705111,1.3605265158648778,1.3421361067864275,-1.182165919224225,2.3376303618654473,0.5689491418528032,-0.5024844416584101,0.5938875282742256,-4.9843493217159,-3.3691950843373255,-0.4294569991611504,-1.692461381524695,-0.20757246584598857,0.10964496237358869,-2.4107953219598546,-2.346551234889253,2.62055876213522,1.5593812915206222,5.399521262530856,0.6561300328379244,-2.181882389137721,0.24507496174401427,-3.1898601544965883,-0.7236566161484405,-0.937721790436241,2.785375410544848,-1.6930596879788746,-8.649922780810243,-0.43125072199820325,-0.07516840520698546,-2.6894943735986945,0.8090542468215293,-3.448842830354733,-0.8584249172049545,-2.2383181088371176,-2.015120060704197,-2.6224658454544953,-0.9825369136106327,-1.2171326626058463,-0.5219549368455173,-1.8874108795643125,-3.1847332717537213,-3.238812560576976,-0.7601761301534162,0.7575472078558224,0.6936074530054436,-1.8277271418561087,0.021329418040775237,-5.334335775658303,-1.6951216670712879,-1.1659469706287233,1.0676150842438286,-0.9990154222086676,-4.457934845962695,-0.0810288768218807,-3.4687100368176353,-1.696568630651307,-2.4016101758254083,-1.9255213917938363,1.8066362193385272,-2.347704982065714,2.4118056127554857,0.14439370793909678,3.3870924340482653,-2.6422058765134335,-0.21132804454942597,-3.40610237964854,-0.3829881974425306,-0.6135032728266002,0.032993967880940556,0.9935254513437796,-0.01579585939287294
0.9293286783626764,1.104212424331078,1.477819361192984,-0.8276667945927669,-0.002917661820367377,-0.05493823632806068,2.552877088404092,2.9670282298673034,0.13605070992702267,0.46033756677537746,2.285286802565757,-1.0116840869041972,1.157051504406165,-0.8112394798241743,3.399833830605965,-0.9158509551316015,0.43680731874856055,-1.2507820407998127,1.3540141090610338,-1.3716474237289673,2.3657001718603983,0.04389416413984279,-0.749320677476645,2.3211818103150836,-0.06900225061492841,-0.311194826250477,2.520038652755583,-2.582365327538933,0.260438589678157,-0.6618034684037255,-3.7933399298510038,-1.4088133941273675,-4.950028704195577,-0.2958478783067932,-0.31558799355233474,-0.8838981283977583,-0.6935370836299607,-2.3571148579808847,-4.4014020825231235,4.251371533126443,2.185247330758744,-2.8150645546632407,2.4058766692639164,-5.550133000693291,0.15887968091644183,-6.6362069591696375,-2.5475986909939867,-7.1241972456848,-11.113195649810416,-0.15009617468960249,0.0354175885016287,-2.590727170975461,-3.8692015995309954,-1.8240445614944132,1.13007354267334,-5.489817057826578,-1.8750851785201768,-1.0507132132125823,-1.5065706955413027,-0.6747850108346164,-2.100029707789295,-0.9830573119504843,-0.5372804354270782,-2.2743471830627917,0.8440533322101584,0.335947226957372,-0.7568470597135653,-2.044718318020035,-8.218126692346635E-4,-2.974478056921763,-0.5063425729127512,-1.4988592798703528,-0.6619075913596235,0.4404931130194017,-4.264939040137062,0.28338133742722593,-0.15321232030700713,1.705823116067188,-0.9713948618254791,-1.351907679454624,-1.7935583812951414,0.5822190783816656,-1.9196259052569737,0.7755444206680567,-1.1283471607888176,-1.2611874993149057,-0.7029459771771963,1.9364256945360458,-0.776218142404843,0.11127280231654485,-2.038809598551353,-1.920743152430665,1.2288206109692819,0.13893937681317495,1.1131865590119143,1.0465087813198837,0.7475510156697563,1.3573138912099003,0.31387185611668333,4.221745938335339
1.696531905653074,1.1746275794807213,-1.102987443594517,-2.8256266502218224,-1.0405472501948045,0.6482647661175681,-0.15238175583765043,-1.7154079152881079,-4.190433954030664,-2.434058031306917,-0.6848757828233986,-2.7992591699898437,0.051193144568026254,0.6394013151776652,-0.9633822120305623,-1.2006316154417176,0.2060646739886019,-0.6328697659848351,-2.797815702240204,-0.2765028850439996,-3.314590941315548,-0.7129208963105687,-1.5313893223134916,0.8525925488487174,-0.4122359277455731,-2.6809774605295176,-2.292884135093329,-4.768564489701929,-4.689875687743391,-0.4206938417427707,-1.0250673771958898,-0.8251487114998172,0.21899818089690884,-0.8058188473163328,4.331310268307345,-1.6754083675133737E-4,-0.5498312888273422,0.1842509260608319,-1.3167048174791818,-0.12661568025127037,-2.632471780615375,2.0932029024635335,-3.609634690478023,2.6963883672419837,-3.2734771931355646,1.1565683979022452,-0.7393715094545295,-1.0833582853230144,5.802378945161831,-5.639100866804678,3.3041980714340147,-0.12344248910692787,2.08876269240852,-1.0999747635713528,1.832333791385156,-3.95847645762594,-1.190510091361905,-2.101182943366023,1.2697438099338463,-3.820957045535647,-1.2869099926180152,-1.3029161318575069,-0.8976157484708316,-2.2628550921500987,-2.0998452290831855,-1.3084856360050818,3.65238272047336,0.9787355750448913,-6.154630779299648,1.5775223763055195,7.2398139236686125,-2.3199556879375747,-2.383441036552461,-0.8659603922782881,4.950545140636695,-0.1442410663502058,-7.47174647588417,0.061783009715033796,-0.4628682225633168,-3.051186774193109,-1.253262152781448,3.0236344041974808,-1.6690952076109136,-0.2035531375647945,-0.215754628895476,-1.6656013306977764,-0.6391932805200757,-0.5337423814964621,1.294845444218326,-3.4902795655981156,7.007452129991808,-0.5664599718703657,0.5965714738984982,-3.188346820387754,-1.2268891236955044,-3.488780996657041,-1.634252732863355,-0.7053932934922026,-0.46996510362711524,-2.437729602631977
-1.6407425672701874,-1.2595255332069468,-0.8178709573594711,-0.9594650629334683,-2.336595879762769,-1.629953978747117,-1.544128936679248,-2.035304431101353,-0.07366425977121123,-1.7915402768603383,5.280603318939759,-2.0040584854786365,-6.634351120886005,2.093034080075541,-2.476384061870396,1.307896693036559,-1.0728777113432286,-3.953916222453277,2.699843714135283,0.2475744549112431,-0.1483106934387907,-0.5169215097662468,-2.7603135220375536,-5.362443952965101,-2.3848916406676834,-1.9545114240593167,-2.5489879411262355,0.9081316743429367,-4.289972155005637,-4.904764873308357,-1.0803311085447704,-2.1806448363409063,4.249031717805564,-0.9538525076729752,1.3782473200549197,-0.6429599093240203,3.940416988627983,1.7631377270546444,-0.5558850511382628,-0.8746097118881959,-2.483125581391851,-2.337532689532204,-2.5668389586505866,0.13573350091256542,-1.926792422210374,-3.965763270963734,-2.3539881169550645,1.2502964396663108,-3.5750105402719554,-5.46676951588617,2.718839390372664,-0.8535139125378378,-1.4719393742642226,0.25341958046349067,1.2804872102639278,-3.009231345882611,-1.1765951701580164,-1.3180634925151973,-1.9815954972515901,-4.614015324243378,0.9496776838982244,0.35464945667978903,-1.7463386767397044,-1.9969625222814644,-0.3319212292865629,-1.2916529547307156,1.5849193077027548,-2.9880935035946923,2.378862915088392,-3.4254111594681445,-2.9041862691904288,-0.38238900978896695,-2.8627079435884344,1.3018771945491736,-2.5144316707936376,-2.0470430347701742,-4.085444890274374,0.8808958291067471,0.07798752231394923,2.092003610285231,-2.2102817552593788,-0.7953226431472712,-3.3344850272998974,4.346547050296037,1.692606177169003,-1.8948241612979557,0.401516772215088,2.2103109745386087,-1.4046172834546076,-0.631706427263981,3.8962408754939877,-1.0032102703071477,1.2273894198792834,5.749556605144344,0.35074653335062617,-0.9426712586451522,-3.5260804103382246,-2.2553987782842038,0.37480732614605305,-2.762425819398171
-2.0338249233749215,3.1179006467343653,-1.8615755525084896,-0.3463722602754509,-4.240255932930851,-2.35304130482022,0.6344038477735794,1.0921992547778454,-4.417146986489841,-2.9936833342626374,0.385168667203477,-0.30439989423568314,-1.8817434751228537,-3.014215110674014,2.1923636330714094,0.6015828790103038,-1.7046646130821121,-4.325286520224807,-0.47400425119794026,0.8185455240812849,-0.9540445666974988,-2.5322132128322448,-0.00893780187297043,-0.865762408863908,-2.029305927656444,2.0073878163469385,-0.7639105393402871,0.1321902634634477,3.8415318323972603,0.6580753267630497,1.9514790048863322,0.8470653076080092,2.278255786408829,0.6404162820657096,1.6024684386276915,-1.448771546348682,0.7080878464417837,-5.507737765181283,0.35049282419749733,-0.5887102365482015,-1.6119278668589019,-1.0376211221885532,-3.1233497312486134,-0.7568592048809942,-2.1772628421442377,-4.145306824930363,-2.6558014748188703,-0.25944761519846155,-1.4350708281130369,-7.573205009244674,-4.179618257098023,-2.3903046558987078,1.264747923948084,0.5300850366741587,-1.659898192124011,1.1093296518228462,-1.6480361873306524,-0.8009725210268689,-0.7008895681761437,1.7760069966901457,3.5509525086733444,4.84010504772945,-1.9736539557995834,0.836923837889146,0.3348333925058188,-5.371175444451384,-6.875943159569769,-0.8884893880072599,0.6163019572843007,8.88800090730992E-4,-1.182346359248686,-3.3962666816282803,0.18195695856090938,0.26775069267437585,6.575286261659138,-5.257983501615503,0.3421108718721395,1.0732512413966326,4.6900514272144305,2.2330494389652458,-3.0953434175373897,-3.2220331675768294,-2.7012261739445016,2.6862168965150843,1.3882388076311396,-0.8192293825227766,-0.2551437368799006,3.268582995969868,1.3963089452350375,-7.794758833465182,0.589313988200867,2.4475822324098098,-3.277665197245682,0.2177250083067418,-3.8493294078287343,4.439591848662785,-2.1911900369078556,-0.6121536106772458,-1.3132705674070242,-1.1617851169406235
-1.6950522274120015,-4.036157283674743,-2.941260938486639,-2.2226359281924006,-0.33393193074345034,-1.4669664966726508,-1.7710575410985223,-4.024614326866422,-4.1817967131715745,-3.079226886647873,1.9281899256984751,3.1004597906601505,-0.01284009903526308,1.3965657902471589,-1.9911913919177349,-0.94328854295454,-0.4254356062506813,-4.793638999848652,-3.363791527407383,-4.326921978854801,3.3203727074681217,1.467886823220288,-0.1339455310857539,-3.880943186716493,-3.0387716510281892,1.782330069773641,2.0869368192382094,-1.3580867516041288,1.4155916271163405,0.5825580220345372,-1.2439996264413902,-4.533558258251014,-1.191810347307754,-1.4098438220296967,0.3333240188564769,0.676168155484749,-2.4327965361001964,-2.5303789187595003,-1.50166765909935,-0.6237379492190127,0.749967907983792,-2.6248309898619446,3.610578809481012,1.3564753334379847,-4.4634416560422965,-5.092221783217939,-2.618454751675846,0.8286165142199887,-0.3835303001182303,-0.4028735968578921,-1.6887863894108732,0.12501678917079134,-1.4537251096107515,-3.2053176153111007,0.3137566495943498,3.6521787379253783,-3.4269050565125054,-0.40800206067385586,-2.54100231759026,1.8953827993433174,4.656690571652163,-4.986571185857891,-5.202201162198947,-4.652336077789424,0.19275931923872855,-0.9874673241022877,-3.3803964541830904,-3.3589653534372155,-4.583549658256536,-1.8105401597486246,0.027658636125551837,2.1005493029532425,-1.071085917796141,-3.8416492769507617,-0.5111491578145732,-5.1599509009444064,4.199012177689671,-1.6546384773973397,-4.805491628623125,0.6407551612401989,-3.4681889522100184,-3.6715860066028956,-4.452482926935168,-1.268876443877625,-1.5504969283550427,-0.643420367193464,-4.0729838530677664,0.9576164979665317,-6.901143675049706,-1.5217886889083834,-2.157571345396402,-0.21017608783413283,-0.5493485288359632,-0.020612905421286503,-0.041529123231468894,-1.5838514081450121,-1.9669895668017456,-4.4855675061382865,-0.5291761957005291,1.286196098130815
-3.7117600479718322,-3.435439899353899,-2.1926675263286017,0.9064179461120747,-2.8619892136916745,-2.80347622048696,-0.27977510910316794,-1.5017503017353342,-4.353543569326217,-0.8614482586168681,0.5445784034352087,-7.175234924959124,-0.20451217586944412,-2.058313290795032,-3.7103752069737657,-1.4045016268243182,-1.6189513551065267,-5.739103792404963,1.5165975560611715,1.7731012610089003,3.073812909557205,2.014870087678375,-0.862445330068835,-4.051229211820392,1.963600070305069,-0.5626840930044616,1.4197672604839646,-5.369536875241558,-0.5996989703576906,-2.2000863699390685,1.2223787142354463,-2.958486428157146,-1.0778954435426,-2.946837985798875,1.6324822200557663,-1.5746056780310032,-2.473234820307241,-1.694492454284185,0.24192271154448086,-1.540561286180784,0.489558966295772,-4.855735729494621,0.22385663244448675,-0.7051019379192626,-1.4401547895051927,-1.1341746132063866,-1.294143053238554,2.7375438199908304,2.173747800228315,4.124339375812949,-3.7166803823752614,-1.1773447099248067,5.210672013013604,0.4102142279278805,-2.938535618003069,1.7517991755629667,-3.2796999362965735,-0.3111999132326586,0.09127253787444506,-0.7751545368402759,-1.454673679561527,-0.8487407799206567,1.836412028908543,-0.026396354006705248,0.4654699047325495,-2.1865785332677956,-1.8775020473237045,4.22470557367288,-3.051492551326089,2.398847470356009,4.516898894948476,-1.9272833184205551,-2.2906795356005056,2.1274986172837913,-2.9057860703954264,2.2345180519106944,0.19527762858756462,0.4710093633548736,-0.4382777719594404,-0.9795587020120664,-0.655204765847534,-1.1015461716424673,0.42081290200104515,-0.8603931292287645,-1.0541735654512867,-0.7162917366423791,1.2211675511691236,-0.019810443176948876,1.682671429033235,-2.058682084003565,-1.4267454407816744,-1.4557995393094463,-2.795901281545463,-3.798766056249998,1.4955558930807678,-0.2906908559170227,-4.062747500168939,-3.1949283723554975,-0.5224423829266119,-4.992203941285247
-3.56384682926721,2.12934711650594,-2.1062086488958065,-4.298511630316982,-1.5572110241794046,-2.0883035697284194,-0.682202136236829,-3.0758557706114344,-2.660383458473786,-0.4651605944976669,-1.9663287735457686,4.422841224650872,0.10961394446398229,-2.9849802074610943,0.9009334681320975,-0.06648025830565954,-1.0917166446567337,1.9778857843842057,-1.0165173748110408,1.404559469977636,-5.243879900102665,-2.560416615098324,-1.2763814868593004,1.031938514341612,2.4890692721181757,-1.7398568130779242,0.37590047974417284,0.7757477715227425,-1.1956579506325966,1.8458401315842226,1.0609234728470207,1.9317697079773792,0.78565805076297,-2.795709393552968,-2.7180253088592696,-2.472306617257501,-2.0873008240040782,-3.554875491965125,-0.2453267722089997,-0.8709177468341117,-3.102349848870124,-1.8316701962840256,-2.5504607729662596,-2.9739754289113645,-3.3297750582497176,0.8832532326481963,-0.5254936886067881,0.7406463634947299,-0.9118731863265916,0.05738493335252253,1.6496821483932749,-1.4722523027821184,1.9217737195950053,0.26321212870466504,1.0168967153017432,2.480030692547803,0.006220425763496216,-0.043572099390462596,-0.35001229645967347,4.251243836263416,-2.544465503361153,-5.965272305080978,9.52972000034352,1.8129599695140606,-4.514993764431324,-5.642441823965372,-0.6932718013366217,3.2616944600913422,-3.367229055054409,-1.253520960333562,1.6669792315192078,-3.314157248187824,2.1429290073575884,0.1537568759585269,-3.504004652217702,-0.8502118017488913,-0.25743960497167134,-0.1817613966861452,-1.8804543218344822,-0.7754383458679545,1.3361755451288047,-4.0900603824745465,1.5263742699112137,2.4655525816769193,0.5542903576793011,2.2603641204995926,0.2448926902949692,-5.7215203559373835,2.8121357963256335,-9.431048883393796,-1.0472357176704108,-7.15327185508504,1.165055172398813,-1.2234414908258842,1.4794955256854236,-2.3383289648328525,-5.160891855168565,2.2038503649757173,-0.23731881660695886,-4.427005736445982
-4.169142669543937,-2.889785504180253,-0.7508711915912158,-2.8085307797672403,-2.7433500739464125,3.65010886172784,1.9731238810012794,3.7737460284707427,4.099541960593809,-0.07083037455608755,-6.498377127884896,2.5733238582252653,-0.7935726344848846,4.979009218452886,5.40638032675573,0.9236394816404302,2.12899678766717,1.1585291254698145,-2.3849553802887105,0.6177341366824408,-5.912395004654467,4.536104303945275,3.133610633109658,-3.7705734749564193,-6.405731816067066,0.7562044807069941,-3.0688175530009234,0.7077387581060864,-3.2163389315989397,-3.4169652530500594,-1.6686562019599311,0.922958443018543,-0.2685651769786465,1.5107545003966671,-0.7593193538683602,-0.7624797650539181,-1.8020300717977558,0.6711262220574387,2.7627597914340174,0.07167414500491352,0.11487746322265588,-2.828014865408661,2.457194206251051,-1.7553328865476026,-4.573012034697474,-4.865207923211866,-1.4777987429797843,5.249255250953202,-3.029334727352799E-4,-3.207012694340733,-1.6690574905136342,1.3572886056619469,-2.676209082138048,-2.187135886412909,-2.219987246137242,3.3648879581619267,0.13866747440857907,-1.0481331542101073,-1.132698305448214,-1.0221834258215954,-3.5186291367225597,3.9605635014281604,1.8444244200891662,-0.7775111940249079,-3.456544918700775,-1.2508473744959256,-1.1312027607505188,-1.0700112643158413,0.4139582846434066,1.0490952596632326,-3.962105523297045,-2.0433427861331444,-3.4122810119041045,-2.293746809785149,3.9861863050459965,-0.39906426721953386,0.06527954300231045,1.310810751999405,-0.9984174603057769,-2.6011232071269244,2.3372353332273557,-4.0674075838535035,-6.481198439568559,0.44446824572364224,-2.7876477960537516,3.594861835230351,2.0907542824434966,0.09286650790394442,-0.4044624365701154,-2.5925572948553284,-4.403477357344796,-0.6680985398558847,1.698624083554415,-0.8780576346702592,-4.090988419508308,-2.8189689561691904,-0.9574509580761336,-2.3322630518998557,-2.5718203926247254,7.639849051361884
0.7002883337611294,2.228102055474505,0.8305465860936176,-2.3018760228578596,0.4627213019968979,0.8179524744208972,-1.1334569064860889,-1.1074612639241992,-0.8647858840149576,-2.0855441055915795,2.7884248292153377,-1.5432206072558683,-3.2483515187328704,-1.8166879115180394,-1.1634403134205347,-1.6691344286387912,-0.09123032016645334,-0.9764542889565413,1.2762195478747231,-2.511770855552853,-2.309300426323144,3.075392291786279,0.8861480108700566,6.981129509554118,-1.8966147291914295,-1.147419469648808,0.49721227616696395,-2.603926320759341,-0.33797467820300103,-2.775898408077596,-2.9992176537928392,1.3363760286730022,-0.1682741882016191,1.4386533076513957,-1.3340399842815742,-1.311022413490405,-0.24879700560645485,1.0176672390694872,-1.580047735877635,-3.105385952754269,-1.540189358140978,3.4819193491897096,-7.134321802536373,0.7188049798451229,-1.5373522785190459,-7.2458934435824425,2.3025788135686986,-1.156399707540967,0.2716470508085009,0.5257729959920585,-3.053516869631175,-1.672173123118399,1.8354267053407916,0.9812589658507815,-0.3754335204266948,-9.668550949307335,1.395092433104345,0.22481652704989707,-4.119866304166607,-0.3010808853370606,-1.7292787523840065,2.282737154342309,-3.511452013541395,0.9147589380501503,-1.3165110034603797,-5.572001550288346,-2.0235752432439833,-2.2482634708448748,0.9809507056486629,-0.40879569558985984,1.4064325902763795,1.1829690060305176,-5.333750690178621,-1.7168125048218805,2.249026142837927,0.2701620298178838,2.145198863142194,-3.1473544356691945,1.4653318718659945,1.051596093961717,0.9963502684568792,-6.06104832489889,-0.7986849216377981,1.900870248779485,0.8719291236494119,-1.2064308672518926,-1.6040147470707282,-4.6568603031677505,-2.831218040300367,-1.8005567797082451,1.4777238078299273,0.11674684980792259,0.6701722762023623,-1.477964667092056,-3.3498050633956953,0.19654419528830205,-1.3747882410199261,4.834412079693171,1.796665081173818,2.062903254196953
1.8994474251334799,2.5993569650822406,-2.2688504525164666,2.0219094236280672,0.5027106669288808,3.0158208070006083,2.8325990552177265,-2.3677062350820384,-0.942977952416102,-3.2136964358465128,-0.4498985498970518,-1.9943735600591233,1.9322791223011897,-1.1107535910462574,-4.692541586021499,0.4091310821919977,-0.6235151557799744,-0.4660145148154941,0.6884795898207049,-1.2571107284887313,-2.4422835519514767,-2.2139226055012715,-0.18713384759218343,1.2103952569927114,-0.4422065749441743,-3.7935933638976493,-0.5143858770127395,3.974874699348875,-0.30749879737190283,-1.9335721372463357,-0.44821019804250317,-3.037860882788759,-2.716416384081502,-1.2722232367101614,2.662388441143124,0.3119582700506874,-4.884230331535545,4.817529446331801,-3.4645635874995926,4.566760902869327,0.03838028414848612,-3.490525762995367,2.0555715898948828,-3.983302610839918,1.9006795866187005,-0.17805919414446605,-7.011039312480278,3.4781398261777814,-2.8998640045414765,-0.9696291621151244,-1.955320860902716,-0.12760449065567256,-4.035850360828228,0.7987991050482514,-3.1247083363243533,-0.05995049249137348,1.3261121714667412,-2.0326317215860015,-0.6259900206094924,-3.023091056483335,1.5798231065343757,-1.403851993884741,0.0313688525893499,0.31401732666060844,-1.2102018937399368,-2.4830180296949087,0.5045346189750032,0.4091945807218034,-1.2049114808968209,1.9597118568903333,1.6917637672435886,1.1257354414390155,-4.1310330472544585,1.586320594398172,2.268887572346854,-2.748245419196788,-1.9455260002673402,0.8234458830927666,1.8656550942199204,2.6734594076762113,1.2423604532142993,-0.8471763421328646,-1.523781109253311,-0.6640098119117169,-1.6233281162939153,-3.2213030959432984,-2.6385203286115506,-1.431249147631385,-2.0438547044878295,-2.400291226341065,-1.7737975006848177,1.993483823174558,1.1953779213307891,-3.7851384027464663,3.1172736137593375,-2.177172317805857,-3.9911506147189413,-4.231704830094617,-2.1438114773432373,-1.2056202420296933
-1.872915902178981,1.6343603823507435,-1.1123685294555004,-3.358586470397931,0.46501537743691673,-1.573546744300202,-2.451644054348766,-4.770774233534808,0.5937497801615745,-3.6890100663985934,-4.403909522504962,-1.1564894123679295,3.0562514963662712,0.2789924984946865,3.6783956880503728,1.2949126835895166,-0.1938936230425747,3.5630374696525404,2.7352369735795534,-3.302447540910259,1.0157484757988582,2.3222075153493456,-1.1244449597364008,1.4118441023034434,3.0822256088492663,-2.3826281795109256,1.3089879252011531,3.3500222728681885,1.298492063372283,1.488858372135968,-2.216725182512957,-2.7800064321821814,2.5542105265643897,1.5615414104505525,2.273772042958735,2.0154060597216783,-3.327807606108997,-1.1183521455427468,2.166259801424444,-4.466209140011779,-0.03620139816979352,-2.3491528039667764,1.9538173892433384,-2.9290433425834705,4.805569582469619,-7.914992425878103,0.9610455653065765,-1.6959839522254259,-3.754227518449316,-2.2875809802314646,-0.2743975949772368,-1.829943748219738,0.9105133210366125,-1.3409933183402556,2.570040985882959,-1.9605792012980678,-3.184752623080191,-1.8526900280773533,-2.7120785043290683,1.3289924502335042,2.2588702749802474,-3.2050693815143,1.884493881144215,2.554916023476073,5.352052651637324,-3.902440381388309,-0.7363216573148466,-1.5859660465808534,3.0914984918576405,-1.043755866211068,-2.051607177098219,-2.2381144867871257,-3.313856125712998,-2.3288337247754507,-0.33797995413456744,3.3647367263709285,-1.0521638110685814,0.5315448509805356,-3.514072829671001,0.5004987555443594,3.7375861999177338,-1.8081637142919902,1.0779539232244075,2.52433608591377,-1.7565278960779462,0.7414029295067511,-1.7743029377902415,1.3077021268370628,0.8732071127709853,1.7082246830106602,-5.2428618334091714,3.074627068805535,-1.386837545626472,-1.234914291205236,-2.070436239449821,-6.809666583850692,3.759339969769698,0.044382482682857535,2.4944186064994116,-3.9827705104565023
3.395892365814926,-1.1968173329232774,1.9091466203642453,1.5150419105176665,-1.9189866750761102,-3.3723298565226796,-5.639934867899967,-2.465738591948954,0.38610637169717105,-7.4578726754035145,-2.801305045860334,2.885809235330714,-3.5060648216863903,-0.5843006635560203,-1.6401276849130504,0.6922442704777583,-1.1952917819340851,-3.7126147268593828,-7.375346655155529,-3.828403644285955,-1.5946847383492626,1.6678184391460722,-1.3429921657902086,0.9143728027375314,-4.7436423881037895,-4.322064515654474,-3.8324217940363523,-3.4037535764608533,0.6197963056638469,-0.5690644734517696,-3.346673574458079,0.6670925210695178,4.047860899380191,-4.036158986694064,-3.6077717117787804,-0.7315556995480964,-1.740869753765538,-1.9617672046952368,-1.6441872739904757,-3.348875338880984,0.026360762883549972,-1.8505547037336485,-2.9021683121173063,0.873921935520056,-5.253349182952386,5.160091543335452,-0.03801784365515194,-0.9158793127109601,-1.367117174806213,-5.330170921346158,2.1575885122497067,2.119667665092834,-3.1537396237537645,-2.4517771272745423,2.8480328098267647,1.8192765658980428,-1.0943051688621772,0.30319884279224,-0.7957890567833719,0.892972610769872,-1.833397921569489,0.3594041837405868,-1.1971481896821885,-0.4404161142247755,3.4011254551327768,0.7448117554754924,-1.2073773841298059,3.0875647075049524,-1.8823570482747947,-0.25276902988031413,1.374355263341522,2.107064823515692,5.917816355461935,0.27423774252166555,1.4302199125004007,-0.9539271571682946,-0.8755335167964642,-6.105677197870723,0.40024616365773363,-3.20000054519241,-1.308749428110296,-3.087029548747924,-1.5735171660901035,-4.5469518025017095,-1.5404192427540946,2.2918266777680927,-0.045593834708661185,-0.1289254852047485,1.322200859098975,1.4044437669826577,-1.9056985288758088,1.8319537831534232,-1.166318731369505,-1.1226459149714145,0.596250127338723,-0.7044063650581046,-4.6686536631303515,5.30815924825237,1.302822094315844,-4.6559761217954305
1.672149924178123,-3.2621388796207276,3.1082816535006654,0.3326698371287415,-3.525743907513258,-1.846933058413398,-4.526406614526684,2.7485645919344046,3.291797865685295,-3.0976127039887524,-4.084287895109444,-3.837368929551699,-1.6510099031847063,0.5017879307361423,-4.73069700208283,-0.5813495810325408,-0.41659484724937557,-4.6501626476287505,4.419568475739094,-1.321424798625739,1.3694757790057845,0.2273799202782138,-1.2942701451313634,-2.5211564086157785,2.9235460300070284,2.534791555445191,-3.544393148442901,-8.623109605869438,-0.8137261522152645,0.629647162640693,2.6656535177772023,0.8723496283277835,1.1040874125792846,-2.976524408298934,-1.18443710479874,-2.8631661609469634,0.1145628373764285,2.5989009146450903,-0.7195432831514715,0.9326680884773096,1.858285469800264,2.4417083961597768,0.14692811798952143,5.799042431982802,3.5604044453924666,-5.835997356466446,2.1047472914254666,-1.4761063051769099,-3.8465316938026257,-4.509294261978635,1.773749765014081,0.44815271580543553,5.351453249791752,-0.8425010355746589,-0.0062997111519207056,-1.1416083627181837,-1.7284403223423566,1.5719488431881277,-0.27198614564164425,-6.1944516340793125,2.9197243284283685,1.2880116768602992,-1.1668493412967629,-0.10741642774063082,2.376309707946545,1.3279749338552873,-3.2781706249265676,-3.831764809933047,-1.993996817759202,-2.434841629546357,-7.638227584865133,-0.8400002149483697,-3.7148267361945098,-2.309016085286359,-0.700819129861302,-2.0633837389830822,-4.096955748279799,-2.5615756262657996,0.2646025904395912,-1.5662544953371187,3.083955866707031,-5.813539151332078,-0.9478985301792652,-2.0826105796818712,-0.16198538721146571,3.0975668780220724,1.2747245650699033,3.507286510006123,-5.516630160724768,2.4591607691503135,-4.044731101644343,-2.332299467825336,-0.4694725208575949,-2.5831647684371744,-0.6579169816878909,-4.683824913849256,-4.128522700330973,-1.9814650260722058,-5.209181302014946,-2.2946536932587565
-0.07216622911652443,-0.8875432954541177,0.03191826345329668,0.07238151938519607,-0.9469373330680061,-0.7468416145172094,-0.7558398893974304,-0.48842780005522374,-1.4661613253634196,0.29389759227626805,2.6762520357587163,2.5502930602284013,3.679126478590027,-2.7919853443876654,5.989277439368606,-0.8756579553525546,-1.3873426396356043,0.7917628895519488,-0.4088779191427545,-2.568882901517097,3.5588243132687016,-2.3696436334464366,0.43451718066031386,4.5077217677720265,0.10558935249083619,3.077047920991483,-5.572368471281296,1.5111375316611775,0.7207763055717714,-4.0931361750042585,-3.2936752566471337,1.3863487276772821,-1.615834054326114,-2.0236010447023376,-4.770482300748029,-0.3878716704549829,-2.3822556062187985,-1.064137962370977,-2.4959365382101866,-5.774280020726534,-0.5516564270367158,-0.15529971442843044,-2.314162221227441,-1.8837575094999517,-1.088054756274321,3.47153899696406,-0.4604286584711918,1.2329036690128994,0.8947578947803803,-2.4682297782924065,-2.466123488390943,1.8019055918727145,0.4513194853121333,-1.4878755159728896,1.116425597822359,-1.905729160091185,-2.8558326160859155,-0.03232067870011005,2.005699136334789,1.0503647468527288,-1.8916371478246574,-2.2613813430914402,-1.9885125217787103,-1.7431130992378265,-6.292861962196406,0.8140553187698901,-2.806214030582779,-1.4563124853957736,-5.698986472956984,-0.5407831698382505,-3.9543219038821853,-2.0912357036125546,1.520600893103684,-0.946832836509583,-5.437483740498994,2.032165269435671,0.21904586246792032,-2.4808008818830065,1.065806728563395,-2.021624027435183,0.14299478947864308,1.2571964742253954,-6.3580356160188405,-0.6298893814470999,-2.0047564495816497,-2.431324715536612,-3.5515877215533944,-2.3843631978382427,-2.2849815047249438,-1.96085577566876,3.374199441184955,-1.4796539131292428,-1.4891880521561243,-0.1006164489993465,-3.9164393537943734,3.6370674827023106,1.0582243701007639,1.6185420944347764,-0.4593950261470617,0.5126411292749044
0.9194207616518031,0.8197388531832813,-3.125652024502073,0.6455452958778403,1.2632234748106175,0.7015447606205435,-0.6004057541004496,1.288199841908526,-2.7390239256290383,-0.4369204581892338,-1.2906540606262233,-0.3477774105326464,-1.3822246117195554,2.081278830342035,-1.4988159610362568,-2.219413382240043,0.5169521169128408,1.5685611629921963,-4.853120653108423,-1.5843687959298987,-1.9751177645123172,5.4470305870326525,1.9123089324804325,-3.1366755222296083,-5.047082338145807,-3.974692100949728,-1.722985917612871,0.5440143361764411,-0.4869715521045362,-0.10881705587502608,-1.6119167859167376,-2.3945825595481693,0.9451943993023727,0.3941459282825794,0.030101669590069463,-0.9421999082207186,0.4607280926766203,3.30868269754042,-0.31014131657260535,-2.7877332930560286,-5.021065987982795,0.9597905151323433,-3.309990819453801,2.1474307315008865,0.42938001158022315,-5.9213216009469,-2.569853850705527,-0.9010648521967737,-2.9209387277292094,4.570790901272499,-3.126281197933528,-2.0686761085982432,-1.2603666746639108,-2.1370006279800635,-1.211232023960516,-0.2555981529044754,-1.9402014121246576,-2.148699946028353,0.1647126491468397,-0.9867189535232356,1.441110642477499,1.161664546466387,3.3034261529540774,-3.8613927120299554,0.7459179084964861,-4.885059894837161,1.6609568246357793,-2.793072528421122,-0.6831939749704208,-2.2038366158667744,0.8385092953593241,-3.758019658896848,1.9026007003153957,-0.8243102083458946,-1.24581046050457,-3.454010030120826,0.8302851297680871,0.35199833462598357,0.1908627265459713,-3.8248187061611802,-2.6066371936689396,-2.6826044141730927,3.214381256690486,-1.7461070997162533,0.08069260700390506,-1.1691789937445445,-1.8853454319853054,-5.009748968182902,3.2880610055026485,2.4951915494790433,2.7535337831036526,-4.7645660205625875,-7.2568903182100515,0.6948861633358531,3.609837590503909,0.5594025578237715,5.177310690261534,-1.7826139476403486,-0.4239048478392826,-5.091946861166995
-1.7894354853937837,-1.1975912003519777,-0.1573640366758352,-2.166268010815404,-2.07895560253661,1.4940590324612535,3.1115929289049777,1.9924101586473981,-2.9466104868550613,-0.1325574099368243,-0.38434964780499536,0.11885715872793107,-2.902176802914623,-0.5978536739706293,1.1689227111578102,-1.9737632733070731,0.5066894860190255,3.681710965555882,3.467016527132017,1.8450495544428034,1.984472311900942,-2.287493190890186,-1.7682896331639626,-0.3184124710170093,2.2643409790543045,-2.0143548823602675,-1.003686028368225,1.1992275215918973,-0.5136967706256458,1.0945999156244692,-1.6152116572105026,-0.9345352584160707,-0.8276942012474126,-2.4751000775933942,-3.5748676366685195,0.9982092576920893,0.3131257265632146,-2.4072544302781305,0.29596296455412074,2.8911510028563168,-2.2631136539052843,0.30694853822147905,-1.818425640002615,0.2084684883530268,8.060039249426719,4.493901039109156,-3.996871626443393,-1.7901844691187299,2.199842969130806,-5.009179528612717,-0.7322226331997942,-4.347774738823107,-1.0083283009242106,-5.98269486506282,-5.179096773082293,3.21893158981478,-1.1521321450007456,-1.58711228785595,-1.699424601817519,-5.783668184905565,-0.14111489846343298,-0.2638859888989877,-4.0590914707619055,0.289398121900328,-1.5678545271497453,-3.4817131395463945,-2.0191048478250195,-1.89390900138781,3.869118124717053,-4.999549090570095,-6.0059455782781175,-0.43188884721919524,0.45445713663193543,-0.47944431870002935,-3.7173683388518235,-4.883490386892141,-0.18271347554543618,-1.9245231175215312,-4.313658941702668,0.0744831957976145,-1.041903125383398,-1.6802955005835019,-2.725656355521669,-4.182470778016686,-1.5870244275417926,-1.849789536048547,-1.4812409377778446,0.06321165928029983,1.6584501855839433,2.33494921260669,-3.387749854985187,-2.5170555962335865,0.1614156768773818,-1.1507523525584389,-1.1951950428424956,-2.0774044421267344,-2.4537026676138898,-2.7988117372428905,-0.7222093461696157,-0.20163877737900962
0.3223017381730811,0.3284186676057248,-4.277496611480074,0.2597870148787287,3.262756318849359,-0.027401438057616433,1.1025757670117795,-0.6189959032876923,-0.09899633861463629,0.9052160707441619,-2.6896799854820337,-4.003008838670294,0.49377957274997325,-1.6767712731338111,3.5334016799457695,-0.7117518550812352,-0.9855254036644411,-4.923201297448758,2.7036293735912738,-1.3471431756613543,-3.941522813485746,-0.2586902473364596,-0.7570070963129055,-3.810525714970274,-5.290067273841344,-1.1103846894608143,-0.21221352336095953,0.34815143651767244,-0.8947190793773933,3.6389121261949473,-0.098157791328636,-2.073762012354352,-1.3329934837241937,-0.5275402142680818,-4.122227732672887,-2.664600733594188,-4.001421591501971,-3.986131434546521,1.6605991443228447,2.6536913665426822,1.7741075808700277,-1.73582093421298,-1.8697028441207393,-2.853489552545026,5.405998728063232,-1.9413319150730155,-1.3253124347713643,5.149201977253436,-8.762483218135896,0.14383497868879022,-0.9655252559886252,-1.2757408480346066,-5.157929069370188,-6.817520795705265,-3.7880576967693353,1.6128277281115255,1.6644002087734864,-1.94725318390273,-1.304945168862864,0.4605088882135683,-4.133723286792905,-3.6975312936476903,-1.6172637499021312,-1.8422655138996735,1.9641923441411504,-0.5603502325696836,-1.2444762982854456,2.909464732534982,-3.2853586949678766,-1.2436387411169054,-2.0903141755848575,-0.4206516275421318,1.7583786677998587,-0.24550353452146334,0.3143427764050148,2.908170762945689,-0.6270492340692354,-2.9217467989433294,-4.821375128423195,-2.8567117954484735,-0.7838977771549365,2.3622774133163764,-1.9408099578485918,-2.408324710421244,-3.550439107776117,0.8010945429115433,-3.754002872628866,-1.5342065989762759,0.6215661526414552,-1.9526078858462235,-1.5085850615519931,1.9681484364372157,-0.9007846808137602,0.7439270362939077,-0.8874807620493137,0.3466400972765934,4.106693697672312,1.011803308298888,-0.38032115175306513,-0.23474959223774114
-0.5740805896241375,-2.8933951447490345,-3.177090546976403,1.3931843740931136,-1.0449976234041507,-0.180798248675126,-0.8962550884659408,-3.697449985282128,2.057757974556673,0.22049706486510642,-0.5186398387956295,1.2651608765347784,1.5333702599488384,-0.8334121210196598,1.3044435291206444,-1.3353514973649345,0.2588317308663883,-0.9251156722854639,-0.053521533506700414,-0.24008190307812272,-0.9365875940751281,1.2354847973637406,2.2837072866444994,-0.12913093897104477,1.054368167435559,0.06868409428950399,3.439180988085521,-3.0454918504860644,-2.2556432338192227,2.2278929645854353,-0.21388143481662583,1.4941765622807996,-1.8236080986401775,2.22093638498835,0.44841870147328167,2.8586051251897864,3.839727560285906,-1.4191046510963294,-4.634789994726301,-4.8262574482253875,2.266698819040342,1.562837813496144,1.4418566469163827,0.9068832838839078,2.9441318373664513,-2.8796267138510143,1.2638676658280745,-2.3123936832649865,1.3617481680451506,-2.0208076229445764,1.7392770555917496,-2.5891324006886918,1.3706122613741156,1.1167563050079417,0.5340443545484602,2.748959966131536,-1.6692036554948506,-0.6060312968881904,1.0722079768558372,-4.604542597291309,-5.255868249050991,-1.296536415214774,-3.9797967032509156,-1.29923650884053,-3.653982185646933,1.3730152458432647,-5.8939068444474545,0.45066839814683296,-4.267187602900605,-4.5531341502515685,-5.397161507242188,-0.006571546241644171,-1.952111125614091,-2.000020154193496,0.25417998514396206,-4.779282021517506,0.5469315660192404,-0.6366734718066844,-2.581689099719167,-0.2225923486042922,-3.7470899204231642,-2.5113831124451482,-0.023434406840795365,-0.8522981815911184,1.3806743262595222,-2.0978661944275245,-2.823251529591651,-2.5919816402474014,2.625155522442632,-3.3902658106557486,-1.1353618113999373,-2.750230693805783,-3.054942493155079,0.32110793236450413,1.9702455141454336,0.27645149069193214,-1.966131008166918,3.4456243737724064,1.7036796810388444,-4.293816930950257
0.3545815517058926,-0.5313793928409764,4.694717240866401,1.8302023372746339,-3.8496732503869158,-1.6378891727968825,0.4950641529664338,-5.123896646303744,-3.1199128458048935,-2.787734640151599,-0.16421883480596136,-1.120489952842307,-1.6084784178272744,1.0581021072107584,-2.9540206255534938,-0.1536409796886552,-1.3733374913097043,-2.5557679621046128,-1.0262979900579157,-0.7710911866014319,0.378206787993037,1.084510747719512,2.3373969541402957,-3.7633812484005165,0.9483666481777935,0.9167267529393145,-0.9710084882103166,0.8610034347094097,0.6040930304616566,-1.9516780104025826,3.0409623255146023,0.7006406978214147,-0.015159834071887174,0.6344347726308617,-1.852247897085115,-0.9832429436356932,-1.5608166892130821,-2.2653001707339553,-0.8535026700132864,-1.0824325078372274,0.20681441666107236,-3.045382595996002,-3.7510090568246004,-0.2540883287278487,-3.160272947483297,-4.266793359186789,-2.7195406700060496,-3.1693890922664014,-0.0732833613233692,2.2692099699799644,3.212150321339411,0.7350368159077928,-1.9222157134187428,-2.8397588500329305,1.7699637204604708,-2.5218788408917296,-1.5469838767486686,-0.29599802863841357,-1.0593196893061623,-2.9353850789638978,-4.9886973894790385,-4.666214422221982,-2.4885737806320463,-1.1537504027214198,-4.496922616874835,-2.322002105668706,4.106233044903008,-1.0857553628934977,0.6877722702481024,-1.8069289671296602,-2.191703485579699,-0.40477310083633533,-0.7609793946709483,-0.36847839960789375,3.6719650179003804,0.9519646487323891,-0.9015361197387001,1.023318332978211,0.9654140979186265,-1.7979763473312604,-1.0028964086513692,1.7857009920961546,-1.9414802401113216,-1.3267047364669158,1.103557136037232,0.2755954690305329,2.251648582124458,-3.3451759980744242,-1.1750004819891668,-2.1321843676643035,1.407810074904499,-2.2016122254741015,-0.34447192717365427,1.034362372208962,-0.718157483807299,2.080865329666729,-1.0033247549750335,-6.585834922001505,0.9917987957536288,-4.827609514095085
-2.135048247330444,-0.7764563490374086,2.462780230179388,1.4593571447109073,-2.5782761561179224,0.22478117352067123,5.7749539991908385,2.1929191097967253,0.7445758061052818,-2.34833756659508,-1.0396725150069575,-2.346160159102717,-2.1135493787213475,-0.7313366219142308,-1.6284811299741577,-2.663741249093041,-1.1040376461870562,4.0979323572510555,-0.5872536276053842,-0.9798337353059439,-1.5730839999595714,3.4037530261250035,-0.602125234901935,-0.6722875656655122,-4.5400677748745,-1.1203434520967617,-1.679635609753564,0.00503451004766831,-0.004413607103972024,-1.4461553113479528,-0.41805736285923406,0.7211268668123297,-2.7109237884241466,-0.11138946868617652,0.1464169781258877,-0.32100306430724146,-0.6850413240071307,0.09601996038668636,0.20574496101006093,0.3382202227419864,2.1452407796532844,3.0069836546578266,2.818689709918653,-0.10669774578338048,3.7016567635526942,-4.516942831991559,0.35063636331572384,-0.4254024272289871,-0.20071950584121404,1.1892186832053713,-3.4224377018432954,0.5370772616023395,3.41531412602654,1.6877845291327458,-2.932457413005823,4.89826560557353,1.5546531816198028,0.7383584211973581,-1.3405327384912673,-5.370842832905087,-6.161380918401537,1.243830690231257,-7.644535805455689,-0.27849583757880464,1.4755193601078667,-1.8744928417094309,-5.03594641232944,-0.37129600646689254,3.4591410168946264,-1.5290413140054413,1.3934130632170472,2.9321942484910837,-3.5557364446798485,-2.935555247871222,0.3260133903884562,-3.219365159919359,-1.3445682066582891,-0.41968874888590185,0.4725327773834141,-2.0180156218022454,0.5713019112514114,-2.2520483723490377,-1.0066653876304492,0.5929700861430797,1.174967033205748,-2.5397353962844273,-2.4512274796707105,-2.644605478438682,-4.221751780101208,-3.3860803234363974,-0.9314585436536855,-1.1935162575275489,-0.9124698672263176,-1.3931260430497625,-2.449167161679224,-2.924825172493195,3.3579324020514876,0.7001012638869305,-0.9072255711390206,0.6468083939957944
2.2075376078736872,5.078000627503943,-1.203896692976138,0.7634009524480945,-1.7097308645372677,1.8023461636742448,-3.339562213146534,-0.8010074394168943,0.17921600636080773,-2.749008364294801,-3.90175812135153,-0.8111587380944965,-3.1197084542318407,-2.495442959751397,-2.8431527689457012,-0.94613493111474,-1.1301962318398824,3.9707530515232756,-2.1612602059226615,0.7040205876261626,1.276450533300794,-3.9015638512895183,-0.16562665903789842,-1.2852687939273293,-1.2059117845591878,-1.6550912409609615,-0.981436291385364,-2.8698430878037238,-0.5738460166274674,-2.499484579715236,-2.465684635694124,-0.2806979676260674,-0.5097590509372187,-1.8438361260409333,-3.6593844230276162,-1.3995683887749402,1.803613440287331,-0.10555486158781145,-1.2811582845812948,-3.9197288830726693,-3.542593110745384,0.449798589894358,1.0010940339368226,-2.9463303976243904,-0.1715532344383792,0.5004384404119658,1.6020247254489137,2.3346433347134474,-3.91613290375145,-2.2948391634461633,-1.8998606345608489,-2.75192709960111,0.3187507928504395,-4.905871634652748,-0.6551550564245122,-6.233434352196622,-2.3584418592076086,-1.264480659161984,-0.6608623911128215,-6.34926319618338,-2.2013984540800267,-1.6236434592082687,-2.215034617688639,0.2648045935232068,0.44384390444689714,-3.9872419303260496,-1.7151670314425804,2.4974445556664895,-3.3968475137110428,0.9143520968338806,-0.5889893456059011,2.47496457236676,-2.2130533921707647,0.3940718299263389,-3.232540510883954,-4.406579177161246,-1.794531692990698,0.9935361647206882,0.9083514597186141,-2.6798957435831303,1.5039189172183218,0.4213054576284974,1.7163172444356158,0.23087543826991921,-1.326136453144876,-1.167127665344533,0.1844985486778574,2.5180378254173195,0.6187484408779235,1.5687235574053118,4.913848182610601,2.468430500623839,-1.2341026232467192,-1.205886369406587,0.42248313145547334,5.684458842052162,7.100397044159071,1.4908749192697,-1.4836220452498925,-0.8506546555109528
-0.8411215488379034,-3.2976847488656245,1.0870616739315893,0.26241777663292615,-0.8266875767878094,-2.0859134421216114,1.472887655735476,-0.37155717157718726,-3.2344404532995763,-2.3594344484294285,-2.629884590911098,2.7165693541150744,-4.124209878606545,-2.735641998848019,1.8531169581378368,-1.2119245404798205,-0.8797808318912537,1.0443166284474097,2.091672840447935,4.375296470027216,-2.0163263240579337,-3.0602155274096345,-2.976322784802369,-0.3654589222172833,-1.4993562580828175,1.4696487505867843,1.9135584672964643,1.9075619326976818,2.082987281485089,-3.681115547088976,2.4339396009570358,-0.9006519566997554,0.14333744409439256,2.76585981309562,-2.506222377984645,1.2573514691766436,1.9607737018832736,-2.430545398193315,-1.9021693171552825,-3.7727689629971937,-1.0315056588027816,-0.4150019855800519,2.667988247780197,-1.2556023316100937,-3.285418171853239,5.162331540448045,-0.8932117131686028,0.7236907871978814,0.9398998961097486,6.454991342770342,-3.0196216191526144,1.9831041592882868,2.363479745273582,-2.168966286549321,2.5793621808494755,-5.157130807517434,-1.0845745915503215,-0.18342995504702264,-2.1545831603424004,10.18348012649793,-0.2139342494957165,-2.550598082719786,-0.7763239628106732,3.94793482365548,-1.4366145523117306,-0.5886810837089471,-5.455411329346618,-3.9519744942738764,3.2303023755165765,-0.919414414759608,-2.187035317103511,0.2941231728445555,-3.436845689814598,-0.003918127162774681,-2.3696159973756807,-3.999976096091438,-5.791781638672387,-1.0371113188963952,0.3907635448499211,-0.6965791699296978,-2.4753190798212668,5.000771613709384,2.2429230605402384,-1.9451582973053136,0.7507591988719041,-0.13711675328552334,-0.37484385589750857,-2.2159297750128277,-1.1635896629023725,6.460775846921719,-5.057838784699802,-1.572538688293994,-0.7542312579564028,-2.6911813952357195,-0.5671558388348694,-2.5596548198508544,2.6529722422009923,-1.0408661720182875,-1.0655794023490397,-3.092869541184158
0.042930327912469125,-2.9246571014386133,-1.5562727557733167,-1.1482459943448806,-3.555921583024658,-2.504287893544541,-2.0950145737485966,-6.737718980871245,6.829481463672858,3.5023859220730538,-1.0883074411196054,-0.7340256569107917,7.366151189384582,0.2346970306883752,-2.3418814407976516,-0.8205669487280272,0.45349939897099567,-1.2769233459023361,-5.465606918153392,2.504599155530127,1.2209092019867278,-4.026437899849937,-0.399758119338223,-5.3133563563730055,2.253979837336486,0.45828958221341154,-0.20260647303134258,-1.5705194293081879,-1.9715957429665298,-0.18523864452788852,3.305821865113715,-2.1584174349750156,-0.17656227053035226,0.9827460134477521,0.425738071057014,-3.402166486519244,1.2479731432956283,-2.0723934357594826,2.695266842892687,-2.7221281619010966,-3.311447106278468,2.0706157196968844,-2.397210537444746,-0.7991689226937297,-4.194333675618406,-0.37683060825345166,-4.216572735613105,1.2284780931683288,-4.434100598485288,0.7632184089213252,-1.7434775540817429,-0.4368213569592865,-0.9193872933721247,-1.0673394502350948,-0.8464789644927843,-0.29072391170339706,-0.2679754954931916,-0.9546364153802729,-2.6549404533996874,-4.009766014061992,1.9056311762345244,2.4879150016693985,-4.24048739307479,-4.973243088985625,2.35531187223264,-1.8402647978326552,0.1389403108381723,-2.139198534674294,-3.4185317829941324,-2.4251127842361866,-0.45236065237808337,-2.6572650447531756,6.589775094093807,-0.0330567366536161,1.1730630698393272,-5.228137301828581,-2.080112908736246,0.2532710687224341,-0.11385834338815362,-3.3048929392916797,0.6757119107598865,-0.3926169389741137,-2.9917753738464707,1.0717500874647128,-1.4195173753351058,-7.010348169525335,2.0947872324656855,2.5470623432940873,-7.768425058708048,-2.21104652998755,-0.8655277433370188,1.6180768459201769,0.7918579506932204,-0.2875140377938985,6.143905943043683,-0.7827144298707388,5.272515407249791,-3.5287879192000857,-4.186204766863961,-3.374344798495946
