0.018456895182998593,-0.21007536916856995,-0.9130966452278799,-0.9624559168077269,-0.638175407327039,-1.5113457087015432,-2.0847179890580194,-1.3293727266411726,-0.5837887283705385,0.632584848630537,-1.5649616217197753,-1.6795147256904006,-0.2382963624398653,-0.020570431134783847,-1.1491760248238427,0.6406344423470846,-1.1624914550798446,1.0227156267565403,-0.2734004774957461,-0.6431721133689907,0.5645924301533214,-0.967989828553283,-0.13479791565849103,-0.8185550781809844,0.09534422678599258,0.22877142374647838,-0.5204027436799484,-0.5476585969225894,-0.2809125600382118,-0.19580595259343753,0.15680743050229426,-0.44637840971171866,0.6915482448709462,-0.12583931079183144,0.9020886254032318,0.8738235818508596,-0.6999370950460689,-1.6515788830672007,-0.07411035756930484,-0.40596899838958067,0.13676567096245693,-0.10382986654099205,-2.0889867970190243,-0.598627505423766,-0.0800137805123243,-1.0672833199309097,-0.2874088287894565,0.21631648972665238,0.6779282126644453,-0.34605752606120044,-0.6160248305154359,-0.9341029256156438,-1.077118079797948,-0.4198026689041838,0.1597257587443667,-0.7961135640347556,0.5691464088936546,-0.18060754036350346,0.015227220305600612,-1.5575926077126931,-0.17037767357767697,-1.2184846023480729,-1.5710786710460964,0.16001745341846912,-1.8142798844241914,-0.654501206651294,-1.598848772807622,-0.09279573118721014,-0.15524333000087606,0.1412489031836617,-1.4709225821353686,0.48960059440579884,-0.2547062021548924,0.1716823223967398,-1.4662501125673837,-0.9976637987475627,-1.8723512739034285,-2.1535898460988085,-0.8321563100203465,-1.0697932315198817,-1.7016562292790036,-0.3886373123225921,-0.5532238301617697,-2.0786156608635777,-0.9740822490310854,0.38443146554418284,0.44152251630319445,-0.7488973021627267,0.10309151227025015,-0.5399816849156569,-0.628693014125858,-0.6000635925114534,-0.21556919736965233,-2.242899612489816,-0.4125131955749434,0.3062966188942659,-1.042273083932005,0.7038078051790555,-0.5159858070973918,0.15327421639416516,0.8997614068685664,-1.5620722493034427,0.31755614168483826,-0.17292618025907538,0.4606866009183449,0.8251326753063859,-0.30295820583772465,0.7766884704625083,-0.9888846681186491,-0.12737121701250748
-5.585388275613261,6.365688563757242,-4.372679050121819,4.891304521501132,-3.3074791013630755,-3.22591324890171,-3.2238966739898736,3.17070448510385,0.36107768404783686,-0.12076762738182223,4.512307358407435,-2.8078502705872532,1.1825935698045476,0.7483150857056651,1.8918789533117875,0.7559326019044758,-4.838840862741611,-3.0819597619914036,-5.076131250898737,0.3248496285165543,-5.804337034986026,1.2794994612373096,-0.838500951495936,0.360018742950294,-0.5934794641651486,-0.872902512825277,-3.0004278147534382,1.7681215773866774,-5.823928621863113,-0.6793882818437093,-0.3886797649186923,0.9883986004771478,-3.292766191862301,-1.8545066453065224,-11.108524775134086,-1.393621579594681,-3.573557949643724,1.0999879402647752,0.5179635541745756,-3.257505097593173,-3.1630016684347804,1.0468357835286772,1.3671112729637576,-0.47176002292669433,1.6134315446307634,3.592962013073605,5.218173470816313,-4.57575139425634,-0.33767426110465276,2.299687322212104,-0.6547573673066245,-3.1425378202347125,3.012115020379984,-2.3436246192975267,-0.12351729129490044,0.6696631348823766,-1.7659819597415478,-2.503206413890989,-1.5370933711139771,0.529918932855994,2.6963820817252087,-1.308468372756229,0.17329771452127296,-1.1484296879403684,-1.725640126664776,2.2086941746256255,2.4130604003246163,-0.6954817748199184,-1.4959906556884848,0.7810466315540979,-9.030512882271195,-1.6092519310935405,0.7289364802882347,1.333947684448771,-4.3281180689175764,-1.5929076698810505,6.400152643448375,-2.145456886861451,3.481734036114119,4.36971326052704,-3.6005696401049,-3.4191548150306357,4.903749075510489,-1.202873639847957,5.624327172819794,-2.232663133453367,3.5196190089272195,2.3854947213351467,1.428654948990879,-1.1458693146948074,-0.808589220532747,0.29128230873279987,-0.3500566949329604,0.38902132227075753,5.165520752059478,-0.6139562866837507,-2.054625461389813,-1.3816118874963113,-0.8507951738129517,-2.756249157690734,-1.752230001633188,3.390252732194449,-1.0669659413691899,2.369784090783216,0.28633391133451774,1.9580317556559803,-1.5160078592882689,-1.473852912732726,0.27900779331607445,-2.1358841991024797
1.0548499852257296,-0.3340832345396304,-1.3459853680881104,-0.6796290107283524,1.1363612827208525,-0.2963524344389359,-1.1605751366237442,-1.296760778434606,-1.2718713956278556,0.8564161424282278,0.4528315460249146,-0.4907292345024159,1.16715914477775,-0.8246242814851502,-0.181333159666456,0.1309065085940054,-0.11050447540744736,-0.384983283330982,-1.083346363728414,-0.18844449258131055,1.9919047915510018,1.7275714335005405,-1.3585703241672278,1.586390159894707,0.7618542943735453,0.6451536410935469,0.05095354377216299,-0.9647855093743022,0.7387692873763947,-0.7572796438637689,1.6565393527470897,-0.9980425687524644,0.3670280459457513,-0.4380531330191736,0.7592661647368915,0.019355271030666952,-0.92565766491221,-1.0845446116360564,0.47395050486333595,0.06543055582065094,-0.009862598463652268,0.2233177127557507,0.9074394749486137,0.32460353865293506,0.3932857620810958,0.7184155713636661,-0.3310185541355993,-0.14217157130479033,0.5904023318899906,-0.7342226516228517,0.42549532120104083,-0.9441189279045855,1.7600722754510583,-0.05310194459665402,0.10637162838412462,0.22861325134811508,1.467410198157985,-0.6245613050973965,-1.729238577296463,-0.07978214771198376,-0.05974092150198919,0.2395856177848216,-2.39092310610077,-0.6504547889859539,-0.10696004048245894,-0.47529160650527746,-1.6769425877786863,0.15307178863894547,-1.207852955963717,-2.1492783715890593,0.38263418233634217,-0.005984841078620142,-0.16135638431149665,0.24175111093171797,-1.8148092858241351,-0.719665660130848,-0.2041660175384651,0.8885446742426305,-1.6423355301054132,-2.0487973612819474,-0.7167002413348905,1.8025860179907516,-0.7293561789306312,0.5096940820437468,0.933021047021626,1.0836819907033264,0.5386843640478881,-0.286908125669335,-1.9719135443213307,-0.6277446233484946,-1.3045726638624546,-0.729284409505931,-1.2593815409373872,0.8014000803086168,-0.3494671695532421,-1.7697087092650607,-0.1333958689003655,-0.17299727385111488,0.8533170158675739,0.3317595591953681,1.02321261185675,-0.5975616524694443,-0.33145219812859156,-1.2800310409852493,-0.4716993806173769,0.18764453817410504,2.6079039027018642,1.5617220050692602,-0.9853476918321638,0.39899982916991295
-0.001261340561151751,0.36188038873338935,0.538956539668797,-0.2200312822140365,0.1969564469648174,0.6155486554042329,-0.16104422640070554,-1.440161911222785,-0.26051643575096867,0.028356916794516917,0.06480727963730268,0.0494544681484663,-0.376185123979695,-0.4167874134534423,-0.3402234454409789,2.0535091239712853,-0.6271252346179627,0.9245729640933793,0.8470637657797302,0.7474272959232248,1.3095027103615833,-0.022043905495556744,0.1198310159264671,0.1619514782304408,-0.622249655642206,-0.5203667489457217,0.07582673562870663,-1.1043292598816836,-0.6090962285592172,1.2404707989017942,-0.20912182445161032,0.16757289271118495,0.09208995636550571,-0.6342122126933645,-0.16387782394616188,-1.0289082631922037,0.10212440121509306,-1.014957611718156,0.05632850675075206,-1.2527135283112172,-0.28168400910520663,0.4765547437429726,-0.8891504400529014,0.2992673409120041,0.15741357296006034,0.9562278987499857,1.1594510762357808,-0.7617268220585169,-1.3737145012750192,-0.4253147135779657,0.46172223695742715,0.3507765060539626,0.2651570390040613,0.756173425928126,-0.017932265010043788,-0.7018541116108009,-0.34163531409951403,0.4938472928817354,-0.061960321650575086,-0.15928086250833168,1.165824533540477,0.11002644148506245,-1.2566065673600417,-1.124963935419208,1.108603685408791,1.3269494737620775,-0.5530937988852905,-0.4514452881507809,-0.18909679295944434,0.12541523115119974,-0.0640850683447737,0.11623780980333481,-0.06727509484626455,0.25459608995238675,0.2008206449083882,0.5525627098668874,0.012736252239882603,-0.6887908205299172,0.7599149941183517,-0.3361182589799986,1.1474531700276058,0.8051075735685497,0.3121807620207105,0.563327773619943,0.08784801324476582,0.469462871369832,-1.6115825697193609,0.6708148280771982,-0.5564282311073396,-0.01594892375619074,-0.464636625098762,1.506309357235129,1.0860798394406739,-0.19149049143395322,-0.025018698451633042,0.7466025946236579,-0.16074093739733922,-0.5021755765113598,0.20913703688141633,-0.17048093996979008,0.4289375698299996,-1.9946282286299362,-2.0779319555744613,0.5524245684101772,-0.22606872101542455,-0.1846826600130216,-0.025091453169675232,-0.991970120443367,-0.6226560348932317,-1.4363403061298943
-0.7666429740051474,0.5713502542861855,0.15128152566558692,-0.5832688383956701,-0.19911357982495215,-0.9601978859044386,0.4408495287326552,-0.09536541197299309,0.423109095700374,-0.07999761808613305,-0.27058937543281003,-0.7487388059782351,0.8171878993490759,-0.35489755441909815,-0.7604255817268158,0.7470547440000201,-0.4889957506955437,-0.5189688972301214,0.09447326309183066,-0.8134481117359293,-0.4124860007982268,1.311595338035797,0.2784867067294203,0.23490713182568498,-0.43779043372484494,-0.05434592103462939,-0.4759662568514228,0.5579214532945038,0.7800089482095078,-0.07265387996331224,0.3794401339761994,-0.6277606618577306,-0.11733813549032461,-0.5861068268598357,0.33190895657487274,0.1701884259144975,-0.8506579120756641,0.8563307412767646,0.2731742906614974,-0.9261489733387936,-0.8801826628061123,-0.1662061237932405,-0.5096686662335991,0.8360899012626773,-0.4785401672289219,0.4285756547123426,-0.7230707748976201,0.7073618080615887,-0.7532969359448216,-0.3068092781461433,0.23978013931348358,0.32617473587945195,0.9593909162116754,-0.6501227291685691,-0.5191962915742067,0.7181211622603597,-0.15717453548079974,-0.2143135894901078,0.23123637608396777,0.4082148250788258,0.4853793173189211,0.5138482442967544,0.784185525637734,0.9142699401503417,0.09222742672961541,0.5616886835288134,0.853716728114752,-0.28295425833734994,-0.6836588040852691,-0.43908846150637326,0.05135723394088275,-0.24086187273519744,0.6191215221134803,0.2040264707263968,0.8313417313914405,-0.8100475701020341,0.10503274354199839,0.2942558912476939,1.3272924783083493,-0.46243592734417954,-0.8157816314924274,-0.29094722156996833,0.687927594884256,0.3724958049241416,0.6831566848759352,1.1989718099601354,-0.005202950531416686,-0.45094986592623465,-0.41890891636860933,-0.32866877644437054,-0.9213462185954657,-0.26396801325465796,-0.6629113166133986,-0.7986936581872347,0.8448735983014835,0.8043372266156169,-1.0380375593378086,-0.4291079644144769,0.17439915463440447,-0.16246354539009328,0.2569933694595088,-0.29243870415238327,0.0901174129477796,-0.9350517870034637,0.7102810808311242,0.2193030123542853,0.28530651148609953,0.26176703349407765,-0.30792727947643217,-0.6753269488116392
-0.4020690154007902,-0.1934540509392002,0.9153580650702606,-0.07458603749092485,0.5389452778948662,-0.8546478737883396,0.8226940062897616,0.6113893998638824,0.8789781803085222,0.6713481640218681,-0.6200390092167165,0.9609084848773888,-0.3441350075027263,-0.4612818248789121,0.603005873252052,-0.019784272908232925,-6.2148207040158E-4,0.5360759632901717,-0.5225220515695379,0.7576746331136679,-0.4610382829958908,-0.43066372785172113,-0.31401353775314633,0.21327610760141713,0.7180863986203785,0.30220372504060733,0.3860791948164788,-0.7130775101116125,0.4466949359811023,0.7885689757095935,-0.5793046605197938,-0.3297147564394609,0.3766983788588536,0.5502418788525774,-0.6474889934776957,0.21242382025566675,-0.24847980804523373,-0.5149069532808965,-0.4641387152593617,-0.5327553092139419,0.25918880740384553,0.23481470422575956,0.0746888092958955,0.5012695789402606,0.6095004676276059,-0.8018465370091166,-0.03776607126690945,0.043072572551434485,-0.3407131735507376,0.24460664643703867,-0.042052433716636806,0.3311369332223406,0.8258394256454209,-0.6347828827783544,0.8293735384240171,0.6047727393658888,-0.742942545913593,-0.008761275879616948,-0.5284880794395945,0.0831266922110725,0.7679011043028761,-0.4819116868974167,-0.8865578649638293,-0.5097930485491482,-0.09375037834889333,-0.3088613034354166,-0.6682514945325702,-0.2907645915889905,-0.3227233482894225,0.9415486285947108,0.9125577360730084,-0.012468149852142396,-0.5660269960982716,-0.4955335988021399,-0.261237037088355,0.2635231764827539,0.23246178783899496,0.208583663247921,0.8262746824938076,0.6503635350239814,0.5542663218897512,-0.8048423836701208,0.3929043364592797,-0.11395963307821422,-0.2862928584156108,-0.4937405378845341,0.41575254277400653,-0.35226778673638726,-0.5028798365369811,0.4761483811608176,0.5177388876428968,-0.9714241456234824,0.6216035578478429,-0.8336895374081748,0.22117600362888878,-0.8121108132302974,-0.5454839673121352,0.7038425767850562,0.6160566728592114,0.21128865212611903,0.10096590758054336,0.3145022484639881,0.3129879858153932,0.5550291353015955,-0.5549551629569931,-0.9141149570741485,0.1854721097185128,0.09928621279375682,0.021576586815578835,0.052830912800632346
4.360956796965489,3.097849464770998,-1.4739867321463798,-2.255783083118982,1.1144135671435378,-0.672937346964299,0.7554288941311516,3.151858527813172,3.075097297430827,2.3280910560366412,-3.290039086356969,-0.281783115877203,-0.28342483492670434,4.440203536735735,4.487651176932517,-0.6973919167730281,1.8976125403281965,1.23866853731609,-0.595843332169201,1.0104128231546663,-2.879635465006737,0.7524702297449313,-0.9582944482129969,2.502187247322026,0.01786322284709898,2.215926124415828,-1.7392484572670333,-1.891693992524824,-0.9484034195841865,-4.824119777498161,-1.2694065260070901,-3.811914988900545,-0.38702043390955615,-0.673549190173134,5.161831000493897,-0.08461048184558724,-1.4128119628962605,2.311448286346784,-0.2454149746565288,0.6053583781600714,-2.4883533240938394,-2.9628760538969834,4.549554763388858,2.2140398956749845,0.34460601780876643,2.1799212990485164,-0.8910829442028969,-1.6395880208918296,0.6964110944547053,-0.4704663163119133,-3.013785037989805,-1.4101169009930263,0.8142332278567791,0.9862611700861612,-0.3861241185886295,4.583114110402553,0.5914187437268057,3.4136310743722316,-1.3096043129041828,-3.896247555024099,0.7451770450257882,-0.8485271163907484,-3.33234215283814,0.48077749436206835,3.3405753466198083,-0.0011228483713241015,-0.8511592322195335,1.2724472681131254,-2.7955255191123465,-2.2836976277538645,1.1328825762425367,1.4588288879760005,1.6945136720029494,0.3395966631264187,-3.0808930575505284,-0.8852846949032845,-0.2789308113248658,-1.1113054314949151,2.8801624759271576,-1.405350027807608,-2.082451245065294,0.1612265124130367,-0.05128472275510483,0.4210357684983464,-1.2896499944683801,0.6886147118761953,-5.204318663748022,-0.39151410579281726,-0.10195710727470664,-2.0187750104257316,1.7856625014641503,-1.6628490753120728,1.7540455373730202,-1.1196061385027856,1.5643952582445824,-0.7042738986691331,0.16207679486920132,-1.2996074864572464,1.7046270419092755,-4.2739890530039215,0.5061850006643971,2.7780405101924477,1.5712109836513932,4.0778564581683945,-2.273626905496836,-2.759731167946387,-2.3386174108068545,-1.5149521213659702,-0.10940956135417335,-0.2897333970372496
1.000895706266815,-0.4788289456626223,2.117324562933438,0.0050214931465814286,2.362564336029714,-4.595084174803627,-2.6744956643159172,0.2534797084966018,-2.3168557516394905,-0.5391308734285882,-2.463836371041733,0.41199078267403494,0.7383434487065127,-2.428350244967291,-2.2020401071262334,0.5438322432755253,1.2158332490315389,3.042482632907707,-1.4707846759180085,1.2680369044540218,2.781264152186811,3.854333183847891,-0.122596804770545,2.105732391795273,0.512646615857093,-1.3086888629956357,1.9320570619003568,-1.1615083303479807,-1.6613354306307957,0.3315999641965025,1.5788302346184409,-1.1662088884169877,-1.3207700476983428,0.36818660887767624,4.629009195476939,-2.0618744314895667,-2.454007617384205,-0.7379461628908759,0.44580387674430544,1.8925276597575642,-0.9709235134000279,0.8056687166147531,-0.03205432369131413,-2.405791139548415,3.923718579522925,1.7669240583178865,1.180337045774023,1.9009161273081636,-1.252307729470249,1.3929131020286891,0.025799815626680628,-0.722984555405717,0.37912053980986155,-2.445453829172785,-0.4188080512865392,-0.7807565994671146,0.1144175753876157,-2.706010011814962,1.34364175658135,-0.951339340511496,1.7496615939013191,-1.9961342492464251,-3.972162226861477,2.813559817150938,1.4054801713401308,0.9305476389610399,-0.03646364062143297,1.1875909553460977,0.39934605532352435,-0.9760357682248867,1.500367327570793,-1.4207732864888885,1.1792154328864661,-3.0787369915796012,-1.9846732862213008,-1.2937707032715284,-1.2738698859837774,-1.4843826981329118,-0.1752735214001107,-3.6737014836234048,-0.45794268130456006,2.7632979993534916,-0.3988709380797079,0.14863700370946406,2.9293152291354883,-0.449991180700997,1.1879983719409175,-1.713902941939065,0.5847284360386216,0.2881104424074987,0.4933466639073448,-1.58776261898912,-1.2700947006246914,0.11904133256009729,0.04692556344827859,-0.25315913793909967,0.721041977706325,-0.44347257562223996,-0.7620429107991451,1.5311404767434404,4.3881705578139405,-0.741260658217857,-1.1656343098255673,-0.2115530971730148,-3.1460827752879834,-0.7202291156168008,1.4550510599409812,0.9312335235302743,-0.3801432650847008,0.5903989231077098
0.21514237317586082,0.5163532607429364,-0.23121466523420225,-0.8520844193245034,0.2890278773371442,0.3017737278082447,-0.46853577585245193,0.34855236552662267,0.14155199798332213,-0.6110570995547168,0.9877368893180459,0.3043645149157075,-0.20793443813861706,1.4115497929891738,1.4979380594052585,-0.7301822233631394,-1.0662817971610132,0.08774050991631445,0.9308042867246641,-0.16347535308367986,0.6590539318898808,1.015389985232678,-1.0931530520426669,0.5419414952285816,-0.22528823605534845,0.6014621881418196,0.5150731260758282,1.8796827600425174,0.11600193092056874,-0.11169931715425965,0.7001247576481209,1.404048667307379,1.1122992071123436,0.5026918595072541,-0.5604733110923236,0.2812936498740548,-1.2907834737663193,0.09059857843251387,-0.6964601840236542,-1.4854437122159017,1.1545292819345019,-0.808816868038304,-0.6694982333910338,0.6840158574483136,-0.47267169553955646,-0.9852050377085321,0.34475045040239216,-0.31375453120270685,-0.033160879590144285,0.9259918265214397,0.04400668687746008,-0.010552470275869702,0.6934031596296165,1.168615614986735,-0.28077503156413325,-0.8220498065923789,0.5959124645081995,-0.3957129179960189,0.9665757822885258,-0.8375744005787196,-0.16431977853521032,0.10864769137672638,-1.0880076923052064,-0.3426742551531915,1.0681760627617807,0.2758589053441578,-0.3727069621616914,-0.36445389308194737,0.3125182862203607,0.22278841056680926,0.7797047539526919,0.6393042395834974,0.2258427114981046,-0.36170105047762396,0.7722667381094799,-1.0478671910071993,0.040555347055076275,0.48094573446640054,-1.0183837726275344,0.46062117579082057,-0.9880463517759933,0.6434584619680319,-0.5502234624206797,1.842614976880263,0.023400152519523404,-0.6303837801323015,-0.09461781594247852,-0.23540027156795665,0.39445493478129057,-0.9628692385374275,-0.1972392290718524,0.053256935122900945,-0.36792301411125583,-0.07569259611020554,-0.0992954762639813,-0.738635063079806,1.3894809576569054,0.9846694030126435,-0.9718932322358146,0.15492335544619218,-0.431931464961043,0.40151259853966137,-1.0473281782922825,-0.01723423204219614,0.5009890998041422,0.44502468559769076,0.282630970511293,0.7181639066080906,1.2111721318784496,-0.8053728429145406
0.0848849468563588,-0.4231659742189641,0.8949231823466379,0.3289304976274622,0.653324862712556,-0.15539095904498262,0.8221071682031379,-0.6357625673204723,0.7443971271618377,0.16493288710994528,0.4890988862082733,-0.7534357213320482,0.7614696551471399,-0.16243697817997466,0.5205664243711602,-0.07552336041387143,-0.05944838651126951,-0.4675151181505976,0.2261158722195342,-0.281035031889347,0.20610672803068597,-0.7032541559971529,0.4128728503463973,-0.9330516942905486,0.8086270477496604,-0.4938438811658356,-0.7057645345065288,0.9691773159401977,0.15917134654856005,-0.02391314310826038,0.5275812241373845,-0.6924123944135347,0.6574335757585007,0.17436544035683801,-0.11533049676065713,-0.8581582295730777,0.5130240805781667,0.2725343505056709,1.128329813287141,0.12500489668588627,-0.0013741543146638783,-0.8405816742845515,0.08956227176583492,0.6001981960582938,-1.0671332266044289,-1.1414001829310827,-0.08184780754597029,-1.052679261223117,0.3207338496396217,0.47939212117329494,-0.9242322659867098,0.5632897032418882,-0.8650734204822769,0.44335363326748206,0.3983148238745331,-0.1757010251297609,-0.10581270970835321,-0.491700753257863,0.047836553193038436,-0.178485539680129,1.17844889981178,0.04490103593150011,0.05903129302302373,-0.9697327894236931,0.7494762878143523,0.904946022515434,-0.24999875207278546,0.22880129351619852,-1.0194807461414432,-0.1832757316419881,0.7102046193007849,-0.45486549049731845,0.564436432947036,0.41670095997735457,-0.5944364999666497,-0.6604374231032532,-0.3369212312736343,-0.09358175953915177,-0.6022935991261932,0.2777231049013387,0.3443373465885008,0.08907499640280757,-0.8250919548146746,0.3593021169637391,-0.13023847518624676,-0.30934749698790115,-0.49200100177629125,0.4369385683186313,-0.2666561221107472,-0.5075993463340988,0.5034271369038327,-0.4450892233564748,0.6389611510685956,-0.5062365340889289,0.1047741971224272,0.7924152851444473,-0.07388859317472334,0.4445456052673734,-0.14914932396802477,0.09784930898025482,-0.6618955019657166,0.18071133302445555,-0.1408291314684577,-0.66433167392078,-0.5096287079004721,0.7599866682558772,-0.027960745441937163,-0.9138177034931958,0.9908883599664013,0.15367602691964546
-0.2406007712556011,-0.2205635797460419,-0.44814339544129855,0.3383405421123473,0.47953185074247906,0.6395329997850625,-0.8321296302422694,-0.46195904238478125,0.7352943134479819,0.987997794234335,0.9904631299179552,-0.13692891125647155,0.5872825076237347,0.11430828307527796,0.8363569170125353,-0.7132080552646611,-0.8190557579132869,-0.12759458622028141,-0.655100476497275,-0.5489148513286859,0.23435145373415622,0.46756504785813235,-0.13504260641794663,-0.8885524840605608,-0.9102065381086031,-0.17165378977327705,0.5727755292529921,-0.8920107693275028,0.2987359518532391,0.3969301032263357,0.5999172888159032,0.20053116511779323,0.031954315551252055,-0.9909472072943906,-0.07108583031886884,-0.14986126454724902,0.7414154933437129,-0.31487398659852195,-0.39472964306930725,0.08606815448187577,0.4477499970279577,-0.3829691402930586,0.41798261963941363,-0.033756075444388856,-0.2130815340198866,-0.5895395986215346,0.6167516777097819,0.8210246146152238,0.5219458532869257,-0.26942387585896443,0.46257748596148196,0.46415703944250275,-0.3896410621035573,-0.10086351356113843,-0.5505546927634655,-0.13854218272960095,-0.8847683794621446,-0.295856178023959,0.8883262042639892,0.36690215257617353,0.25750504728434365,-0.29155239848129133,0.21073046884672686,-0.4325584093445083,-0.27048260035653127,-0.3183663266252006,-0.17243173159922298,-0.977988961477158,0.024442819504932656,-0.5700825098073332,0.6700879471575323,-0.2631718874094797,0.9836051099223011,-0.7383479895893474,0.6431772438965686,-0.9117731295771596,-0.9766034414809932,0.6014501574401687,-0.86267104847247,0.08590932112027216,-0.4242008948270495,0.8538138955788637,0.4740874745676462,0.3636389255369319,-0.8387304998116754,0.5175502543915671,-0.2991902937705917,0.09104023594638377,0.2100170801980512,0.7651480925732304,-0.49591289579125974,-0.8806897904737898,0.2574663660909937,0.226677666911836,-0.8228060408159961,0.1052867001083051,-0.5380350036411372,0.5556668641783717,-0.44455961621955353,0.10246081064373369,0.5275606560374719,-0.4952014749838112,-0.37567454045671056,0.16415996938640176,-0.9380623538229449,-0.2978366753631887,-0.8910986520876067,0.8732694746410845,0.15936940571498925,-0.9058055894722989
2.030168906062981,-1.9843362907488482,1.1739462160475131,-1.1955052858386601,0.7567826388406715,0.896416781877809,0.15812769576385288,0.9429395009626779,-1.015282351061191,0.04082983902579894,0.4603387852621151,-0.540358997084519,1.470352691560604,1.7106172877899044,-1.1829365041632758,-0.34742913869884984,1.5382812971236635,1.0359314558022743,1.637040421862208,-1.1893570062676964,1.159664573556019,0.8228616087098412,-0.2309833206509613,1.3907760641974436,0.8710912601652422,-0.4394683234807298,2.183877679797375,0.4575342573287469,0.5114964456194746,-0.44340680220579975,0.14808665818796093,0.4727828106305255,1.901743790730003,0.8483904551534517,1.8548844411402414,0.6026383279375797,-0.314299642199816,-0.1786281466168728,-0.12976235834907346,-0.45593381399813604,-0.8153880599717289,-0.6427117224750286,-1.9946035678774054,-1.6629759063140128,-1.175379405227284,0.4428271179576136,0.029097512031207664,-0.24779310582471314,-1.4581723161814064,-1.2582377046559505,0.7411728257953316,0.998317235431228,-0.8874931593496592,1.5187490532661605,-0.36715102410071687,-1.3460488631755902,-0.9847570633235802,0.5364621382451331,-1.1749074438881884,0.0479377326474717,0.09693631738599759,0.3566809365410703,-1.132739588518265,-0.06796057086594202,-1.1843421498858835,-0.2713200023462268,-0.8604182131721541,-0.40247499095927625,1.302018900113494,0.520605513132519,2.3447368905646826,0.6282958006585125,1.3467145686191166,1.5882368415857062,-1.2419782546140545,-0.04708082846143058,0.8293883006101322,-0.4348659484134903,-0.06641906952579295,2.305855089938749,-0.11327197477749916,-2.0870826450852147,-0.659328821150776,-0.9775794605806504,-0.6838758259107705,1.1329231908991084,1.5992058087605892,0.998679774307548,-0.5249374575620152,-2.1494101021383982,0.26418404909695864,-1.3624543962646776,0.7072477888308802,-2.1276552206879304,-1.3673162811356894,-1.4423180891060816,-1.7052059663414212,0.5500240767777459,0.4642900845261251,-0.7151280771827309,-1.4140990050371758,-1.4446464125970122,-1.2540108738616054,1.0235043446685388,0.32652478111557126,-0.7533663817588662,0.21891834834284365,2.262380506878345,-0.835515071035686,-0.25225355135579536
0.656527047917926,-0.9357673778563053,1.4699180011399338,-1.0188404966563898,1.6287515019003032,-0.8769430592576611,1.5115324178024052,-0.786944097636509,0.5244095778338432,-0.5344958555356434,1.239781125470621,1.3526812144569889,-0.66726439436607,-1.1428509717494937,0.8021124127187116,0.501517571855536,1.8401034796119535,0.08912898329314345,-0.9179923313424638,-0.8360008373722505,-0.20107473955073932,-0.5537535615960469,-0.66310949144324,-0.08787609154553282,0.45828685259052265,0.6077174537276959,0.21457789411100955,-0.6551602236156434,-0.7003791331909232,0.8917991463408365,-0.3031890529915583,0.13378951649843474,0.5919415577617639,0.08768501439973128,0.2785429106326961,0.7329812458424777,2.3685798855412856,-1.8519887438766773,-0.02305075218249816,-0.01916884919499008,-0.5504607285612093,-1.1195146870817023,-1.0399952037071474,-0.507765105794551,0.43709869877540475,1.0034141851760061,0.8489348254710721,0.1478404545553654,-0.8301961105781691,1.10316268624581,-0.7074174071060051,0.5847150782094305,-1.2556904456165832,-0.3494112823113087,-0.775112914579715,0.8344802511471117,-0.029463566838226863,-0.7340739655860289,0.00815121352590065,2.1292066762095705,-0.2998828945889434,-0.6469233187852168,-0.6203732926954414,0.038924295572085994,0.4636145065569531,-1.2841671512582067,-1.588017296345346,0.43790424174096465,0.3800673839735585,-0.3212318204826183,-0.7549128662547259,-0.5244297993511072,-0.3629710623848815,-0.9743373824294153,-0.9878006093551486,0.5876511470248692,-1.04290930625176,-0.8538555897309734,0.13098742756305268,1.1027509082331315,-0.22537124215063403,-0.3412483942491392,-1.0758549410528293,-0.8866853243313755,-1.404576242291125,-0.9213483949646821,2.084792764013622,0.2067030179319443,-1.025145020224906,0.7061085227289713,0.24716134407379117,0.6629774176255249,0.7147911579494574,-1.0859526454890576,0.4659819257902356,-0.8806415974545292,-0.031056899253837002,2.090358086119104,-0.20909450560333728,1.9760192947877995,0.2701608959918543,-0.9610775599150728,-0.1235734143605139,0.7025271996503548,-0.8263019883417515,-0.1743274588045361,-1.5110499809315092,-0.16249472898263156,-0.5916525802410666,0.8751942386444485
1.195533614972008,0.07197601623483464,0.25710471628877657,0.5143773447947253,-0.985601677026131,0.8450645716479281,0.5120850833020382,-0.11239088319234802,1.377336716080549,0.7226689944036266,0.5980600490648481,-0.08867924753697544,-1.2625899139970056,0.3290627381811481,-0.09043748322227678,-0.11599345347138762,0.2779383530876456,-0.1962023761277982,-0.7668500885915793,-1.4871576961346527,-0.3496480822159266,-0.9589851447972367,0.18022961246649813,0.5770796308588313,1.0157160453322525,-1.102051101885664,-0.5599392548097119,-0.404823583798909,1.9101688678860151,-0.6585109958801351,-0.5058768786414073,0.2993289882136067,-0.9574044532939329,0.2680531767024035,-1.1916260902187552,0.38572295806457896,0.95089845780647,-0.2786842628937138,-0.2453061125991774,-0.4912005226146863,-0.6343381473673428,0.9476875092029711,0.5547284795271092,0.3252988964542573,0.8302014102223085,0.7178300473107841,-0.26828671952198124,-0.5393102933552433,-0.4362221895291652,1.0898061868425186,0.5305824089474286,0.07463516476620047,-0.936315420676132,-0.4383889708946618,0.43120655255505647,-1.1800991276591979,-0.9874576854506518,-0.15956900221686468,1.0042375036121742,-0.6707780175945348,0.6158793084893951,0.48909954143980877,0.2738227851377344,0.5896407922033614,0.43795779463589773,0.4813116918442464,0.33567261014145855,1.0154472205444909,-0.366325945473891,0.57307856985267,0.3872395520114491,1.2080968664921135,0.4695592215663265,1.1147170042022763,-0.05557910445670902,1.5481910768158964,0.819356806737794,-0.09610779937300841,0.08849265279430064,-0.17577083900042947,-0.1421094566741,-1.0977392969042508,0.039568148200070166,-1.1142682393378986,-0.48780351166747454,-0.8818319554107381,-0.8768114016367823,-0.3143577465828608,-0.596605058509637,-0.7525895251764516,0.15506212080205,-0.1982928191278126,0.6933680477422856,-0.10613769366366467,-0.7312103709445319,-0.5756958343357478,0.619712063383706,-0.2573573086689626,-0.7728844506481233,-0.38096809709361995,-1.1375860494505259,-0.4232544141029674,0.9884910701394798,0.9478961025189749,-0.5499855963845409,-0.825432880085805,-0.7025187705117558,-0.40708807608998726,0.35586384448049274,-0.8416950404246143
-0.8810959514362762,-0.07353751311280311,0.16444831351440803,-0.7696075236105866,0.6378251470666587,0.3434052576832854,-0.027137028345744378,0.12966935075349387,0.29915202200518454,0.33874470036681364,0.3188987549936061,0.5200977907763907,0.735066286741304,-0.3315378484411867,-0.562513588913067,-0.1489153119219371,0.09107931235790911,0.31695113817844434,-0.22547181988267906,0.3228990538076036,-0.8335654456131425,0.08156729666248476,0.14091234623877,-0.7418019358504476,0.5159707260333388,-0.050842500558475744,0.8075357295015246,0.5977752224097439,-0.4803908872973384,-0.518853404804176,-0.795010770828752,-0.8027905595475268,0.7150416741213399,0.00718422555215211,0.13375499958570436,-0.8396549670526117,0.14696838507329485,0.36636474509181427,0.9088661195577594,-0.46481024969305573,0.3143986550905723,-0.07631923597220655,-0.719866714444788,-0.2131861995829593,-0.5247534598938733,0.4237673613333572,0.26343363094500916,-0.636461874578035,-0.6202623989115512,0.0662637997293094,-0.09853779727746445,-0.3691530064761502,-0.827299323819462,0.07884410716693264,-0.9097880297118153,0.9644103760246188,0.20165864348310575,0.4070800602835399,1.0080383232187222,0.0017261778875966667,-0.6764477647430318,1.0497915114574419,-0.8804460675791842,-0.7382926219509192,1.0097300625484442,0.30898942175075056,-0.853254757889389,-0.44932125211935464,0.39697119948648724,1.014624491848926,0.0033903786546699275,-0.18511609424824352,-0.8007102839852603,-0.7465315005179796,-1.0124203135561682,-0.91548448198616,-0.9673181548533365,-0.4087661129816064,-0.8501658938422985,-0.6048153265561715,-0.15137515690413952,-0.3406464052804559,0.09085037240933853,0.8680946608224763,-0.21199301186154512,0.5890039238638118,-0.16367868192385074,-0.935421466451057,0.2710232214329078,-0.38667308528145483,-0.04663945722305862,-0.1423433677711531,-0.3074509839574575,0.24372130827048627,0.22841210521359356,-0.5811084085426583,-0.12727633653729611,0.7975965351182857,-0.9311237045284635,0.9242537014255688,-0.7078604019440756,0.04691244763185054,-0.005449371978477072,0.11435468333847465,0.8212827228140173,0.8628574861967112,-0.13877349441584827,-0.2887437833852353,-0.37549494025599545,0.46682945345624033
-0.5373941198502368,0.30945520316388514,-0.6657359368268768,0.4751076865002394,0.6336706200504347,-0.4085289162221089,-0.38053934531606054,-0.05765236883916569,-0.07699452640816459,-0.5862144382053076,-0.9095601615760822,0.43359238579533316,0.2113559951373878,0.8526536731709299,0.9428024296993422,0.3735113039742962,0.8189986163322279,-0.022286891318145197,-0.7381807130866492,-0.9181978416373546,-0.6286189113598697,1.0654675847441717,0.3531710597198702,-0.18917777074405562,0.3005979588327779,-0.42988218015204693,-0.8283466733140917,0.7692560095453128,0.6205126254258423,-0.5732319297296311,0.7656336059230273,0.8751963997710182,1.0056491425117469,-0.5258366091938202,0.6877663957677067,0.6409934774777699,-0.6206339667712084,-0.11811787826693933,-0.6294175520863008,-0.4738674298184877,-0.26453379669212584,1.0178768210927345,-0.46559161788591275,0.8559016954738936,-0.2910849051056389,0.18736104945873455,-0.13269181458330323,-0.4903614622397296,0.058233155915015385,0.49718246897135854,0.8580273362639209,-0.9213250653225679,0.25188539516817116,-0.7759790899458812,0.8547349859334736,0.3522264826459484,-0.7129998496769675,-0.61203109501267,-0.3058123213696611,0.21831690026592773,0.2704106893472016,-0.3333359378738868,0.7095395632892433,0.7269205030662952,-0.2599078293982689,0.2257107365794781,-0.4134674433818259,0.3081343038644839,0.8134627479843198,0.7119435715075039,0.21945005112143579,1.1197997645217252,-0.7713324171330678,-0.6039462434082503,0.1191756641656917,-0.8044532886708697,0.24817414564906898,-0.43246813731736694,0.12690912343390665,-0.7237763513050034,-0.07205468641655839,0.3434377275206241,-0.7247954987401115,-0.4427849914419653,-0.008455782184140238,0.2222459266233672,-0.2498143627790582,0.5956259162455726,-0.5296665942805999,0.8660417562857555,0.909458143277339,-0.1584824211322846,-0.2225372662983669,0.43733217989503614,-0.5487974126013621,0.08906738025576909,-0.18132265947443257,0.7835973170808509,0.1483179626791109,-0.8973770320996192,-0.6695308158337249,-0.7297354296444817,0.6109372396464722,0.17411346704712544,-0.4013601768525109,-0.13954758750252763,-0.6579522339197648,0.1727216998636141,-0.26571072303932997,-0.6515166445108425
-0.03354942624703907,0.4203242642996467,-0.2140087338786555,-1.0032578180136342,-0.2347446669268482,0.08664315890618726,-0.9367406088645496,0.5331036921676422,-0.3449019892501194,-0.833104532174166,-0.5497939108168716,0.515828123130162,0.1752939492673161,0.8164159313448839,-0.3527702103354881,-0.6803653657038552,-0.17928041355701357,0.004483851569702381,-0.6281919562139802,-0.25509888126370417,0.6918230812251775,0.653939600696745,-0.037690806760525365,0.3864529583788896,-0.3517993928760697,0.40677163347456674,0.3564921419126731,0.14196304049861655,0.08037204492471764,-1.3053916583267862,0.3048343232718779,0.9171494347209911,0.5755600078289693,-1.1308100169016766,-1.7259048739323306,-0.3011036757998856,-0.49903599494948814,0.346696888123539,-0.42585784397511955,-1.7115642993219173,-0.5633095576640564,-0.49658560843957206,0.4428307708734556,0.3919162162580984,1.1058760382579373,0.9422606165844845,0.23944604772646674,-0.9531135072437219,-0.9600859347636665,0.36359270060288945,-0.7505248356831657,1.3904241574149345,0.6357997126922308,0.06043927332574155,0.05751499406655262,-0.9092293694049166,0.28051528544228976,0.4512229861735215,0.4056201635173662,0.8468119946144956,-0.12249988962771079,-0.08725546560830744,-0.7572670328174076,-0.14897493622584604,0.3165188644580932,-0.6991538482938845,-0.7918562554820668,0.5814987846010149,-0.4941357543007947,0.7656658875304521,-1.7811027670371338,-0.1301446471475666,0.03306083369789656,0.6207997836756013,1.0171322034337318,0.8282053937582311,-0.4635950240326536,1.1650130055666796,0.3750282912602491,-0.08917666776342413,0.7767364527466795,1.1861216416150469,-1.246394784711898,-0.30027629412527224,-0.43383809864933265,-0.5786768587713976,0.8485514199948776,-0.6866321776483991,1.1919630920805586,-0.3181495043256899,0.7072834811742138,0.3290357621268485,1.4551481898737149,1.0434042609852576,0.3235099308152701,-0.0672879370703477,0.6531760254998534,-0.5305868290806182,0.9189600255616971,-0.7872326404100014,-0.08565851482846241,-1.243078552299737,0.3584568545588676,-0.7171846985485109,-0.21207631753655037,-1.150039330861255,-0.10435942703308983,0.9229150488964327,0.5795852425334838,-1.3690235464247078
-1.1378659239073883,-0.9134633392652937,-0.7131199423989081,-0.2007003015961226,0.35403786701662054,-0.6178809869301196,0.3093352742911652,0.27977998471179577,1.089487766348912,1.0099277851969195,0.3080543262188615,0.3004284362071289,-0.2050934382930564,0.49602511278600736,-0.4762242910062002,-0.4966558162642089,-0.9324510062210617,-0.3532209895852842,0.05053353035204984,-0.6008863350716913,0.6795152106091353,0.14548890218785288,-0.3036481294640846,-0.4223347803210404,-0.7237075029508738,-0.10390133877298138,0.2981641254371316,0.2871852524768991,1.2477401850925938,-0.12768527566908375,0.016950263041753146,-0.8869541806637279,-1.2828545418626345,-0.1322372492263365,0.37698307000158077,1.2608340369837172,0.34760213677284696,-0.7011955940268257,0.7436690324492725,1.0935082829522784,0.467826542273429,0.22604751303753773,0.015200399852773128,-1.2709758494487748,0.40279966647430826,0.8285058045290845,0.8316192144446811,0.6850896431395768,-0.18932869319756182,-0.9316755043008832,0.5289228787489485,-0.6082111033588545,-0.11849954784558606,-0.6057427140141837,-0.016731191840720864,0.27240689315123967,0.5563710085085761,0.0318438291322284,-0.08048340543142776,-0.5678058883211897,0.3732953558363279,0.08262717007923352,0.3886088016214301,-0.3486114771749759,-0.4673891916417505,-0.2149567095786558,0.09203220256587823,0.866012524803963,0.9527515836867452,0.070047705969746,-0.09866911838229539,-0.6783988377573557,0.12292771818558818,-0.3884337235683916,-0.27382888009588047,0.7197736942212387,-0.5221183041515199,0.2346162759660639,0.03670364225849521,1.054271818769412,-0.8996218243878715,-0.08097427706351018,0.5079322525167648,0.21679201738552673,0.17677028983326432,-0.8243704394799769,1.015268535311571,-0.8999853862431441,-0.8776381518274079,0.8919988610578374,-0.6347527253089328,-0.6763536291929705,0.13004893994553923,-0.26903500028497973,-0.9222499209617305,-0.8084335865364634,0.40684488225632964,0.963674984482847,0.46401653926766073,-0.5545689332491619,0.16441457830567774,-0.9684764022183676,-0.2253505957905835,0.8189787297292701,0.730894960071114,0.6835861609422555,0.4239647552210629,0.8993667818577181,-1.3042343879382567,0.6703286642863353
-0.924927755119201,0.5651290800636358,0.03195283633768646,-0.9708658106421613,0.6375774031042476,-0.8255936601771118,-0.32213745464398785,0.5679272465096351,-0.2601186388312241,1.0556213363481772,-0.7835410281436408,0.20695791172410868,-0.3228921558143814,0.37653969253157576,0.28363065621480565,-0.2225169011204263,-0.7709565639568,-0.141811723076678,0.12247712713006285,-1.185803772676523,0.4755951762739764,-0.6001131185524365,-0.39745866673557345,0.6322610935882383,-0.5572927409772945,-0.5793804075797168,0.3644711540899833,0.3997961994172857,0.2607365602264317,-0.718690638227392,0.2715914571321008,0.5172644344725945,-0.8438861089745504,0.9507079151188539,0.39072144602954934,-0.48819161680857187,-0.9084478349293279,0.32582973591792463,0.7397814860374455,-0.04000512873075797,0.29847450743841814,0.16997836962432947,-0.8750200035906421,0.6385714860441952,-0.7908024856311471,1.0560674266802785,-0.21751818538193893,0.37021414815834497,0.25096369768861565,0.6425665032647848,0.05990441481177937,-0.42336127521285066,0.2795454415919747,0.5967982803431849,0.6453535530215131,-0.17391014933978144,0.02256282536526789,-0.4427707050785781,-0.27272756861467307,-0.7008462006524618,-0.2798455963650965,-0.9967936235313695,-0.8022281732773032,0.6891393307506908,0.011030510975303614,0.7106007593079867,0.9280440754716655,0.7882249707875096,-0.29982711167029713,1.2210311237561733,-0.1424411729656928,0.5500736740104195,-0.4773107423331798,0.6865582886726421,-0.9009260732806665,0.04946800863662711,0.4662557022914049,0.42368530140539934,-1.0366356196753996,1.335852294416663,0.9226067633990913,-0.16145559912586804,-0.6766830832478834,-0.5112293110018501,0.9944462192494351,0.5280530497841076,-0.3511525343322954,0.8688030444900201,-0.41046734673353336,-0.5650345088897117,0.23806897976056424,0.7248480404656247,0.8930291996865791,-0.1706612673924173,-0.4007024480504958,0.9180788022304295,-0.8326865091695675,0.41522246279433433,-0.9901491925838888,-0.24285179382012673,-0.9562238574018543,-0.16056651980924838,-0.9661058201946937,0.6158594201271834,0.8691565271388892,0.5207797861985332,-0.07750946205978983,0.024928860149128845,-0.5119922744604481,0.0992670058100685
0.6407128357455805,0.8672479468765005,-0.4154584944280896,0.5107509918172939,0.05419306948543911,0.38133918275467094,1.221113375990242,-0.7147563397644218,0.22936867394157476,0.27436242582663944,1.1216591804658587,-0.24476130776652394,-0.603391678017763,0.9349524387538515,0.16213703587361,0.22523697693685282,0.36493247950904584,0.041964445680563914,0.5522737024625264,-0.9604817940528482,-0.39463446673380337,-0.6619047736791136,0.7892909905415858,-0.43719734676476907,0.24160815509743147,0.5038117989601432,0.7228915233759198,0.7049274258495222,0.38511060371855893,0.5247394131595194,-0.41669571825699997,-0.19230011068115196,0.4149545874596812,0.6417664767301794,0.9625009770777078,-0.24611053661512042,-0.20500498491102082,-0.6099229368654656,0.7034396009384988,0.7929896656295439,-0.1858607592081336,-0.902140104194992,0.8459034806322261,-0.9002613425971625,-0.6886904540389156,-0.6323306024577589,-0.235478373824935,0.48711771501131074,-0.6047260492474313,-0.9499435115849274,0.8237220315222066,0.5406972867066713,0.8641746593552797,-0.3874495057555776,0.16712686605307425,0.586813536073731,0.2077780674616595,0.29973506753775053,0.0697695782453252,0.375238754675436,-0.9507996797883472,-0.9480474697981299,0.9389113294597489,0.4040969219321934,-0.5272100653940647,-1.119610865042047,0.7312743621716269,0.6590811859916581,-0.2666819490334712,-0.6108778622988164,-0.38440228230424167,-0.6650552934003777,0.42352454851694776,0.5970864693883491,0.8660179746398581,-0.19781357717634054,-0.11419745577642734,-0.49037297110086275,0.7086811363869769,0.5156824278921665,0.08270226142676636,0.12742835496454877,0.6084114895772749,0.7982285898942874,-0.5218565482680075,-0.7735031426116722,-0.5295663352204815,-0.7597302817818966,0.30630984409642953,-0.09385767995260708,0.03467610584491165,0.053852765179655405,-1.4229672464887075,-0.37409605367132526,0.7125527102871418,-0.4798393695526122,0.8412732098460819,0.7944011975125321,-0.38322818340504144,-0.10927420937853816,0.7886703170004964,0.8661282482208243,-1.0078180916897501,0.23324958700826098,-0.8218843766724433,0.7581195772589086,-0.8494338123005672,-0.6023649217464855,-0.4210637171675342,0.32008624739954333
-1.0030910653016025,0.6545302763161669,-0.2762467963106679,0.9000742041254702,0.7611438337870539,-0.05606990881591037,1.289679905006709,0.20671881571782244,-0.8516851394303105,-0.38901903328752324,1.1465228466542543,-0.3698535307475144,-0.2246486514054107,-0.8781387032699365,0.2963408174156402,0.35357952506465967,0.10300767166520192,-0.6977049115056883,0.36576324339481897,0.9089642367152149,-1.2704454002787846,-0.07151482191175626,-0.6469445352084641,-0.058926639622640276,0.8560909171957429,0.7184797257951819,-0.9234208340460159,0.13900040698823782,-0.2219938167724076,0.9945074694474311,-1.252391352210274,-0.22157106996081719,-0.3077196327614824,1.1370643657543933,0.796056530723362,0.0554598676808579,-0.37388852413850776,-0.5587990721565473,0.30735313693391003,-0.6503762261465463,0.7679362396215589,0.672133513331802,-0.5646997737517309,-0.9154702316770974,0.0028089007021844794,-0.6764364164964596,-0.2970448050337102,0.421092209688759,-0.345814498182456,-0.924041032369963,-0.18950051286243014,0.33140290732068095,0.4754249096325954,0.5746567118101868,1.0570472011022758,-0.19689003764806687,1.0372476084828368,-0.002645681028722496,1.3937512195374606,-0.6286460580967755,-0.06378352549475405,0.4834237769453745,1.3666892620579896,0.2896298937076766,0.2512487406475109,-0.5416491145835941,-0.6269846541405907,-0.7702175824275143,-0.7483523997585815,-0.3680684062054819,0.3818408515499586,0.1510481090884267,-0.5817235190535197,0.5853950478400328,0.8670373193479781,-0.5655141999715463,-0.3693312012998353,0.11704136835244772,1.0010441310614777,-0.42064072283374415,0.47369161766631984,-1.5122585481245832,0.7053882780773418,-0.4823764153546079,-0.8206924985393341,-0.2555875195742883,-0.5677737615014173,0.5186842104394839,0.4111349875527773,-0.04269114673188581,0.3381276406968053,-0.6763984390470885,0.18879354431571144,-0.3087876513582183,-0.4269553166471982,0.438879502804433,0.1804098671363862,-0.1698363578739024,-0.38506833276140995,-0.49331043826487603,0.14177384027518708,-0.5654289108172819,-0.07247942231791482,-0.04292322067821295,-0.7938617544196861,0.5403398000559063,-0.9750389873688933,0.18238089720166353,0.01668880751963982,-0.6779722147899279
0.39936957302343634,-0.27804418653387014,-0.5593282705279188,-0.6337539637995396,0.13546761300045185,-0.2494375297974347,0.13122858403639606,0.8903685088965043,0.10109475803305948,0.7815572866441957,-0.6848168459885494,-1.2769741016490384,0.13496726883288654,-0.0404562733516379,-0.20857089900138306,0.3263155574138246,0.4711029380371175,-0.3255788353388401,1.2215376378790772,-1.0562976409267926,0.5378094478211587,-1.2669954705827686,-0.5453599275004994,-0.47309895550997916,0.7263227919568923,0.09874012887935732,-0.17243348908402753,0.11011181109753365,0.3976624080504267,0.24136763179397244,-0.7711979917349719,-0.6259746543991412,-0.8737189208239375,0.025585497491044967,-0.8324866107153407,0.2514244392506668,-0.012644364817934373,-0.7080850718628641,-0.5810781721300757,0.46115329520774795,-0.22250117375369452,1.3638023524873522,-0.42574166144223374,-0.9004012648371129,0.5942016531780319,-0.7972928458914661,0.9826448267343897,-0.3019621201342197,0.034422474104498904,0.12898700329805995,0.9635937421552618,0.22185545684929078,0.6724078202919836,-1.0918451716110045,0.14331143173196034,0.8055687939805851,-0.4357764961397645,-0.3704142459469327,0.18934755355004063,-0.47886770117516253,-0.5247136912774745,-0.0018144666975036551,0.03198097383197654,0.40295959400356407,-0.6448954863104845,-0.780692899316218,-0.7773479291692007,0.5203231781430931,0.9137964187219852,0.13569258548236535,-0.3932096333056798,0.3907946342453956,0.8007713525029888,0.8413547021782064,0.6028842545410311,-1.1152528307437295,0.03104085214503073,0.16347988143469136,0.5861270686725089,-0.4766211832005995,-1.0022641682414735,1.0970909561508426,0.8118085509858446,-0.05227483616677757,-0.09261986828208443,-0.7443217427025224,-0.535132305377225,0.7376660126059571,-0.34154051568318194,0.31074717286506603,0.24019061425869706,-0.47754607622422746,-0.5719046287894393,-0.6928395096353666,-1.204171950588997,-0.8366267548852628,-0.6006878708628856,-0.8628499904643857,0.236807384366553,0.6927173851820665,0.5369511943959411,0.6253070527876486,-0.7469782917339003,-0.15391653028331026,0.3758811969315705,0.46539074518857415,1.053389337359865,0.7615044073756877,-1.4350910637023828,-0.17206879747572246
0.5071728585238211,-0.2369761218080836,-0.10866511299155701,0.821086793814913,-0.8486433966725393,0.7459597830624425,-0.8869191291172748,0.8354125136952163,0.34138876656884176,0.44693513385344846,0.48585456649843173,-0.1385390535895927,0.9126581720039009,-0.13956449172609547,-0.6370959616817987,0.8618241652288469,0.1500030294925884,-0.2718994807815281,0.12786701969591727,0.8814950562517766,-0.05307741065872209,0.22957074035802988,1.0575141564684793,0.04230740893109683,-0.35891087122714305,-0.8186482358629962,0.12782660671152377,-0.6781862877148961,0.1564706907081781,0.5176361639799423,-1.007159482500046,-0.21754784271124383,-0.7872764913992435,-0.999477307099347,-0.7033650374545833,-0.6985743079262373,0.5175436855788539,0.11604604083830163,-0.41213649757466636,0.2628749749819158,0.289509775611274,-0.0728872729378782,0.3775823102830559,-0.5801310788567957,0.5218413211078388,0.05576366118101302,-0.7137802770947931,0.772739434701647,-0.6830794496731907,-0.5440840451319459,0.67686093333138,-0.5134982566814529,-0.8522131279995395,-0.002615999322717697,-0.10396874914954063,-0.951116397581731,-0.6151947906309924,0.7954964209948641,-0.2644391684397403,-0.06412126484583405,-0.3686530096931544,0.31792094608589166,0.33199614598745447,-0.7727108531871952,-0.8549896408981843,-0.541790078233756,0.07300182264859313,-1.009488594273758,0.8148957789403541,0.5977206555274268,-0.5406562042745293,-0.6691462652008805,0.459468412165536,0.030083867816808427,0.6153503809158297,0.026647933151601712,-0.17134791841421054,-0.6330915283534488,0.05518781739594374,-0.9396027187869193,-0.12545283237598667,0.5536332887033445,0.33798861826746895,-0.3538807064634338,-0.8396384483514119,0.8214808059971438,0.4408023269660165,0.14186954004415592,-0.37974991629197374,-0.563825076303012,-0.49060213991951046,0.11496781182408716,-0.0031884171148336493,0.5177340202980256,0.21865300290322445,-0.3509224542577715,-0.6587931004739367,0.3434226030273022,0.08914213663083498,-0.6102149194181994,-0.732701127845388,0.6815098411506613,-0.9002446792720192,-0.12701303740030068,-0.1837195827900612,0.3178146881801879,-0.1468889182470518,-0.1160809010427703,0.8670661540563946,0.4577903274318373
-0.8547836426498538,-0.8340313785725939,0.5604974982831081,-0.3223466002010116,0.333302913853432,-0.9703305782603462,-0.7519341282166201,-0.6917693932112807,-0.8398518784534739,-0.9154977240319822,0.06826166989201088,0.8526055845456204,0.9235352691626915,0.5624933266062002,0.7084458653611865,-0.718956131864632,-0.34555453223751487,0.41386685424254077,-0.8060414916217451,0.9616732350692576,0.46402029593711647,0.837773953149165,-0.8450604221329474,0.6127258401770521,-0.8559867232367866,-0.6400179598708158,0.7437632533434961,-0.8594830617519627,0.2549213619946511,0.5789239167855493,-0.2687763767232627,-0.1511832549536083,0.9770048254153576,0.008146615859195627,-0.49312607133389674,0.21816278672623923,0.8529179238417319,-0.9376609532130173,0.7186881691903935,0.47905103703393603,-0.783310430162492,0.16576060710435336,-0.8905208985052362,0.5408339296880889,0.5823082468113869,0.2060309378227645,-0.25772769809534046,-0.5114550001916285,-0.44381874357551343,-0.8871160543672565,-0.7458984873457326,0.8227596087228268,0.9412537790361304,0.21062773479068886,-0.9625434027601709,-0.10700718477808846,-0.38341092586527736,0.17469482951471726,-0.679119899999695,-0.4369755864092526,0.5047272407191414,0.9168055001778026,-0.9950246372204183,0.04693440847999142,-0.519846116572837,-0.4700901641767494,0.8073532119315971,-0.932480215105246,-0.5742720122660954,-0.45678724093757594,-0.2201886475431185,-0.9858432572227624,-0.190067600850222,-0.8307714067184238,-0.41669486973516334,0.615060960403133,-0.8636741979550346,-0.03104908627372094,-0.9589652514087321,-0.21070859375716977,-0.592408026286279,0.4178652933197238,-0.5627613450227229,-0.19326901030325994,0.3500966232764968,-0.7753276071688184,0.7890498530610799,0.6596711626750349,0.5608778892797226,0.9362295340684541,0.8910360041328995,-0.36248479239860254,0.9675125511130653,-0.6436400427139837,0.31681111880306356,-0.5034922424349464,-0.9676839711918035,0.6128192078859014,-0.24062896518326804,-0.6707121344154974,-0.014152021169601348,-0.6741512553636129,-0.8984282601945135,0.264453218756298,0.040713743670471425,0.26338773323030784,0.43043448705029164,-0.5357857033245195,0.015165066809051275,0.1121542803875919
-0.09384184571074354,-0.5441114233095756,0.13263187029221696,-0.4532032870703786,-0.8351226126468065,0.5626264811969647,-0.23901215366318254,0.6857363327936227,0.4602484623261855,-0.7871198916471227,0.9108336693770869,-0.9413133453467621,0.6627731705488026,-0.031313763045829605,0.12607073732677315,0.775623149414251,-0.3285282459348023,0.7782836620274994,0.9622505194171499,-0.2634161809032427,0.714899268924705,1.0366403162495121,0.3327270750608982,0.8409631344074234,-0.29822770346518523,-0.6973497516709101,-0.24172761395371084,0.7941048450065199,1.330573261442477,-0.4831788809620195,-0.5152620380177265,0.3508283885031404,-0.6848255779313911,-0.8084957861644024,-0.5813476873791275,0.39408543163879034,-0.9085886918125046,-0.26586554098707793,-0.12238884549315496,0.21145129630359125,-0.8344514166119728,0.8656499208419918,-0.9427885074066922,0.26921304539569757,-0.7733796240956919,0.7745431034383382,0.8864150713513186,0.7928950715969472,-0.565856176684709,-0.8875595892744366,0.06353743068439444,0.3062782561397201,0.049046954694844026,-0.7764264892242388,0.7373555467193037,-0.49449289428892546,-0.15007049373014036,0.04358286308678136,-0.643300238019007,0.36889204021625427,-0.29611458612995456,-0.04336576094067528,0.877010198064174,0.3967477106156761,0.1677815705293665,0.2469907034024029,0.10413030995146619,0.5998051155543408,-0.657473423404879,0.7372260495262828,0.9332055793500789,-0.8655673261122379,-0.7131534265340451,0.24504288992905196,0.811870935247721,0.8862224861986923,0.759644308296471,0.3803313467227256,0.4076119598442724,-0.515052512375232,0.3703518702449432,-0.8119323712538243,-0.1799336590187864,0.1431764666640305,-0.6287172237046199,0.38049445519305325,-0.893791012576632,0.7531096048712539,0.5723172531295554,-0.6450857593085235,0.6961594698372539,-0.8169227474060669,-0.62229862577675,-0.8585572251065151,0.42719760129799034,0.8271840138194251,-0.920615879256821,-0.5284916942104532,0.2219012336307086,-1.0112405054966331,-0.7903145537171085,-0.18557876924242556,-0.12283291452525609,0.07977573746960202,0.45381119824673566,0.6233165503359858,-0.7956734100921818,-0.06957055369783564,-0.4678322867706411,0.3317685614810674
-0.12445814381172626,-0.4141825241153372,0.966297529744593,0.3326417468009517,-0.9668370801531523,-0.6857341112178665,-0.17073727871419608,-0.4994959197280877,-0.061301349003186845,-0.1169985587822846,-0.3067623121124041,0.008709986370572853,0.5380883857122436,-0.7302314779220951,-0.34860596460466176,0.2856688561091165,0.9447406311538735,-0.3709042629179058,0.3913539152738208,0.7787625563378942,0.7357509701459843,0.5875717145915405,-0.019306926449029316,-0.8046037462100815,0.2278656328655031,0.5618510281510123,0.22755744747782725,0.420984751403918,-0.21425781680367417,0.1485231837486356,0.5566393287559848,0.8710149137226544,-0.0564255718130946,-0.870881101635812,0.22552620404587453,-0.06528364613674098,0.662163613060331,-0.5598322993228262,-0.5963011968734941,0.3807623630483832,0.39703438693300996,0.5773626122882136,-0.8537769334131462,-0.8791858155874961,0.8192094720102261,-0.6654725558313115,-0.3835557590452181,-0.4353873541616713,-0.9912282008278752,0.5222230783287585,-0.9532416846501286,0.9507105606317447,-0.2676402322488818,-0.6325302826170534,0.8738009570475012,0.49983156085150826,0.019256044803821037,-0.33479675034414247,-0.7558403340279751,-0.9867693673577236,0.6667459493320145,0.43372350854567276,-0.34101862207757083,-0.373678145767945,0.533937790893823,-0.17946668791555664,-0.08938810478331005,0.8282313046731336,-0.4757477449105143,0.311608500304301,0.661670556629876,0.5708210199995585,-0.9896960288666199,-0.08372149103662196,-0.9732713519803302,0.3161234752430775,0.12091471605403825,-0.06846179729362922,0.33902495921841425,0.20901401100844574,0.7885114747761561,-0.8662467512838301,0.9194191150181059,-0.7876590247570385,-0.2538193898351313,0.8023599650993658,0.11204736475664556,-0.9953762930551768,-0.23283714923692678,0.849303061964569,-0.8890881400448851,-0.28418201867142967,-0.6444092173409404,0.509594510492088,-0.8260996591567966,-0.8354588112829389,-0.1742141797223038,-0.45748288489493216,0.7054982030129848,-0.839462058817847,-0.7515529531643992,-0.30036244603872575,-0.6132794744308101,0.6490589191282821,0.09557970972750263,-0.6650657669225051,0.04055816962479719,-7.837798135785778E-4,-0.4179720402711884,0.46398535888199954
0.7312001165273191,-0.015451499194174653,-3.2668543954455096,-2.0985909890503565,-2.937887856252626,2.279315433970161,-1.1486700050756222,-4.081810244052286,0.7842997916623464,-0.4197380239111646,-0.6269071172863875,-2.357647577326605,-1.3764485291017865,-0.9931013504894974,-1.6409519408134607,2.7974556351688094,0.15572279756886043,-0.9746136526902148,1.9045606227438752,-1.707073527660574,-2.2934835471962223,-8.554719133483408,1.3269514019811368,-5.643721923230359,0.48462804833487266,0.21150042157444926,4.925557612270444,-0.6198634047188215,-2.555291782008558,0.17825792506314717,-2.7851662543105262,4.49248775768462,-3.6529315409115157,2.24241767830527,1.4127372559780464,6.224170285573434,-0.3500980952551003,2.570453891910494,-2.0650869573282966,-1.568013407949457,-2.856790396552381,2.462217012852533,-5.616302633083922,0.8184595531107933,0.9888556113958016,-1.7515989660379407,-2.6553493870499034,1.1245155308624477,-3.1492415388148447,3.521061720457645,1.4096060714857641,1.3532778056488022,4.466126270785381,-1.2409897624463626,2.344795118437272,-2.0611624060038922,1.95387730144564,-1.4986110411548013,3.0951095328122853,0.36656383873238185,-0.2624964994023385,1.9857941340179892,6.658263589508506,2.781516541125199,-3.1674661573643115,-3.7517196440588987,1.9034465779801943,-2.110442998815981,1.115318275880288,1.3342456299357723,1.3141111473490477,-1.756659854426499,-0.09415106137499817,3.386094998941165,0.04940819568758933,-0.2651825750033849,3.071682519057845,1.1478403685847502,-5.574545769195001,-1.7299133757698848,0.6688498915493862,-0.7612508874322123,1.359225088649611,-0.859230773827305,1.4149181567885711,0.6700524989126552,-1.8845253704147904,1.8643509368173004,0.13474693908206523,-0.043762890152941276,-2.2230597294344117,3.315237403143238,-4.861602800602689,1.1859585827547736,3.310682923541807,1.7761796973195176,0.39574494803815324,1.2654929755010527,-1.3456921744064403,1.7331501494904324,-1.427230974596894,-5.499179501258931,-0.26748882329832413,-1.3370274330441088,-0.0860037007660112,3.8102063007649707,1.7696844856813272,-2.4477357495956444,-3.1044044351762277,1.3410312259192245
-0.5255956303487236,-2.2785112962002856,-0.40223734976722675,1.411186058215957,2.390014460974399,-2.059634903963873,-1.2546449321333255,-2.2449536598115474,1.573857304779648,-0.19553714568451128,0.21792184250126587,-0.6280388814297472,-1.3765929084577977,-1.758011630670299,-3.0802240102395597,-0.8006864732933996,-0.298646456217755,-2.507712160247682,-0.3624117100624333,0.7559298653448144,0.8996576150910294,-2.259094819900518,-0.28365910069239203,1.2140269316087833,-0.056826912267020656,0.18384556525047327,2.5227924301253597,1.6259997165327318,-1.616230713431627,-4.689901606254666,1.524098980603779,2.3160412277863527,-1.937631915647311,-0.3742149684123173,-0.6694271614098201,3.1917653605540757,-3.2598539796608335,0.5422133480799712,-2.1063213939998215,-0.7605255319963435,3.5314020209955705,0.42872409299862635,-0.11248762107626788,-2.617246243508222,0.4496730928259189,1.5862692749411937,-0.37007603155978347,-1.4162007496244078,2.164548272972952,2.009398143652978,-1.1189462833853303,-0.8065825978826036,3.86917229128828,-2.001933765663096,1.3739059516686505,-0.6554274725741539,-2.5771801376840444,1.6337681767377175,0.16247062515728414,4.327098567409294,0.5792805046538636,2.624110466049261,0.5736577388221235,1.7382145884654718,-2.2650762564850795,0.33025131303756033,-1.5627879574249472,-1.7899045980565127,-3.729842243445318,0.21818083376887148,0.6820968477316092,-2.562688515617492,-0.9038878437286435,1.881149731836493,3.1390830122391327,-3.694872326246385,0.42144363656328226,0.49048881595910254,0.5099523008908139,-1.925211234075552,1.7987109919844082,2.9298113116645337,0.5379194004976591,1.4871592024670504,2.288589109472418,-1.5131046142003977,-0.5853706112249484,-0.8400994577309135,-4.522002567513753,0.1844945695902979,-1.808377650144778,1.8980112306591261,1.7574748837348557,3.4895943263519795,2.3104533091025385,1.4093308781106815,1.1407520863112879,-0.3559477237158432,-2.4496427034840496,0.5501805059130075,2.196249558733568,1.2615582840394042,0.6211936104325678,-0.7550789759358003,-0.8365281536442547,0.11356603002923028,-2.1894377019042497,-0.24300826311117824,-0.34666830095168566,0.3007976250581505
-0.1550715869646301,-0.6604171974824936,0.13998715459767505,0.5456105555239545,1.0197792385732556,-0.44684400943933994,0.317142792718724,0.8211615963794917,-0.10223198287283862,-0.7001379713577073,-0.308058146844048,-1.101736167838025,-0.3478496538909727,-0.12330471891207193,-0.44910065677419964,0.303053496436511,-0.13505684380858296,-0.5093154926336867,0.8816867907239687,1.156162075247298,-0.4338071853340273,0.48501294874978185,-0.3985282655531656,-0.09957200243621146,-1.112012212599124,-1.1875243644781415,-0.1234452483748064,-1.2822519113606914,0.4457898962229304,-0.9833523539079047,-0.42990755990040985,-0.20808592613490332,0.4827540620662278,-0.538088499344239,0.36260624034449296,0.756511796274474,-0.656059966070607,-0.3941616229262861,0.10673546414818914,-1.0301890747531977,1.4677490611579747,-0.21159938854265264,0.3448532135420624,0.09799914449289604,-0.49481314860206815,0.8638373807365528,-0.35953042333112234,-1.2163802139969475,1.1502540869435194,-0.6440963625318351,-0.7729270867948882,0.10332246304571,0.8585260539817082,-0.6375865897417183,-0.3803660309961118,-0.4933630580594419,-0.2789902429546102,-0.07944488112894868,1.2137375021528831,-0.40414631814002966,0.18886208771065077,0.21956597363245167,-0.00235969627474729,-0.6496482848268923,-0.1352157979711751,0.6367301685399975,0.594277203214171,0.42522611722535236,-0.8671981698031087,0.35978656281488297,-0.3272853147197967,-0.935888523999239,0.1044633946419311,0.8167910064304053,0.31447612621740567,-0.8004273020258116,-0.7079040237721576,0.5629162539263135,-0.7595592500041881,-0.9674830093702464,-0.7577447375603549,1.4879221453756513,-0.14796593315208223,1.2208405331352685,0.2086705432665675,-1.3497964302923662,-0.5896892849831524,0.444455323585014,-0.5924795508531503,-1.2711246413059676,0.48506816768600736,1.3856095501953347,-0.006787862643306534,-0.5145232379269319,-0.5375518051177289,0.41405870147476637,-0.26644573965363283,-1.0863889741571493,-0.9939319190303513,-0.4295479306153304,0.547751127859421,-0.027778985422531408,-0.3380073442814198,0.07324018641052127,-0.8487506919597922,0.002399150983496297,-0.4334717171357782,-0.5524844590936303,0.8611387726140025,-1.1625946125209528
0.28116812296648913,0.8741157923102928,0.20000125221974854,-0.9444019177306149,0.12934883744257772,0.5697861481927546,1.0025753615846895,-0.9187914837056006,-0.6595217055314846,-0.06318140683029555,0.6811955719691049,-0.5677473528352409,-0.4698939386407511,0.4474011482444422,-0.520567142373731,-0.26840444606445996,-0.6100765238689164,-0.37860678102811274,-0.4369498515045916,0.6970613724962662,0.5927892179058275,-0.047897416207728936,-0.4126887038260425,0.5609610241287117,0.8412192503168843,-0.5523066689217762,-0.6966802714602834,0.3971437746527779,1.3516630027566254,-0.31085289300571817,1.1358777045755672,-0.03849030862843579,0.040308508057087654,-0.11678867884768912,-0.9896708499701625,0.9032500011754339,-0.16716619817773837,0.6588578305620311,0.9096170303915978,0.1549049268587923,-0.6377102699678474,-0.3959420929975991,0.33397067141189835,-0.8935725486467738,0.8041065854807311,-1.137509801616562,0.487082452463496,0.39263034452396844,0.5434513913650657,0.14049699447692982,0.46868190966458384,0.1610226852510578,-0.22239255241468564,0.07773005871715316,0.021502657840839635,-0.9190979371060286,0.2786231704644256,-0.40295035986996675,0.8485422979222462,-0.8722745427960167,0.7387575540636592,-0.15756246099001134,-0.6684601517146437,0.3935404572439616,-1.0615989408600204,-0.03931111105193984,1.5090708960617376,0.2957915851684255,0.3033842141322342,0.5303035554319288,-0.06044253115714661,0.5216887820321408,-0.007058492377510113,0.6257154935646765,-0.9164642841480214,0.12977634008256075,0.7546635501891643,-0.9626651509151918,0.06697653459926299,-0.5967615234249403,0.40331641997734907,-0.9215894642550759,0.2875618766622333,0.4943465423649854,0.8522515756829284,1.0061633858534935,-1.0260843283879741,0.1842823134733385,0.8976175947834637,0.926686615581497,0.02612698624025114,-0.2782305041756545,-0.8425546532571018,1.2793185501553879,-0.5894529447077091,-0.6338922293150356,-0.2979660130183621,-0.5666128576398275,-0.044032544491261844,-0.7316229676285967,-0.4383199016539359,-0.5499059360916225,0.5546302895494813,-0.6364785495697928,-0.5317655920146072,-0.16726576966594758,0.12038738129681745,-0.351542725937855,0.6930815900317286,0.42870148072755954
-0.023269671861680497,0.6060138442398437,0.3270482640514263,0.6740344151090225,-0.3038352512902458,-0.3841582799406802,-0.10672702307068249,-0.8800985155489445,0.9285202039464087,0.8112227701038544,0.4757261162814652,-0.2326764830843875,-0.11530943870569654,-0.3728034585841984,-0.021867824946495196,-0.3220814733528765,0.7045176825782307,0.8292781356418422,-0.20098518651405106,0.17388535266248661,-0.8097128502711848,-0.845944950177232,-0.10313030510781962,0.3989694006207021,0.6556814392382513,-0.35588617945306167,-0.7546382901808262,-0.7061181730441506,0.29332749400034697,0.03795417505086385,0.8287536549982912,-0.7107877623037984,0.6613423167514678,-0.7115630727068691,-0.8187097489188404,-0.36198591337930575,0.8990441961616757,0.30870465413405257,0.14027516928831885,-0.7581155765750367,0.10426446499657538,-0.6175969789179383,0.9610965847287563,0.06849902498112881,0.9394585145529475,-0.6745776766492482,0.23347039823099602,0.8152050099499957,0.9810827205550521,0.44926910447554036,-0.8583125823350919,0.3424137027788059,0.5864666745589222,0.6515681313846051,0.5276652650447899,-0.41782313310091124,-0.8753212816893261,-0.452913713336905,-0.055877714044518356,-0.8785294881912267,0.3026460109662621,-0.54694050700941,-0.5737942932443734,-0.5336494338541236,0.015057459324174127,0.2554954856712923,0.06342227558540503,0.11228558697709734,0.656343027598733,-0.2914845986735024,-0.3802646162573966,-0.022387311317569658,0.15528782509535377,-0.4433123980764899,0.4282076580489478,-0.4987974074950028,0.127606689253986,-0.9793020072187115,0.5775842689661246,-0.23793884010943134,-0.5109312821661245,0.6495918441835966,0.011727627275297303,0.34773505853609543,-0.3684716389324638,-0.6817874198709946,0.5788296381748548,-0.6199701604805383,0.8364840337289867,-0.7636465176206699,-0.7041564562981797,0.10068920015642924,0.9855519934496684,0.236529220368781,-0.8654073114291654,0.7263251961741375,0.8245081935428857,-0.6798354555736594,-0.5104706064631948,-0.09897030527074602,-0.9526838385640173,0.46738799699239286,-0.8468671116255675,-0.9932627222786907,-0.7111744283715733,-0.9464905084923751,0.10345061570433467,0.8355516757576233,-0.2504090245479771,0.8656506509062292
3.56272840642323,-0.3188865026908501,3.107788912212956,-0.3699289462286593,-1.3794844940400282,1.768586774998127,5.921098422559054,-1.7122075390299982,3.344710835214575,0.15704416066118096,0.6617462091299309,-1.3683291918881428,-0.6796710612909347,1.2106888530732849,-0.9568640601785849,-0.6034615842983272,0.8415281759889499,-0.14743484404625798,-0.47231212795919286,1.8574829246540019,0.3231149457767544,1.196064175795163,-2.6859166356316435,-1.3660430301257742,-0.8497469587215066,1.0178574274381444,0.33778107279882535,-4.4966876910366915,-1.7279100205107427,-0.16481985901127424,-3.73006398232688,0.8873343995075478,-1.4414851253949332,-1.515510744488996,1.464135407392001,-3.9921288113575364,1.2174639026946195,-0.09097143107170613,-1.3721466598849656,-5.2855963738453875,-6.354585295336826,-4.249723330712166,0.3999621011503856,4.081296951447357,0.04242503794911548,2.489496989673736,1.4551534192093172,2.5214061854432304,0.6801704355457701,0.6934151173670599,-0.7398585235547557,-0.1314488357143695,-0.13154027227496873,-1.15186295654823,-0.07749073417818471,-1.385882253907823,-1.6693051722047767,1.5333916643995662,0.07520797555860745,-0.07072621949794444,2.259016958022638,0.9098140811510624,0.6956804401215537,4.483937360725882,5.6800914176455555,-2.067824852182119,0.3789308921903457,2.501160455719637,3.369568705576925,1.3016284653684438,-0.7921825020860971,-2.2557297862400647,-0.011146621530994964,5.340883467777361,1.039800679627274,0.4502504389620583,2.9018320058195077,-4.204243479857677,-3.506733864659214,-0.18154868522478348,-3.0924447534022783,2.2893501030777563,-4.4934202457776555,0.03056296595225323,0.9929832775102881,3.3984425950734805,1.3623522382517148,-3.148177326499234,-0.31914912490196184,-1.406663609773945,-4.369320967300101,-3.1170096529013818,0.21586872541260266,-4.627548577074845,-1.0401251644384757,-0.8433669943225933,1.854766736552383,1.4805543832276216,2.061604879658299,3.223196631532775,-4.057856701569814,-2.1805681811893733,-3.0356909776579513,4.518104135492792,-1.5108354244510065,-3.9331155982508172,-3.4134778233566725,-2.3502800624051594,-1.2154414629518862,-0.5043567762911734
-1.7787848301152984,2.573559659398411,-8.743666071189818,-2.7645944423975735,-1.0861131212463357,2.1878716683723125,4.919527918998331,-2.9861002887565626,0.7107540386567694,-2.354591074382819,-0.5666965629135333,3.8955205650328164,-2.4999315565040345,-0.19912255886610425,-1.641971507789973,-0.11082230539238119,3.6520933558230815,-2.4183642713252516,-1.1438231556031069,-3.6997315421128416,-1.9814429989721458,3.485292532209147,0.8828832693016918,2.7001987603637954,-1.9777693783105568,3.441930824350011,-1.867238325472247,2.720255936516744,5.160891694832238,-2.2182448242082895,0.6670221144882721,-3.267863307801759,0.46222501799467575,-2.0389595892642003,1.0485362613312985,0.44916379115970184,0.30607927753193204,1.626699761751647,1.434988807961239,6.407058395552204,-0.506057007415994,-1.7097148596998517,0.23167035686651102,-2.837560008441125,-2.147579665248917,-3.99945029039891,-3.740921171538298,-1.7383523685160098,-0.5569436600305929,-0.5697074007560033,2.538630322214973,-1.920362833412988,1.866710291954506,-1.5657358533200718,-0.41021321631890323,1.014824838429244,0.26665222822110823,0.6173105305016888,-3.0905641097534735,1.7155393284587783,4.006283947120683,1.500732349611032,2.206393381286258,1.5840452847640059,-1.7248117169441606,-0.831907830315231,0.6412853287838844,-1.9560756152006877,2.008747757718304,-2.588921479781499,-3.602235683148167,0.3309853841923856,-0.2927568201649391,5.829368516250943,6.026145451808081,1.3491140411661824,-9.813832915152846,-0.3545781999597809,-1.2536918277413134,1.608128553500956,3.025322815340183,-0.7040912956994893,0.9713175341728502,0.6655611963919561,1.1317440051968124,1.3134191757411497,-0.37150709743660804,-2.808513183833642,-2.978426686651196,0.10664755937392378,1.9757348615921173,-0.9461151576217158,-2.4540197485528674,5.352148143338686,-1.105174337702389,-1.8817309115832688,1.8389333466305338,1.8937960029054786,2.4865232785028515,4.904734367829617,-0.8514526364180174,1.6227386436786635,-0.600991326331163,-3.5962041444308683,-3.7842117330625054,-1.2788839061902086,1.9906722171365145,-0.12056641385099934,3.3406089263071936,1.0923082985956225
-1.666247862983901,1.7894643520350868,0.23983537191004176,-1.515459971368434,1.2383210519885306,-0.5341504408372804,-1.0263254047273889,-1.6002262480799165,-1.33041374059016,-0.951186007396611,1.731807326916194,-0.14521926184189737,-1.531439549483541,-0.4487519771084054,-2.722334191972352,-1.0516150645848634,1.7086088055829962,2.4984008474047052,1.8401876900300578,0.4380147137790093,4.852586348840677,0.7262904913368466,-1.4630270352511903,-3.101048604380274,0.8313103599247595,3.749253087502225,1.110468468994659,-0.8283904432460547,-2.227914423329457,-1.3985124721192674,2.872400438487046,-0.31177204272315584,0.7025039963739856,-1.814823285497284,0.38528667838769987,1.4546799993334025,2.7163509402201296,-3.0868628156837756,-1.7468956278183065,-0.712638393686289,-1.3780427615166282,0.7788207329880841,-0.9580617415745553,-2.306613741217367,2.3568340434154536,1.4310344331648517,0.5357650319694724,-0.3954678880566575,2.4508334968991394,-0.8834947376662381,-1.9642188439123054,0.28590378930604304,1.281117555044592,1.7705715894401872,-1.0812213525197416,-0.6147045148653068,1.6387837028836558,0.21876955490483926,-0.014825981622878499,-0.7335523763368962,1.619128595641234,-1.038051616831711,-1.561433684669292,-2.3714252704709535,3.0462211213691996,1.478040501850884,-2.916041121786324,-0.6304720878607427,-1.9386807062674378,1.5133932650535271,-0.2684727000093964,-0.6244093890146046,-0.7299389256587502,-0.4063646129718647,-2.7679068255970427,-2.0134165998332767,-1.0327667652381125,1.4435040511426105,-1.6141370044402497,0.7394900727491387,0.7758604145179264,1.299803311730345,-1.6630733872288792,2.0286561218657186,4.091710294961031,2.4948565047306253,2.3565809744494626,-1.352968323682335,-1.3120419496130868,-0.41784553810681907,0.7938727429430696,-0.9005890511672537,-1.6611774117249056,0.7166724133348042,-3.3318407423489447,1.3717969765845908,2.31049482861666,0.20832023615487905,0.5728320214827438,2.733254031461763,2.468531049198346,-2.2548098043232208,-3.4263295559903657,-1.7126771401805092,-1.4357674011414858,2.9079426356206324,1.696541120206635,1.486676442442621,2.1586068536683864,-1.118174695505944
0.1464375186211063,0.288381133969327,1.1430763571632434,-0.12340901086688874,-0.689118827402234,0.4579233678840187,0.4677028601367833,0.6719210822877868,-0.24717819469656155,-0.639938780954673,0.5328994252293783,-0.5733420586164415,-0.9172063297935283,0.46838696340401137,0.6698948207216396,-0.4187652766588735,0.3761587544546664,-0.04728500451894908,-0.32752990562343975,-0.007599416006509812,0.7875317580388022,-0.5105280667648611,0.6045758874569204,0.8305353258934899,-0.49904627605945484,0.24373822764968633,-1.005830382308733,0.27686021268774286,2.686977457572386E-4,-0.08617026450485005,-0.22650544788156843,-0.3413089998983349,-0.709219170690225,-0.4273904977896369,-0.44209886939639664,0.11922919004325766,-0.08528385254902326,-0.75555726489182,-0.2059515576550668,-0.4535096508104665,-0.1768657051028841,-0.9710038186103289,-0.7617687078408523,0.14244097364877734,-0.34379826502855787,0.6031290374377594,0.22489744527451702,0.533506523875601,0.17653338447795067,-0.4929608781326107,-0.5914597520402108,-0.11746114718949392,0.8402519122039176,1.0484536385508962,0.10199920035805254,0.6907154554589273,-0.27662770190647495,-0.07414766839791329,-0.6842943409400734,0.28878934815316637,0.3699948045665618,0.27493380374589077,-1.103331063108712,0.906272922311808,0.24015300883987212,-0.635945859519003,-0.5796368877251986,-0.11093840528645811,0.2619666380300948,-0.285953510088106,0.3377931084696901,0.19526339046621322,0.9441038384923879,-0.022584716398460717,0.08941012840724785,-1.0603766545056688,0.5634095254119857,-0.7906612832062354,0.6428462635373058,-0.943172532416862,0.9718330755133308,0.30548692344134337,-0.43345169565767944,1.2548889498470954,1.0167651886258895,-0.10238812686349441,-0.4404647369491339,0.6042453267419421,-0.7952957763436606,0.2673323747456619,-0.0487346296183597,0.8238647978626138,-0.536725481127571,-0.43419200465040186,0.3293390365684803,-0.7083482987984543,0.27745778912459923,-0.5090162884245599,0.4792231841906434,-0.3813931561827271,0.08827661133197318,-0.6054326977738025,0.6499028333875353,-0.9172907777293957,-0.03279821905580598,0.9174611707307025,-0.997599350944799,-0.875609721105822,-0.5839552357269832,-0.49145052667438377
-0.87229306513633,-0.9589124237590092,-0.49692723428146746,-0.1563103918001882,-0.7580764309659992,-1.1745805016021418,0.1264794651024742,1.003082334509939,0.005003438863261675,-0.18507017993226543,0.11904054193573767,0.06225845696731429,0.061075465116709665,-0.5169809077231659,0.0032952332037902415,0.9846797529247483,0.5247706529674471,0.1505019558605412,-0.2545783998078621,-0.3161515940920472,-0.5430703845845031,0.9816275917716006,0.2546675577107402,-0.3943901244356469,0.6420543052540355,0.7321913381926145,-0.9809860824992203,-0.09429580016757771,-0.16310711365103464,-0.18558876773296112,0.11568251821444385,0.6598787507154085,-0.7380834097025328,-0.5639235303460752,-0.13596323917476383,0.043314523987749105,0.3951309861556764,-0.20564959085558446,0.8263587867442358,0.3175188507614135,-0.5801528614269349,-0.4188438038275464,0.15228137924698432,-0.490072412455579,0.7034990118118561,-0.3184875243939944,-0.3878065173008383,0.1467020214386722,0.7826793960286721,0.583765305119701,-0.6448058189299549,0.29835611065455314,0.22048290201764034,-0.3602071306478551,-0.12149418035395866,0.3741667022557252,-0.776584299908153,1.6084464399985536,-0.6479534829131736,0.05792190551104931,-0.46976825077815487,0.998670495466154,-0.6303751135911443,0.9263133968347865,0.3603406621553815,-0.4400447925249037,-0.7364741620268713,0.36009550156979364,-0.28640396639399096,0.1943601257865425,-0.7985443269413806,0.7744678542907746,-0.7003048800963151,0.12217022877997341,-0.701673962189609,0.6776652831458505,0.08124062731387713,0.6604484997618713,0.13893636377732024,0.843314175975226,0.35991544830634936,-0.8518144297601569,0.8475273739868853,0.646456954034211,0.634119657140474,0.5888807801937158,0.4009018992699363,-0.8839768920471817,-0.06911728096197235,0.7583335825690805,0.48912552198037856,0.6651712087927968,-0.623435969392377,0.058437279507222904,-0.5971730704246031,-0.5546169039088644,-1.028949645745239,0.33642452999127276,0.23839856976627308,-0.054313674257141974,-0.303285996927182,-0.42295829634730114,-0.46262032976432604,0.6982140245804141,0.5825447461414357,0.2884864837960686,-0.7064240816251561,0.49082788332879673,0.27841882539626045,-0.746765268604837
0.7783591542985382,-0.14784848170881607,-1.5659688803790504,-1.0914055717289108,1.3553979011176758,2.594021886240916,-2.5981949116287812,-0.034264618928853276,1.490957527963648,1.0376795399554295,-0.1513119046102944,-3.0247857816965733,0.7829301102763508,-0.515403132203532,0.4022507371695631,-0.7674110823975594,0.4078364637586818,-1.4340390179196894,-0.6872782050411029,-2.6270030985850803,0.4386568587663743,-1.261913269106901,-1.437992434770605,-0.37248673235372526,-0.7756570881061136,0.21170347349271157,1.632430865575037,-0.22381683087014173,0.2754165772776576,-0.3282271544734121,0.8498039791449474,1.4205584998484566,0.7102396024299986,0.22415665877904575,-2.2106201474511296,-0.41370341168344066,0.8985738630475334,-0.16912324949380966,2.601616882364614,0.41121082819600274,-1.1890965413499996,0.2994032520745966,-0.7591256094433185,-2.9309511034821085,0.9584254660366619,-0.11005471707672809,2.1570758013176143,-2.879355774746052,-3.6912384940131577,-1.4062747515891212,-1.3317811591985187,4.066092246714875,-1.4682058318603386,1.740110485394694,-0.5467289147966449,-1.6921069422378452,0.13073177120106844,2.4930728676247287,0.5422930288807116,0.20002164826653357,0.22547497246077897,0.22591156539540697,-1.458762182120582,0.1927716071481802,1.1855122759281382,-0.11899623893350139,-0.42794938104652425,1.2413460077442464,3.192259753447688,-1.2073699511838576,-1.9889814706734825,-0.8298658104226447,-1.7169807938694817,0.46083744580769814,-0.6435281307082331,1.5599605255131872,1.7598583726740797,2.406272224569404,0.09611401221118192,-1.4952208435760765,0.24227147134081434,0.25292252992619235,-2.855031875256079,1.8327755294035357,-1.4902055335470534,2.563537921289282,-0.8560985793561903,-3.3053742048424892,3.2966263538541867,-0.007799868256607348,-1.1260513474362033,-2.9969761269945567,1.1504432915412086,0.8042248298892372,-2.2550766764139096,-0.0019008664778579149,1.2970454925608867,2.8768197054221276,1.1981091569073228,1.2421267065613768,0.2302528185092881,-1.6682074929052066,-1.5843837914709156,0.08774136867530402,-0.07648651641345831,0.5763066859543963,-1.2348593611193508,1.2566627388539588,-1.2781759918673266,1.8161034082165877
-1.4916891583343992,-0.02781980726140911,0.6263566952913078,-1.732410597542558,-1.201565942882781,-2.6072689599988594,1.3968814068514694,2.8949080648660366,1.1568831225880278,0.8754469429909235,-2.927792289280587,1.788109868503736,-0.019653393424238465,0.23796701354206426,-1.9934264865444637,-2.4772749866558215,2.4453499258648885,-0.2813397962544693,-2.4647096582063384,0.6107584640708839,-0.19283478460870154,0.020501560158342622,3.370503487613604,0.21704476794216468,-2.494512787649122,1.9354126651363444,-3.9537413114291127,2.972754432306761,-1.01808499013936,-2.0004015770338825,-0.50853330879633,1.4560846712460056,0.2817328320698814,-1.7410154562840583,2.7903989623902063,-0.7652914375554964,-1.3394562499760019,-1.0627217426274633,2.9507974679448647,0.4690974094215837,-0.7851768795931388,1.8670692383394003,0.29458031409990776,-7.1713575178557125,-1.501654432462099,0.9463723391501879,2.5921913826923286,0.35257230095884495,1.9835277964295037,-2.28967534248173,1.001347256542258,2.323764168380856,1.0285082520226596,2.455121053675125,0.5017753840474299,-2.7486426268322606,-1.8466107860319019,1.3672985122654453,5.8604813324810054,-0.020716678440671862,-0.6145588380855159,-0.02645847631218754,-4.34905754426269,1.505793299652783,-3.06080642741183,-0.08135262109490089,1.573909720455145,2.3346232654364463,-0.7619759952487344,1.884186460868396,-0.5967995669082635,1.8705699310850317,-1.3845571284330964,1.8728075622131264,3.364200464246884,-2.868521283005377,3.348647014494044,1.5723707871074017,-3.0087474740242715,-0.38031766832709896,2.119667094686709,-2.3168960346843206,1.2733120851878472,2.2318893387325196,-1.8383148898265846,2.9652997863575985,-0.29272350434621736,-3.1973430461495536,1.1871925958652723,-1.6991521583874112,2.629391229430656,0.7049525809147857,0.5499825069347685,-0.531925159191499,-2.7580189586265687,0.21433339331166745,1.49573849533918,-2.4405071774004625,-2.224898869765429,1.5636057734291875,1.431163819117536,0.4521345751154118,-0.17733968748665455,-0.9736411935455277,-4.375374725187248,-2.68106266662412,-4.0483109432319075,-2.880223485720949,1.6493524068855276,2.3705062943731146
-0.0943566821658201,0.7467414049601706,0.38338047457669944,-0.8347957044302364,2.7285724334164385,-2.5318293289038376,1.2547980252630095,-2.7697391673038885,-0.1767228232842963,-0.6646076691789602,1.3036161981115286,-1.0041216685212402,0.9411908780998235,-0.5973483589660145,-0.572033936330761,-0.8694002840074055,1.107147275590401,1.6618101991463707,0.7054104070381556,0.7656249681955424,-0.7386326239803274,1.9518636796534212,3.5116865232841885,-2.274872362258125,-0.36687501777147247,-2.389955566626901,-0.862231579498094,-2.144645027211886,-1.750242749662408,1.4301072784416,-1.7779447571288678,0.5562434887657562,1.0011333174440764,0.5934686123402847,0.7329339756064641,-3.54064943500282,0.3838168662709358,-0.6775649712643318,0.5096290284841405,1.753623586830134,0.12066275536041911,3.247832553777706,-1.9746785091520067,-0.7986899519265288,4.2217171074859,0.7392673661983902,2.0618833117387094,1.5310806333802227,0.1521187070415765,-1.1516079059475712,0.16198816493317078,-1.6987465465052525,-0.13243129767529585,1.3610483431603881,0.12428522989722195,-1.3689313575819282,-1.5127767089765953,2.304555336270467,2.3762456852533287,-1.9738067521709484,-0.11768911105331187,-0.7346594069508874,-0.9983118398952263,0.6785186244669922,-0.3230769153301104,0.24449700039651834,1.189641146356297,0.3607550658199557,2.5852722015866707,2.4737493185817234,-0.7495897221527559,0.48735583123155896,0.5808609029202928,1.1720679580287605,0.18542863111709548,-0.4252780273694193,2.010999823310105,-1.3401720495647471,-0.2862424035380984,0.36479072345062774,-1.1788883006796083,0.848978941809128,-0.06882955102129093,0.251733205189433,-1.6905240870967608,1.0673405301976995,1.7979819552634364,0.8684892934134368,2.2219264976084268,1.2857837353367505,-0.10101645843205707,1.8413685816778915,2.243338013242131,-2.4519022561743995,-3.8539175152312395,2.658768847869473,2.5996442188813864,1.861773587669183,-1.712180482714773,2.219547537002877,-1.4032344893382636,-1.7077009207098963,-1.6695911161734531,-1.7412811227583473,-1.5100647794272046,0.8388205227000567,2.0279872634307305,-2.30175240596362,-0.11130020768248348,-1.0752826401777895
-0.20261622579477498,-0.39434740902770493,-0.8770496831300875,0.12738035708470105,0.7318823073963258,-0.3747976391042201,-0.21996250427420452,-1.1621686230122243,0.21884444523647018,-1.1502535855890061,1.7957220197880517,-0.10424797439531759,-0.751442043239453,1.4234529593196164,-0.07149799416766256,0.6397446781978186,-0.014619500829358301,-0.8660055700486597,-0.2256081631403353,-0.5442876014605248,0.06908002156865305,0.0014265713124793067,-1.3162266887336511,-0.3889522276474009,1.2500165655793438,-1.190022816785066,-0.23013310244325458,0.6555036716722664,-0.5036969350020721,0.5899220111411274,0.9636036869323643,0.6415894895279791,0.4526120544660279,-0.0199081163473645,0.25186641947321203,1.3435477903877973,-0.7907815151080406,0.021361864713313864,-0.5423130141500956,-0.5106937858120012,0.5567925544374959,0.4714454242544238,-0.7007604894987414,-0.6515676483285162,-1.0404095968589826,-1.2372323193913028,0.7963503507517774,0.006932617871964767,-0.3307943825518736,-0.25498416014992226,-0.9796416410407014,0.35176802338178614,-0.22309988023855967,0.8781906080673836,-0.5699691859862295,0.32029467012196433,0.5327919478585724,0.12490760243293482,-0.8608764869113087,-0.33568762769418803,-0.4746716600471158,0.7064479035841379,0.684569898129617,-1.0626891155823912,-0.3241786195345208,-0.240435919409968,0.7095203861143438,-0.4774191757890797,-0.6954363800211929,1.6923085793151869,-0.223154227510583,1.5079711533846591,0.6058665688297658,0.0807818367517116,0.4096241201117973,-1.068815895204503,0.18836590514676055,-0.3774164390811083,-0.07599946489739663,0.42578820953523605,-0.9147558742114821,0.6117814160309714,-0.1629459048383626,0.7009571712002265,-0.9888546067676148,-0.8613083790663099,-0.70321372530766,-0.925942325556416,-1.469628798913788,-0.45742715511746534,-0.28826325466581937,1.1730870488366647,-1.416678193422046,0.23455619339780173,-0.05402928601298413,-0.7394833953675725,0.6997863795036768,-0.399162343904523,-0.4018333078444903,0.3930011486116206,-0.1672903591765666,-0.6683542328829251,-0.7616776353171316,0.8511034290696006,0.6933905118269603,1.197981094479343,-0.007436600588723394,-1.1840212579337948,1.1142182191042438,-0.6578687586359934
-0.0946548406544037,0.4725001488198933,0.2884064251054905,-1.1996832909679043,0.9805798757136989,-0.8550477508459873,0.6657683221193551,-1.0726543068267123,0.22083983114645123,-0.7198649568228683,-0.3604070104853039,-0.6753603244358292,0.1498742939870602,0.5489744127494701,-0.323288442942032,0.6919499995504036,-0.11254300375946052,0.3333124766766922,0.4019386411981303,-0.4607594477536231,-0.04335211125091295,-0.22225848657176342,-0.02348645908066677,0.007720860727398031,0.3960199161854982,0.14487592204142388,-0.32228836277552286,0.011892447089809749,0.02165368303869066,0.39797226264555985,0.8226745713489886,0.6575945509719977,0.9051167999340073,-0.13444273063948461,-0.47483358631611144,-0.5955550553543637,-0.5025930968779502,0.5812474463688295,-0.7139609977565531,-0.5909761282995121,-0.24661113806712703,0.7645397700445453,-0.6784225169699407,0.06107103555040231,0.21845865638333836,-0.40109041610676066,-0.07830625020263825,-0.6874233542126041,0.06203149727613897,-0.3896009192234096,-0.7473127337361969,0.9097264803699256,0.7814275129724845,0.36564203094937486,-0.6229758771996509,0.4690454864974292,-0.4369115955950806,-0.3371372700778565,0.7698710754953234,-0.24048888025127807,0.09831342726895793,-0.6152730905074691,-1.1412744705386304,-0.36945001173911324,0.6425604657356353,-0.17364898314994134,0.48749107225146104,0.0715595143929854,0.5975135055788681,0.7562474607540669,-0.7927213525600934,-0.243017256637982,0.9654928059950226,0.7857496340981983,0.06450039001279685,-0.6847579782989176,0.33140580654346585,-0.3189460149158675,0.14739039243731378,-0.16278495020196226,0.5033819152795056,0.7290402920252058,0.002272196372538243,-0.10696155923914064,-0.5061886210749297,-0.7667959891715472,-0.06793507281513832,-0.7883017754022525,-0.48390861579627525,-0.49071215885780733,-0.37995845013733653,1.155421386832118,-0.9793708499168343,-0.7140209039523954,0.5506782561892909,-0.4040495134212207,0.158239251660921,-0.7572875082310112,-0.8532567058529745,-0.26935229923130954,-0.5081228154103407,-0.35530307421570684,0.30014239216537875,0.14211813085335098,-0.0016858184595559802,0.8417878399390147,-0.3393905448752306,-0.07299567277032823,0.2576326500503825,-0.4093195480351989
1.3846440048866022,-1.7138215761990396,-0.34886409606770025,-0.5893329642015714,1.1021580705434697,-1.1573017567361104,-1.162781888995584,1.214226443258383,-0.5343991774363138,0.1697994816183,0.8586179501995758,-0.5990200826554694,-0.58001068601651,-1.2502283278313109,-0.28805311236249487,-1.0227744826157357,1.3251218523518005,-0.4229978533491175,1.1714511125897742,-1.591647138858949,-0.13433247680151789,1.1195068324020738,-0.1531515161608201,-0.001568634036031585,-0.9909714053551313,-0.6336430276047265,-0.2078711288035514,0.6992687906295483,1.1611525033639154,-0.5196017590282463,2.4877892146094758,0.2188172022886409,0.20435351645357505,-0.8776244177537613,2.0916447601562638,-1.421912158734767,1.119632638449312,-1.309791019383467,1.3241922919265108,-0.30597463519272966,0.43579183901852464,0.883673856467084,-1.3928399102205848,-1.6004041056742244,-1.709640334500491,-0.2548531139869175,0.09310581287063993,0.04623456919523167,-0.9784066164470586,0.6753706866376882,1.5605534080123797,0.6591644783584997,-0.3005385154603118,1.7864620805684857,-0.263670921249712,-1.2753200157620384,0.7826572751224188,-0.7626238694493694,-0.2579492479449169,-1.8567089702547421,-0.38093102225572784,-0.5117467894819798,-0.8581706552242787,-1.3182778644347146,0.07787067645103646,1.1562022173731041,0.9868278129020486,-1.060478187095115,-0.02798112031767811,-0.6028389028213338,-0.2725171895076492,2.283360103264054,1.0504187503902158,-1.5717498241425005,0.516646437320582,0.49819960791328227,-0.393748992492053,0.575066741154261,1.7071630727431852,1.2684755552123141,1.2417825214411562,-0.1073866845337069,-1.321398528777312,-0.3930587767778904,-0.1094952749856685,0.1484315539294263,-0.24267623632183064,-1.80800089096593,-0.7843057505080069,1.5573859441815945,0.3146136878758993,-0.7955301213111319,0.8826262077361732,0.2518022458392075,-1.761599553988772,0.11063240990485251,0.09486286425909662,0.5495233378054336,-2.2299887582765447,0.20005803816727669,0.3148465758434089,-1.3270772828160105,-0.9512610287175787,-0.7032351789904545,-0.2565152562855395,-0.32362063397553636,0.9983404465624203,1.8416100144538212,-0.984878444083915,-2.0684061442410524
-1.4857116053691177,-0.0867404819900801,-0.029601891823727064,-0.9105163192662802,-0.09561813513890773,-0.8660127456329052,-0.6594896246898669,0.4911632636019599,-0.19012305815814956,-0.6018209022855019,1.4368454489403113,-0.5801287777244181,1.059376983282813,-1.3885602241047692,-1.893628517860962,-2.0755491816285683,1.2456795461286312,1.5162913746504365,0.48390566679859404,-0.165686466042882,2.139481530501685,-0.10144825512729028,-0.41869729823126056,-0.5852973744146152,0.033143939922746904,0.24582836507669523,-1.1446620241667365,-0.043072181133318024,0.02286258125397796,0.8353431341761038,0.5820698036118092,0.7123936111104843,-0.5564273736525877,-0.5303714440066147,0.30357082080100384,-0.027874221765395807,-0.3207960724407483,-0.9541609712003647,1.7020705700469052,-0.3842056535776837,-1.868810273474373,-0.725802271088646,0.0038189704388600335,-0.3265221186782679,0.7678958448223185,-0.7722862116451612,1.3008665167696887,-1.3677845506026431,-1.4765390440441493,0.8657197986436914,0.6820013759189897,0.9073424670522257,-0.19569425452387065,0.236844407048589,-0.11136816719350652,-0.20562293639064738,-1.8189336902545354,0.2292182942518039,-0.5638047798384294,0.7913294980860571,1.168781653904894,0.1612071380723915,-0.7613059786657159,-1.4729586115562157,0.5898854097349236,1.5066108715756676,-0.7981264280017909,1.660149935668497,-0.7690075782434012,0.8028963519634225,-0.2710096586580393,-0.32139320622938194,0.12170587342542596,-0.5004553698698192,0.633076062429521,0.7344922811718565,0.43780812698297367,0.9806495507181386,0.1882337328652113,-0.7668351429866753,-0.40490630062303584,-2.0643593313394626,0.021506012134759372,0.9977763258899793,-0.9772692621471953,1.7283843003279806,-0.8196634145162706,1.2541257348874142,0.29046678727309055,0.8772032383149999,-0.28796733693147103,0.2791229514090343,-0.9140189188714437,0.5293812708798341,-1.4630931577778865,1.8317498761575608,-0.1791820679295005,1.7029756356708858,0.1487961033728698,0.29944910492100074,-1.611614782858538,0.1417035516562842,-1.0488806660741714,0.07082498173270219,-0.8527994943209554,0.986911579229532,-2.0734229906028334,-0.42141240935314844,0.23969447058589988,-1.3439258290569018
0.010859777874045289,-0.8278004129117891,1.1653329050741799,0.14493986200303688,-0.2781401916788678,1.3729561500638114,1.613696029673497,-0.9082294736873731,-1.0914747410984276,-0.7423405645112057,0.4049284177616475,1.7196447474000354,-1.639052643975441,0.33597706993954496,-1.132894940883704,-0.7806319741118505,1.2088438448687306,1.006576073554027,1.0057319863707053,1.4776671114164193,1.267682414203467,1.161589083467302,1.65891643243622,0.9934713231953213,-0.3719095363244272,0.43405244808491567,-0.32678302071520443,-1.5770121438133786,-0.05551310944966186,-1.2478114273710177,-2.064280973550888,-0.8091240591214319,-1.663010614945411,-0.7205833529118735,0.9251226486212449,0.5519237509275317,0.8789521802072662,0.8990586380714438,-0.46950666788391304,-0.5457780642946236,-0.7918758234355012,0.07223073288611287,-0.6846832240217275,1.199796142717029,-0.6829987536248429,2.0172698376249825,-0.14837275192186947,-0.23423296096775556,0.3762423674615623,-0.460251483800144,1.485178770062962,-0.44574808031199864,-0.339122062665411,0.6818454871503733,-0.24571315776695962,-1.0926909922236483,0.5932278545764363,-0.2650431605888223,1.3293824854408256,-1.5428322515506985,0.41564803526423816,0.9340968952238102,0.2545959820393011,0.3617551957106718,0.999564291109161,-0.10418581427609792,-1.6156007217106316,-0.7278081155282813,-1.693610025442902,0.40256263642241785,-0.4327973460345568,0.4072178369383436,0.25883811822890185,0.374882287724193,0.35935787883847803,0.42864632576628314,-0.3034276803918727,0.4152370728722545,0.39615688050955206,1.6085866163131892,0.045175883862952376,-1.0219467957041763,-1.134292375391892,0.6926330049699909,0.04843599983339179,0.4081662248197483,-1.9901516664628902,0.23120359834262616,-0.06245538477734346,0.9142960441492196,1.9614398359387335,-0.3015161635961971,2.177127423652374,-0.3740434829742507,-1.8517664523207369,0.19578370827666644,-0.7493796307059916,0.3981985994246222,0.12234470127917844,1.261691286487198,-0.29609546173896634,1.2699395484697709,-0.9498970584235712,0.1821488899549878,-1.1063690734663063,-0.10000623128509155,1.1516557978123658,-0.5609538819787449,0.5776329010957795,-0.39682065091566887
-0.7597366864915693,1.280371047035909,-0.5135544065760672,-0.030689374363402598,0.6246922556385692,-0.0036062079445932783,0.7056263612960285,0.5130438008394951,0.8460658073022593,-1.1599118399861972,1.97996318191602,-0.6970246304965244,0.49044346453803184,0.6360919584201037,0.7756296128052671,-0.9324829490875343,0.1293925538453075,-0.6057308630477111,0.08497614124031985,-0.6953719828160723,1.1130062970523316,-0.272566193597187,-0.9618414855151942,0.13924107627302465,-0.5926530643535829,-0.2949528127639933,-0.6830995693949913,-0.21271674817082406,-0.33725894140892676,-0.07421824319758186,0.6668189627207748,0.8466417135251864,1.1029649834638098,0.4198625074764144,-1.0616483781464827,0.36937172223216,-0.8856370879204346,0.5931334526913062,-0.8746141339267786,0.5557787696703615,-0.2974451882065797,0.8540338419993727,0.7917724760737823,0.8817084372871683,-1.2173313601931808,-1.306093650482996,1.0994785938229126,-0.8624847514114775,-1.2310618316316555,-0.5659102359894905,-0.7449119283070674,-0.19323331333329283,-0.028763192869996738,-0.3124818344513542,0.30357690959566164,-0.4350734100512692,0.3595881320794927,-0.11985124900671092,0.595509915445827,-0.48590442734074407,0.6554345942961127,0.2939874467921057,0.4255228120567837,-0.46951264588760466,0.050812197283794686,0.7615134356666771,0.15704563547011585,-0.6673675376059747,0.4581883107731221,0.8182927539268977,-0.10051473176999876,1.2861276011667075,1.2593838035638114,1.1032297160241225,0.18553301025595803,-1.0042061190052662,0.26723297308257665,-0.03214353021473527,-0.500054601791151,-0.6444022926103369,-0.35632431668462194,-0.5894115568282761,-0.22039091613498957,0.9993190530331683,-0.2435435077511625,0.7820190722857104,0.564825157430963,0.04212185005078749,-0.43774947262322844,-0.3279218944091729,-0.7823332166739629,-0.08572937776681835,-1.3288629083343326,0.6373775105276562,-1.057114504238374,0.9388779089994815,-0.52242340914218,0.9516530123353077,-0.390607903783699,0.8238856363776249,0.956693886628014,-0.6109369721357438,-0.8141646361154811,0.6780357854987734,-0.07307821626888426,0.18443413754950885,-0.18846350026801656,-1.259791747092201,1.547489230598944,-0.023490595391048537
-0.9324791959186269,-0.8379814880644195,0.5639969283657796,0.3371437616064759,0.3305566091637209,0.15179594392962337,-0.33945991173188084,-0.298059969503768,-0.3770815586532451,-0.2048939653918368,-0.037642393902933634,-0.5280644147513244,-1.0538193720928137,0.7725097475304378,0.9670005545508099,-0.18117060635143792,-1.1302027997720208,-0.6637584023242491,-0.4649756639501668,-1.0794080922603362,0.5484026141832521,0.31522570644900305,-1.0457174365064263,-1.0765105028814976,0.9493286749113817,-0.44813527610038445,-0.19937633230797475,0.3029452327193806,-0.21634180831601918,0.42173214246825863,-0.05760151154487024,1.1473534834964272,-0.29723107893422607,0.43128463426154,0.3087465621347985,0.23256415079425447,-1.0737798970371584,0.10969225264145406,-0.4631016732556488,-0.10722302807360323,-0.0391665268851419,0.5715960863844489,-0.4399389117938735,-0.3545140356701238,0.4648613466639005,0.43242138820804504,0.7986871293535706,-0.8265257736743213,0.10594578364578747,0.7711285936999183,-0.9641730436042348,0.11894924201129717,0.2084588892919577,-0.06579890899281784,-0.780227326651774,0.9338910448635562,-0.6965962795440056,-0.05795947380769116,0.7400727986677551,0.07520206967503555,0.3449590366251691,-0.8198238876235528,0.808117008061706,0.44075166542337946,0.8675858586830485,1.0217220377519731,-0.4251608224438188,-0.9329581662224908,-0.14834685044149337,0.1632335152456461,-0.7194937547932725,0.24134361476376776,-0.25405291109566536,0.6535129362803483,-0.2888242937409512,-0.03490985565627157,-0.38531558704341157,0.6281387982132807,-0.08738252369558493,-0.19667439680636006,-1.0920702804592082,1.0254701470410748,-0.30430534719847285,1.0105642532209005,-0.02709107261657636,0.5011843309798861,-0.922821061663623,0.3196646034297111,-0.045196983526901206,0.11251015437312724,-0.5925492499505259,0.1697303811941089,-0.004324744028581599,-0.4807354783049259,-0.8331212468775168,-0.42441194198464743,0.4356272364010325,0.7028390651323028,-0.9185218267707396,0.2874219172565203,0.5058978267159481,-0.6573325510752788,-1.1350037923362228,0.7070926851890873,0.8608283048858989,-0.4372675496147713,-0.21674944800117252,-0.7787574128453889,0.09512391479554665,0.5666079711513581
