0.738670239864094,1.3245683916519149,-0.589926187230711,-1.0618044562814173,-2.076629807205984,1.693839655234546,-1.4430623332607357,-0.16353153328541087,-0.8067626673947534,-1.340512631320552,-2.506331313139028,-0.5656205107172199,0.3914351726748739,-0.041648611051207575,-2.375213951695308,-1.8250847044923244,0.5054076812902474,0.21008405756582138,0.8965220657882178,-1.657117162134671,-1.720619637379019,0.45876020947741597,-1.148385245022422,-2.640584117351917,-2.901505941119707,0.11163867197449709,-0.7916712789806576,1.9931704389111318,-0.1328331922197242,-1.4402578652976419,-1.4802541298782201,0.24235000582657573,0.9497812479728753,0.24819956233801618,-0.3131984972569975,-0.749873043685759,-1.6524444544057937,-2.720670906432243,2.7256489893452023,0.3231613872625006,0.804536539422687,-0.1221339763355684,-1.7092306648284932,1.9889741048361589,1.2143889962085956,-1.0478336336333836,-0.04799834403550164,0.6430800063349278,-1.385652756045096,-0.27512347303963786,0.12215281018714667,-0.38391241289853584,-1.5696836308216933,-2.2801024562772003,0.5714579628417361
-0.07692414724991435,-0.7027754531218872,-1.2469236848444296,-1.2178965024229014,-1.2976605157065866,2.375746382389738,1.1800462471666826,0.004513027696993521,0.8879003563678657,-1.345242629161486,-0.455214066369306,-0.9383188991611943,-1.533224949357642,-5.01900756453474,0.7137215779281918,-0.8533856972508274,3.0454614116483225,-2.311017226325598,2.3567215325491504,1.644778641483212,0.4420081723965242,-1.0029914116648955,1.2905408111125898,2.8068622426959577,-1.0343250561277204,0.15720588269143648,-0.4802708242043993,0.33992516940585693,-1.4985102157134946,1.2936647197945024,-2.1287395152870494,0.6578887082035964,-0.3902957586396239,-0.9568488824815863,0.6558855113619833,-0.014672998675101384,-2.9797992348406392,-2.6705396851868897,2.7538396734551434,-4.669969482546394,-2.6574992020062917,0.013688847737686643,-0.6577849280454199,0.34384115660927855,1.840673910744403,-2.298181253606826,0.5939519268388306,1.6626811814674014,0.49631381800645563,0.8235704780519447,-1.1968781828561417,-0.03630655716912118,0.5392558487011904,-1.3492517800331332,2.5197142097661946
-1.2557322193769822,-1.7675301707999749,0.27659959045061844,0.6006294694508563,-0.9203382060958897,3.751454541654087,3.8469752547450624,0.9339356155403048,-2.6001146387372867,0.5370035807364564,-1.1068738321233424,0.9995364929960706,-4.065807567478428,0.7262614016115917,-2.8607555488571674,3.5064866415424705,0.6067670141720003,2.214614245496408,1.499747275029167,-0.6903785744681528,0.5498024223085742,-1.888662935609216,-3.711852808216822,-1.6555732433379138,2.3110015445265875,-1.0313904086732062,-2.3267619100421477,1.0076138406547108,0.005026203450112841,-1.6527826030390518,2.9602894713308197,1.1646997791752318,1.8830377368088478,0.046171444861473517,-0.8872840787253536,2.462643669794874,-1.8751451021820735,-0.2765037681080951,0.6500631860372822,-2.561404173145308,-4.59062188538465,-2.2569055694463187,-3.334111740983881,0.1384189201519532,-2.3492862102066017,1.956219387190399,-1.2993603380454037,-1.2454003273835539,2.7875661445167235,-2.867067062298153,0.055744088542445384,-1.0405941394086569,0.207452352794526,-0.12489604013181327,-3.22135865799889
1.2429544911828334,5.566432862235384,3.8872085308242306,1.2707990878902882,-1.0804271452413567,2.3706018895362657,1.2905786526021474,0.39725719624821854,1.810549888111257,-0.8093180707703047,3.410577765031455,1.7010221958509926,0.9110956215592649,-4.004587712975676,2.8646369107314222,1.622747381656888,2.503106053941297,-0.9648018383384825,-1.5058639425336748,-0.30506409921089184,-1.2233446345049879,-2.8773489555402403,0.5764670842930658,1.215921167516269,-4.958847956101434,1.6307087908428688,-0.3459978918214095,0.4518537753865797,1.6859276569845978,0.1028760440249634,-1.2633653466305916,-1.8380256970705653,-1.6742145235747086,1.3665087152645456,-1.106992528682066,-2.5852575864155107,-0.24213744582248084,0.8167538582035334,-1.3721760541511543,-1.1714739348761447,-0.5976641014253284,-3.451658722885186,0.023552375107867864,-0.700294720461491,-5.772682777860076,-1.85715507255484,-1.1983486967931896,-0.11166047662015643,-0.7742708246722291,0.8776342404946423,-2.6262688120635214,1.9284218063672742,-0.28542755493665295,0.39967534973977553,2.2313957990182565
-0.4095157165033093,1.2802701432664974,1.248629598736133,0.8468560616330653,0.6537359810909501,-0.614359911742817,1.0432843257792663,0.2978664714270309,-1.2513061109377477,1.7736674058852548,2.290708554387332,0.5166928689542583,-2.6130330714619294,2.4895934890475657,-0.5872579275107445,-0.4667860025438388,0.4354560774198795,0.30065318779242206,-0.27937250621871373,-1.7396852152683069,-0.9567989579791477,-1.0904406398685502,-0.4200355339612612,0.055192314454404104,0.8764173164856432,0.16416723526444157,1.0904722396254232,-0.5711284907759535,1.035963153651355,0.5718847450251171,2.4761981745307837,0.6415666687697248,-3.5804099808229903,-2.5891659974506323,-1.6727250192849967,-2.4787665327309027,1.0520898779847216,0.5156449985821118,2.5472706292520444,1.9178590776215814,0.19421735048423444,-1.4546009306845336,1.4623869025113685,-1.1454629138718935,-1.0754342221610285,-0.9973286555598452,-1.3465774142550624,0.8932423541280782,-3.253448930135275,-1.104641395358084,-0.3038222945899489,-1.3197655885973232,2.2394308870687234,0.19530616248161262,-1.4131078634247736
-0.10835013336823301,-2.4785652383723082,3.53737550467259,-1.5098854226306315,-0.020680626034660133,-0.45005088550417716,2.2610056935371103,-0.06655851353991526,3.9717016927286886,-0.10004998280585432,-0.10340121792334302,-0.15650320513155563,1.5006677325536022,-0.34570911825362494,0.13256363975020577,-0.08860564195487519,0.6979423328123451,-0.8367177088356124,1.4088882636779936,-1.6893633630537201,-0.33101755728374915,3.6314067311417735,1.5367908000353379,4.405153095193493,-2.172544445494596,-0.4174485343074285,-1.3593159062602722,-1.7659394008224298,-3.5935771701491803,0.236338847261963,1.4769914810528972,-0.6967443922555256,-1.2908475646122937,3.4254562472178365,4.3184520916669005,1.9422008963478625,-0.19680052208548987,2.7817142854982646,-4.679639321727705,-1.6889032212200235,-2.809335193555089,1.3797463097944305,1.3436638904470606,-1.867947534548152,1.5745806260143655,4.104896296970437,0.03187747039693318,-0.37119757945946785,0.0750232633760527,1.8618018577112558,-1.2508682638308297,-2.4560189786794036,0.3655180313466728,1.3782742921320796,2.5804988372537
0.27060033829198343,-0.2978070656342317,-1.3481660584484734,0.1518397202340969,0.90120804909316,2.4323478796582263,-1.4381453162980262,-2.961685860907971,3.7605652554055515,0.13652430631752713,-0.2671846942259892,-0.3564549995711049,-3.479463352261964,-2.7544022094782195,1.615855147546802,-0.4430318529414179,-0.9405789716884466,-1.0146617249729892,-1.7354483976216952,-2.3532143994454984,-1.466325600166504,-0.9912849574043724,-1.8330043129713331,-2.040166566719995,2.256921836873173,-4.035183129950771,-0.23535616665824471,0.8520251290855547,0.12550964946553939,-2.912216762946058,-2.1903025899468527,1.6019228360547135,1.0175079666396194,-0.2706740531242327,-3.785992685598662,-2.4652461029000907,-1.7297327162246492,-1.4784655540516027,-0.3811333918607685,-0.9001499354625693,-3.4350015337552473,-0.7497172248172256,-3.2022970703189078,1.7238590277792738,1.996301780418988,-2.6358524356191397,-0.18409102036924777,-1.2457431671279895,-3.977897518005052,1.5053535636510647,2.090333129322444,1.3454562822817362,4.85075263017846,-2.410947883361257,-1.0192770329663625
-1.0670877553521019,-4.065939326730295,-3.769426846295243,-3.61619345518051,0.9993871926494051,4.350171917871366,3.653392463220782,-2.230589679808872,1.5935247223606073,3.990862601271036,1.9649852177562928,-1.61820360943886,-1.4390148772755489,0.932751860608869,-2.102431554493669,2.688076390863159,1.4966636652275433,0.3463038173917921,-2.5814519300003926,2.2200296303065943,7.179637275118097,1.0545202096199982,-1.588200498804965,0.3030023378072372,0.33290678172625715,-2.721663773460643,0.5607245862726434,-0.13433495524711886,-0.19006206534407136,-0.8628893179196919,-3.210913075374632,0.026871389214937216,-2.860045111071112,0.22579935698666226,0.9346382929884776,1.0920452543378567,0.03705609000097566,2.9564065162593276,0.06380042765896568,-0.9985008079650453,2.8918922909415277,-0.9479948222244465,-0.41657190446439807,1.8467881464281954,-0.4957433661345161,-2.109656000638102,0.9686037364154996,-0.9956720577140511,-1.2449022433076875,1.9517959406533867,-0.19741342639086756,-0.6279994316189471,0.9821246835026213,0.17207920057119463,2.6830150720948693
0.2181613456946943,-1.8135313384725278,1.0985578879252127,-1.3592630126874237,3.568853900941128,-1.3025465303019046,1.4401083778000938,-0.5811035601318139,-1.120970807207915,-0.6095320677573529,-0.15814680049914542,-0.5619385431124281,-0.04783905384894923,0.9045023146632811,2.929325948849226,-1.6802651971922702,2.35595488591081,-0.7617914467081274,-0.932098755186163,-0.9514594164629203,-0.34309381462225835,1.0160899331893893,-0.30233306357610285,0.1596444816321701,1.9588460383839836,-0.4276114548986308,0.42760276095936395,-0.08509106066614998,0.9551657187444791,0.2761252994845768,-2.0465548776530214,-3.009062493085026,0.9307839523511431,-0.9323668449767534,-2.1268052479415482,-0.9225509784277287,0.34307993202193343,-4.742508657126452,4.643196059554239,3.3489246757499083,-1.0152254693538942,1.155358129598323,-3.0158425276341534,0.5766206257567118,1.9797161914930317,-0.2202483060328955,-0.7621402947621462,-2.6268887626559683,-3.1400239298900376,0.41432749426638477,-2.18323840970523,3.5059043750538605,1.010482995549411,1.638098817664146,-0.5714665464924711
-1.0975938238959386,2.0817868132938346,-0.508152293528181,-0.16178419084328385,0.4174842348200288,0.15656682549986706,-0.6358171189870537,0.10880511094862474,-0.1038561571904512,-1.254124527708638,1.1001149539188049,-0.7316176790924798,-1.9378656600156563,-2.134084535067376,-3.2102179568643803,-2.256758385233433,2.489079865334835,3.1576152571360603,1.7986593265204913,-1.2022915892466168,-0.14165068078874682,-0.10336441333303112,-1.0360616313265596,-0.43835825383585025,-0.9571977223009517,-1.1867863925094162,-0.43749323097630693,0.8142632620189341,0.6759198753493751,-1.5034651137710604,-4.406871309891918,0.5433741037505782,-0.6060228534730271,-0.1410038229151427,-0.21121077314794928,1.9273472029933199,0.06418652898803186,-0.8152012313529011,1.5708505482879513,0.5763981988747158,0.18595052917498317,0.9577408604864783,0.4344259766058568,-1.872717829943604,0.6924324042638615,-1.550591870355055,2.7806626020181295,0.5836390088667803,-0.9725014228248634,-2.6523541414672263,2.0112530591615894,-1.0446270569100318,-1.8377007038092046,-2.222131799438922,2.8013819077320314
-1.6759517982904601,2.298093958155987,-0.6651585044819224,-0.8872689127432782,2.258850395225121,-1.9450669455978988,-2.1912829394683087,-0.8234379135098575,0.8375661280076241,-0.916333872561047,1.3598160136002324,0.2693510478187846,1.480591887368873,-0.413483583459406,-0.11260845138837178,-0.15225611001180336,1.748945691487469,-0.9938838487035999,0.4661119509997266,-0.3321908487434988,-0.13464240030044183,-0.6719680240538405,-1.3449537528491118,-0.18431991456717153,0.06894665012268043,1.3675729172878184,1.1134409829790057,0.5899903911692497,0.6684167152605581,-0.797488110476852,-2.5759896231089647,-0.6914174628349181,-0.14885039398749475,-3.1141517034083868,-0.5320072973621115,2.421989067766637,-1.0802991346440902,1.2339493101875425,1.2353792256483103,1.220924122799199,0.8434228011584121,0.5227969508863027,0.05529646806926156,-1.2676019489323294,-0.6675723559143165,0.14659636393930806,2.6871792940809693,0.18464804106960955,-2.9828948544879217,-0.5672395060195373,0.8320914046606299,0.7665307512548721,-0.2596773127375968,0.5793064859437331,-1.550258702869236
1.2143874306331004,-0.2114412067576234,-1.2105998400236173,-0.369145799925162,-1.1223308578032747,0.018623116238747055,2.1973914209783367,0.2065306968943621,-0.6375843489250516,3.1154086615850343,2.546692168838293,-0.41260498827398584,-1.6491588301297733,2.2722933076196674,0.2502219447703456,0.29043889706443826,-3.974660598687508,-0.05489013988844104,-0.5004963288733565,-0.38438311117061713,-1.3615420606785236,-1.8077276564507767,0.6168103572185403,2.2123040418828364,2.9146800655945184,2.4365453224211673,-1.3605807794364677,3.4520567825933615,-2.046586110721267,1.9168099109554648,0.796866844363179,1.9339451557716782,-1.0447298786145294,1.1111954990028006,-3.306970084386146,-0.7642129587162217,0.18806191682893947,-0.460014429508163,-2.4498850139286605,-0.05346848671016626,2.745465693586141,-2.388626081873418,-0.7003923139654814,0.6207560230197583,-0.6966506353251917,0.8659379342210509,4.037468057948763,-2.728429905120013,-0.8095759812295078,-2.0501472612208387,0.9219303423926215,0.6341770984959462,0.7163008058653387,0.2630432040835994,1.3852392915724088
-0.11945846948901871,1.186433721387311,2.5494946977363893,-2.772169104105238,0.37222531534464476,0.7568464608898358,0.3100662156154974,-2.7054905934392948,-2.196800476859326,-2.507729667073001,0.10410713294572825,-2.2175896361885337,0.17157685879026222,0.28237298624373175,-0.008522462778733463,0.10345035806877112,-1.834070783498967,3.4158569754431714,-1.9219729238190604,-0.45244963512262987,1.790505171260022,0.5458779628358988,3.842328661569835,-2.8577227435646724,-1.7296114565076224,-0.7778880585576502,3.183201088355308,1.0355825526553348,-0.38910097383725123,-1.5071026587327065,-2.4864607052235144,-1.2634778663468667,-1.7329137512078643,2.441581903652346,-1.2048429792402988,-2.7653682135452353,2.093682706869967,-0.30046540806591626,-0.3480588481115912,-2.0249777728513294,0.05932819563350146,-0.6606281375567779,0.6585807755791304,0.5963417267968483,0.7995095360882127,-1.4347006455327067,-2.730230944229745,1.3445464617065683,3.7018300686562364,0.8246654251888029,-2.0162114812334186,2.7543607802910786,0.12158063951431809,-0.31331241848832625,2.8989316910771246
-0.17586227033761326,-0.5472199781669216,-1.6781651547448322,-0.9782624230951448,-1.05147879732468,-1.944853495409715,-1.2389345280703226,0.37524661411874355,-2.419974521927847,-0.2590181511771178,-2.040196591712906,1.4383670130072466,3.013355988653672,1.1349543961779482,0.47143941869258166,2.4888368793241353,-1.492032264319838,-0.5313576939110419,0.6890734093309676,1.877692466882124,2.107629833298436,1.0410132846413245,-2.749986260524096,1.5997010540749566,2.686253390216366,2.6250912418896437,1.2876334578133075,-1.3849071579071857,-1.7061776120426284,0.1829493518809494,-0.7072753247871539,-3.096598520606415,3.975253258737681,-2.7782550410625997,-0.4549345140720565,-1.7492225038002223,0.16726207012664823,0.10727074589468012,0.27560701169167057,2.3124536187984503,-0.6512919878175385,-3.839938365590338,0.935592143688318,-0.3223750673273565,1.4946147612094185,0.2855903745368964,1.042765279971219,-2.0119300602683783,0.47252081056491374,-1.3854132847862553,-0.5662725174586553,2.4531418795132987,-0.479472005201659,1.5676583349202304,-0.709005574424891
-1.1017801087980383,-2.2707241071354813,-1.431620457088355,-0.22400662657769943,1.1628582919402795,3.3153753262291,-0.6037752570251351,-0.43048999045154474,-0.8120203772728104,-2.1245216074141537,-2.285141385448827,1.7958580830643147,0.26100232811203206,-0.7353814840142612,-1.754226801185916,-0.013212438453931026,0.8048757644587818,-1.1558878335124112,-0.08202593731543956,1.6630961121698968,2.175413401083282,-1.7924579874508673,-2.5839815224588705,0.352406212273931,2.5566730242332856,1.6561408274601892,1.0768154545584887,2.4249679810508145,-0.9883284495764906,0.19538541420756558,-1.735729713014509,0.81872664538903,0.6212810249166848,-0.2825186481373658,-3.395568640274152,-0.12702566004734078,-0.37714985338547535,2.306187730986314,2.2919343977365934,1.8744181792733492,-0.6915335125722016,2.2731995127707973,-0.06104482135764292,0.3364951563708494,2.2927054511228717,-0.806019110572092,2.412820649534446,0.8951876758274581,0.2694557774365127,-0.5267851110062242,0.5874772034224406,0.9665668743564515,-0.3500582949404615,1.4456978144316968,-0.11616323268702962
-2.080279079348966,-1.3834715287489727,3.168736633878625,-1.3501994100150172,-1.0825692292770337,-0.3632339664391866,-0.683785606189039,2.1808016475652314,-2.563606875879788,-1.2388624453194688,1.760210654431804,0.03821971568088741,-1.6735705200111806,-1.6565717723436453,0.6813141121782783,-2.540871256206862,1.4626842208370925,1.0663086380001054,0.042390327950563765,0.8673655320908993,1.7504210965447586,2.2798457554669005,-1.0846354067519444,-0.062068773707338015,2.069150033776376,0.526070493922213,0.8297202411130254,-1.3887866587819566,1.6006856991520724,3.5926828803659414,-0.8271467312874097,1.2208614222283414,0.5512055765962166,1.2532169096917312,-1.4114645249193276,-0.11082503582519056,1.4551213992820464,-0.1943112395212121,2.8210637903578677,1.9057555195986013,-1.9404166190265704,1.3884078794704313,-2.707811413514279,-1.5998122131026153,1.405990729605486,1.7058755367571263,-0.41147090455296736,2.30398588635956,-2.567624708225004,-0.5371689980262697,1.5951623923111067,0.521929274459041,3.128435221089175,1.0771149560741493,-1.6839431714968325
1.1641636598662999,1.9796868419889173,-0.35722852768311186,2.458331624385235,1.9411214779313644,0.8125185405742622,-0.7550792017679514,-1.620448270701116,-2.524123655400004,0.6379128899913886,-0.6830854303333442,-3.196955641259439,-1.0779281973359571,0.18044032789381262,2.570364917006929,0.8018773051705698,-0.30541732629157625,-0.2048940399862995,0.8441937594907485,-0.4814065953114441,-0.21391794393480282,0.7215605696889187,-1.5860385073387535,-2.028693600160914,0.17124116955844623,1.8671891883990357,-1.686340601075048,0.18567501362093022,2.938202340845653,0.0402043785864015,0.10453204244433568,2.8764363487833444,-3.057302910606375,-1.7005867402960362,0.4534370345494825,-0.8285499334981876,1.435241256423633,2.3436851673866097,-1.5261216901830963,-0.9065890370506638,1.2766464181385373,-0.9068703668285261,-0.017728811783610406,0.8688345548493474,0.5383290986435645,-0.6985652311932379,-1.7879318604436185,-0.05479513162081631,-0.23158364749283888,-2.386117959834678,0.1778195016149957,-0.2887304892137053,1.3488763477724945,-0.7338502461319459,-3.2107148824846683
2.4489067409226712,-1.3979685226402343,1.4776408072140648,-1.982813664770044,2.2744808207721072,3.5992631491120974,-0.008731675754921878,0.22516861540939098,0.06768072036778401,-1.4359224789127651,-0.4060281779735926,0.8571112470078799,-1.53497752743279,-0.28062585400334855,-0.39607106487248805,-0.9768714004409464,-1.9065390035548713,-0.8496897138147921,2.7793592025126985,-2.239134104220651,2.321817169523147,2.2482929914321903,2.310491653405515,3.9760046936221416,-0.18921194158303803,-0.08420635406209624,-2.632999100708087,-3.355881766518539,-1.5561302147902467,0.02507975199708809,-3.518945177078059,-2.5862609824214036,-0.0347603858293027,1.5936262865408888,2.589749139201516,3.036798255478534,-0.1680191506500614,-0.4845977778319212,0.9621129215654227,-0.7726451469902146,1.1646740120842392,-1.9232716269077643,0.6322371409293012,1.4040538452885256,-0.6280772490576704,0.3543335737154476,0.6830158105313812,0.12758401287236779,3.2965359474301135,2.5465436679411506,3.021795034014287,-1.4503982183984405,-1.128096479298447,1.2398950346450281,0.22212146093154586
3.3429783696805924,1.7292091241352319,-1.709635202363971,-0.43069165245832597,3.4467809933200124,0.33971896408584434,-0.6421678063291708,-0.48514832639052463,0.8608291120712441,0.8342374796132327,-1.1682744464076233,-3.9756671624894455,-1.299908866599478,0.5430845666292419,2.278231575866338,0.45963428302410286,-0.9658964615994298,-3.2417803828894995,2.3722060775945346,1.9075854421873855,-3.0479342257910145,0.08983918792483135,-0.4346845701679254,-1.1568354947210402,1.3952117735702136,1.1200593575013018,1.8701294354781706,-1.325007693173321,-3.8455145698215145,-0.7237258273186783,-1.213746431293678,-2.538514992809902,-2.4070592669089033,-0.26000403974116926,-1.2569986214633486,0.5558165828998254,-1.5573413722334821,3.104447937606587,-0.030400754486495596,-0.9208544803350744,2.0325491718118327,-0.5999924063315658,-0.8453780423804899,1.359490353528843,-0.2010501608606816,1.256228761583246,-1.4942676005588595,-1.0581033814705174,-0.03179205035042469,-1.4155881654854987,-1.0856695619426768,-1.2381668172712565,1.4719313536598342,-0.07272417416343427,-1.269151023422741
-1.0449150226690858,0.531805536546933,-2.6879726220056646,-0.5799150627217886,-1.999983235709296,1.4167466402474462,-1.2631273956761753,-1.4134029365816039,1.121317212276117,1.2857226355440088,0.9291203794959725,0.6686722194493812,-1.3969927793671233,-1.2679526980973268,-1.324116447479148,0.3602209606735364,0.33714698664971154,-0.3589209061183398,-1.2346282614299837,-0.13363637363050956,-1.3343924265329892,-1.672736213802157,-0.06610132148229415,1.3649795598171344,-1.0766297605523028,-2.523109077597807,1.3164054619364667,2.176006664083678,-2.780997240009154,-0.17992373991437635,-0.522680954307649,1.2831031773186052,2.077503200223499,0.9720534245408462,-1.0785923681217713,-1.9069173276339242,2.9518492489474566,0.8956806287785304,-0.33069552394075835,-2.354210369817892,-0.8757843266180777,-0.1626103950452028,-4.108186479438886,1.4520212832783976,-1.3935250032895916,0.12063826530251706,0.036674208594355565,-1.326023756425852,-0.2517820990281801,-0.39365868986772884,1.2553793678656813,2.1508124132696924,0.01610687426486798,-1.2367708964701007,1.4656573030514508
-1.797445696160045,-0.5493606990577483,0.34961820108930675,-2.4736503159061427,0.7994315014510582,0.9823695801236226,1.2139476430670466,-1.5288218891794105,-1.275997448474262,-0.49131323605355537,-2.634747964453538,0.3803687791748015,1.8985002598057956,-0.49434267308766167,-0.24114765207461927,0.5803002978347799,-2.9439190196327045,-0.6231871016181372,-0.3623030815861813,1.455543378058126,1.6635616460266076,1.2658899785784834,-1.2969915613239955,2.0555895747539648,-4.312740435653159,1.4656564894574304,-0.44262349430211834,1.0172803617715969,-0.4269685818696805,-0.831984624996748,1.354823684800141,1.4128931784708572,2.4529272685141668,0.4608672868343624,0.2918956073240127,-0.2724087347093748,-0.6297633514698051,3.2576201097941686,-1.4444375595486498,0.1223314124093602,1.3062679078716328,-0.04978393688409241,-3.3637729224411026,2.1995680488391214,-1.942221193434604,-0.2663116517887807,0.01346150890234128,0.42196024734507864,-0.6753162636646148,0.19084182665965013,-4.687988984096099,0.9639532440478996,-2.1215577534886787,2.712094794540734,2.491418506195512
-2.433734532990632,2.7740731542456554,0.6471891957506907,-0.8976621835417149,3.487887027357713,-1.9610524822828408,-1.4283576183279536,3.4330155023684408,-1.844465374138873,1.7832390555830613,0.8802143724626387,-0.14023513493956338,-1.354907023978393,-0.7300503287353406,-1.1278213945294695,0.30969044379773747,-0.6759893769367598,-0.580101965436376,0.2089862634114831,1.641563710910783,0.31336202769127747,-4.349299354186267,-0.6070535497588913,0.8765746615776139,-0.2530701454010515,2.434888592378994,-0.9465631522427503,-3.1924318742138613,-0.8820506734996794,0.10523813676751066,3.813722155791295,0.4840920382949049,1.3772149120943704,1.9946430011725964,3.14717964712525,-1.358488837831712,1.9666082960331137,-0.8372995596270052,-2.1071014127338623,0.4477950456894915,1.1004441796035849,-3.7448855483958123,-0.3244099453695432,1.6898530134073044,-1.123639967145201,-0.11867843924997865,0.38629933538220845,3.2509194234273244,0.8220335254747712,-0.09645064859169471,0.7364888226217946,3.0630372372577557,-0.8363258630627809,-1.5365088927976678,-0.07117952584549507
0.6543898689639113,-0.7602183068025767,-2.186511795230103,-0.28017712657657273,0.7643697271253757,4.494849421513769,-3.121438077616993,0.08130230633304662,-0.6977393203408887,-0.3198263074164771,-0.6688861818652128,2.628408200283198,-2.0196891955309177,-0.5933161339117943,2.6928811814046463,0.9044367612813463,-0.5798806107173086,-1.3011594525422445,-2.3107622849938867,1.865071028417061,-2.0925328356569937,1.7307424523715138,-1.3661327134865722,1.4575738275637364,-3.533845604747572,4.1176639769718335,-2.1008766519254256,-1.659774665296647,4.078636093227595,-2.00811739249383,1.170227717781874,-4.275522690918873,0.37627515282063345,-2.398996403669593,2.2938362655772977,-1.821480459297184,-0.6161673752108704,-2.0052292038558392,-1.7835804055938163,0.5346739571906687,1.1587934972768623,-2.583010426258362,0.8923369552023869,-1.8480879697025574,0.5948601871750795,1.0534390713198283,-1.7474811057041775,1.6829778608016128,3.0298254754583,-0.6577154080688666,0.9821466961071373,1.7480193085072693,-2.050521759150154,1.9261924132212795,-0.3250926730271418
1.7702497334719864,-1.752569766277477,0.4118805513952929,-1.6386279207407375,-3.4618978365896003,1.9272954924299455,-3.091064214418866,0.07116768253828192,-0.9107471159080531,-0.8434937709490048,-2.0191306449370354,0.15906892749298185,1.6178061915683024,0.5484102528933479,-0.44959936630037245,1.8350002341232554,1.001030133844957,0.6003311522548073,4.375114595435621,0.721359530588873,0.3818554833092509,2.3473928061038545,1.1327079598710539,-0.738650127801205,-1.8803332825994399,-1.4582445780562592,4.189283920954172,-2.9649825076477287,-0.5207662696186391,-0.09454404131303665,0.9652566854869754,1.7400231926159488,-0.04977349405148865,0.21582106001669973,-0.9280171631740208,0.15196670614569827,0.36923409735843665,2.642933380167927,1.8312743282881863,-0.37961528117494203,1.7038932767724346,-1.9039846572799493,-0.9001087362836824,0.2977822925608538,0.10354599170710825,-0.5311444227641625,0.9310620026945531,2.079502902924091,3.388133498544421,-1.285364730920121,0.9644879249815702,-2.405827422831455,0.295187084524723,-1.7109837056157355,-2.425492235919948
-2.2372295677023426,-1.8725877166022766,1.3491708413855237,-3.4011633527085974,-1.0038437811489727,3.813756775613596,0.20541993713271908,-1.660073566113758,-1.5638785265660475,0.19119928969895675,-2.4081353572992685,-2.6985943751792845,-0.7435545594788939,0.9288860684422363,1.1534293794381736,1.4898296674222282,-2.4178837356146614,-1.4841402081695476,-1.7266925050254849,-3.524543886219932,-0.31534310780995484,-0.1788708608974326,1.2621193237379023,-0.877516114785324,-2.01783657044256,4.3745840999537835,2.5571757079520445,-1.8519078526727821,2.0485632722184337,-2.13834505153241,-0.3465470160673324,-2.0427058452241225,-1.0393849352644235,-0.05885756345609628,0.7158904741435483,2.460581529853314,-0.7098195679294425,-1.3116701837417224,-1.3037981835179935,-0.07556575378521205,0.8585361012750378,0.15130351029036482,1.940359127977645,1.0978369741282548,2.677016348487529,-2.358982432304165,-1.7017517536598916,2.4410469137009034,-1.1327316079516696,0.21893583667136107,-1.2776388919699904,0.38330473922355857,-4.40934678848376,0.5309850511229988,3.0792319524368548
-1.0940962567434387,-0.13381770858559633,-0.4999792298466709,0.18350164835253602,-0.11114896768741683,2.0645778314713836,0.7845690436953174,0.7401886905347109,0.18145436369995005,0.7539450343173745,-0.36966428754748515,0.5204036159707003,1.1321481683952601,-1.2612307659638906,-0.179218980171569,0.9853599879286224,-1.0407825076925161,-1.4047859576055206,3.3840399943875767,2.685263908815445,0.4371988466635562,2.2738418172340413,-0.7565980004025196,-0.5830027123961002,2.996592249404209,0.25720607579107935,0.6639204935487717,-0.33128162292047075,-4.01449429361154,-0.4207540929413127,-0.734256641452333,1.4652730935349005,0.12453193021253503,-1.3679240133724186,-0.3438291989944334,2.1784813555388833,2.245812779838095,1.5979914015634147,1.0354711835494224,1.0282368148409846,2.396530883187909,-1.1580745923472493,-3.511190569614985,0.7001009165203135,1.2368060162956247,0.48948485240695705,2.0658808149748538,1.3968240708604056,0.09752553500032421,-0.5342083049797798,2.4371636220538635,-0.351028308936146,-2.0778306810703717,-1.9443106292425165,1.6760595052976752
2.0649141016864134,-0.6267099425239127,-0.5176278535232682,0.8700517554241144,0.626948503010814,-0.7667445377607881,1.672997070122147,0.3166402499614237,0.49416855738101756,0.6843913911007696,-0.3094844694103217,-0.11904668511969622,1.60730877969424,1.1241020318304629,-3.2507146416385697,-0.5092803561817816,-1.7777921042697946,0.8646613795528476,-0.8529318572971692,-0.44141512911018654,-3.1240217976488815,-1.84827716109173,-0.491816846502552,-2.1011924306238297,1.7856080532588645,0.9092999504471099,-1.4253931409204326,1.4852841511428851,-0.5728887710878341,-1.2341753574654395,1.6650980612250186,-0.8521750122018737,-1.1590302654931777,-0.44007874283461074,1.0441484586031844,0.31883009342540447,0.2748148432703973,3.233592018906163,2.805029650178887,2.4772631858294014,0.9342626375909722,0.31365854283570394,-3.4725063457814045,2.5846075112300264,-2.2384181129550953,2.161585648501339,-2.643604338219456,-0.08979632909276797,1.0810609815289496,3.388249514858251,-4.54233023152902,1.023555564761606,1.0519265132664288,-1.837162399930472,-1.1778206988205595
-0.03611793378311216,-0.6670854691880407,-4.389314289858453,2.7207692298775448,1.9587892844911035,-2.4558164441460315,0.4029191844365666,-0.5465094139083196,2.8194504192959893,-2.3263952545126707,-0.1921678450949518,0.5523309548856002,0.5727247810618155,-1.4442530626225425,1.264465093803955,1.7895465201601999,1.1216548856516844,-4.85584110290827,2.513807586608773,-1.963717195588685,-0.7827718986219242,-0.8043371455065321,-3.6899599630925244,1.1216074524272832,1.4585143126452966,-1.4532924322919543,-2.360123723051807,3.549486390049631,-3.2244401264612166,0.6022969213199098,-1.9151670600669786,4.476900159928447,1.0233831288981436,0.02252928265097785,-1.1099875292220756,1.0449240539007623,0.5061518559193215,4.7448508328039996,-0.45393130887120003,0.27308252945067374,-0.007329480336220314,1.871835177245597,-0.29740467721179875,-2.976175979566989,2.5109651364221586,-1.8543091278967987,2.1294676970536814,0.25585940773728116,-3.2188431369227866,2.017666794226101,2.7401757704296674,2.997520090488128,1.0785895683133828,1.2538875735270867,1.3874641825799021
-1.4884713377454726,-1.079716360629817,1.3833706604190579,1.1358655660386658,-3.0617655461622726,-3.8917981751682547,-2.1507261663381176,-1.0402198512406657,-2.8870368691469643,2.051084660815852,-1.7358871555706759,-1.194094992241006,2.8557745731613475,-2.4754183732822455,-0.28857838295146676,2.087879209971705,-2.358843851966098,2.2210747235728308,-0.9450322764728389,0.2007108853068948,0.10044367801039523,-3.1586711219807957,0.47273299010148706,-0.6269920432571151,1.1010161004314798,2.341672458413882,3.338633507683676,-1.1033374945044578,-3.5275548940340187,1.4357872779711365,-0.12342581873915591,-1.2704604671199815,2.1626131420703634,1.656351789765728,-0.5612713680535624,-0.04898386867279168,-0.3095911308580639,0.5642448791532547,-1.862537320922608,0.9817018485900844,-2.2427573541215278,1.3306895545704145,2.5503157507253427,3.4253089277363604,3.2375673334250954,-2.344690591722761,-0.07429620942396717,-2.5047934835896393,2.8357737538810035,-1.7729910273980933,0.42797502951252875,2.438722530643218,-2.5244543927573315,-0.8717333452026395,-0.9188647932570779
1.5014302162239554,0.43650491170558753,-0.04836971284159632,-1.0162130145606927,0.016666073898558977,1.749754723326875,-0.1815803712138028,-1.3181250442478376,-4.213847298942812,5.198434321894206,0.9653537614436868,-0.5969451937377626,-3.8937919992988115,-0.5473082227514822,0.01044240200445925,6.208936742075823,-4.259376949429326,2.115191970894594,-3.6507541679344766,-0.2748919951662249,0.3139390151469232,-0.032675233830498654,2.9582097315616935,-1.5632442388303847,1.3896520227482423,-0.5673457539285883,0.05515629176096637,-2.7564902695782374,0.3288185403171675,-2.7101037267196606,0.03346632293110995,1.3001938267121347,-0.5424941194628493,-1.3851969465869973,2.3267651999981114,3.1290580633110543,4.732710743864537,-6.914000588880291,-4.0597564598743,-1.8707500346501027,2.193597562809406,-2.5422718138293856,0.11848495486812773,-1.466811701388885,-1.486594477962755,-1.7025271667834811,-0.6268763175806251,2.7056162814541973,-0.5364059221798647,1.558762510901136,-0.954732517189991,-3.1978181736432076,-1.0398822887953483,0.6138907727500429,1.1778810113564597
-1.0503379517354632,1.4421458201951138,0.7646454527458783,3.740822986904288,1.6518635476205557,-0.18573474519979796,1.0160890883285412,0.33397175405551527,-0.07979694107826957,1.0015638527306463,4.54506084899904,2.1831156756655568,-2.074879303439772,0.4238905819994218,1.6701930776581149,-0.5541346502735944,2.4928146683813424,-0.3953497471082612,-1.8187246333605902,-1.550438228072998,2.996886060021124,3.3792817292291573,-1.892061772372882,2.7467043451594044,-1.0791106212920158,1.4032959369007958,-1.5759525901445686,-4.158226336833726,2.55658702661916,1.8874388166706666,1.5467392124159032,1.228389788490711,0.08739978452978826,-2.9041986274663163,-1.898619629548655,-1.512005783077885,-0.2912614403554981,-0.8215057419937322,-2.2899147911936497,-0.18727814885631355,2.6773582464852606,-2.252680512622862,0.01603026888628515,-3.093942491508164,-0.13604053228836668,1.0618918644844269,0.06356114439355158,-2.229412716049166,0.8008524754767944,-1.3018860325260866,2.0243339788306765,-1.487404461190436,3.7174583217332793,1.3024075458130433,-0.39998599864507883
-1.4953479574352735,1.4452236687972446,0.6956690446955512,-0.06143289919682557,0.9092073734405246,-4.044334101852928,-0.9634822810033521,1.6643904992371459,-3.6876872281462516,-0.4869108106145355,-0.4151483394079522,1.9715620618169696,2.1336435879275086,0.22331521315160371,-1.763610146416088,-4.218749715194568,1.2739168541228267,0.6922797566525092,0.6156392678509508,-0.9795269428448823,-0.6332997519782165,1.2991751096328894,-0.6908017851334584,-0.4206470070776989,-0.6299700716793575,3.3155923431394148,0.06432439821643074,1.7778712782800743,-0.5161129081537449,1.1950272780794036,1.3836499167876068,-2.555842761441774,-0.28508101040322575,-0.980006967140379,1.016848957367816,0.06331324445805968,0.14741170679489213,-2.0734002676006087,0.9014093166910417,-0.20407628711191633,-2.048032589067896,0.4107376076953051,0.02151983446773052,-1.684882209685938,2.8535646201705696,2.420194602431711,-1.5987279056192956,0.42943563417124164,1.9951201107680312,1.352689177009889,0.9843950782441914,4.237377453726954,-3.064773550911503,-2.441152311034924,-0.05413641320555013
-1.011560296753185,1.6260083129617948,-0.2662885911281786,3.364945205622479,-3.313356100703644,-1.0253727159676944,-2.830751736809726,-1.6423227553783695,2.6845603738983788,3.1686996167788224,2.1513320854437716,-0.2822949615161634,-1.1345690325043378,-1.2493328773650052,-0.4123465317451196,-0.024890516878787985,0.5315823166511509,1.4848504190193792,-0.07580878843512243,-0.15455798766796772,0.3635305693734747,-2.0834793893781662,-0.8679864334267225,-0.6247539153885376,-0.47606239662052857,-1.4160761747569257,1.2852665634417009,-2.3354794853828813,-1.312835465099586,-0.6562966221380904,-0.43957808838365386,3.3971826017368967,-0.8814443794665945,1.3204607485227882,-4.380961907395954,-0.3585265668697741,-0.20378410828919796,-0.7184767001273855,-1.605546216104937,-0.9494724222474094,0.34984511408901753,0.19260973075786664,1.004956022807442,-0.16109301891104894,0.38051557039107503,-0.5832100098850197,0.16706544875336415,0.3982891691173095,-2.5043824443458305,0.0762293866018833,3.3843903055497435,-0.374724555093458,-3.103059055732422,-2.7366221699694115,-2.958161855509153
0.5715884128646438,-0.8605076365794312,1.1826813965289662,-1.5985463787827447,-0.5161355980920798,1.0035902326553363,0.919824031580128,-0.50377455451872,0.4626053578864155,2.0702893240603353,0.942635506010101,0.09657119761285088,-0.8816801790100671,-1.2473544132802776,-2.667667372822992,0.8326024079974337,0.18948298543914474,-0.9361906141337043,-0.0015187547660183915,-0.620967072704325,1.853523233182204,0.40308092283734803,-0.7857284669197963,1.1877646612919612,-1.6514828243091402,4.4981459723065,-0.6004156585379208,-0.13234265170343623,0.4781509923117097,1.770378504743325,1.189053669873309,0.6329931965325153,-1.558178046586859,-0.3209161220591281,-0.008020620606962918,-0.821089541965998,0.0754497828329172,2.383730276476041,1.2425370487058351,2.60204289101801,-0.8601773971043254,-1.642436616280228,1.2965283319595835,-1.6666414244228298,1.4986331655272016,2.1481411178247862,-0.5240203387514777,-2.553563974395415,-0.5856972545475388,-0.11297900286323749,-0.3503590225172124,-0.5635021821225334,0.541325741910079,-0.14172849980155508,-0.7049196459625113
-1.7139478899797878,-0.811412945383673,-2.8373632696342272,-0.004744641369890254,-0.5334424230746198,0.09724067614209181,0.12904320342083891,1.0080147008231122,3.568205645642241,-1.1774488201884241,1.3733374838379717,2.5024395539842987,2.0634940906135326,-0.3014312309983417,0.45029734555390527,-0.22372903996330523,-0.7582906975316631,-1.3453565945810524,0.6756253257205478,0.15624117097972703,2.7621960245053416,-1.0414817307679882,-1.6058512018024718,0.36165146485267136,0.5812200243626151,0.5392196690993216,1.7268599645215368,0.13713317815454729,-2.205573261915918,-0.6617616724917837,0.35104112998880344,1.9463379372526386,1.5659595277612317,-1.0853490322625439,-0.4339433021065863,-0.9991634613072988,0.704060591870504,-2.3360292307252224,0.4241807590697071,1.1845313799385166,-1.541891932225687,0.23893353215354027,0.0441092711796417,-0.7829898673436412,-0.1271873144455636,1.7559987714805396,2.0229361065613833,-1.9060052735558615,-2.8419911423602877,-0.10722067576745843,2.5372967601578935,-1.0499434140898913,0.8066483041253577,-0.4330020359733089,-1.1625886956222433
-1.7102382353370766,2.499180871526715,-5.615855793196805,-1.05399711449605,2.2772458292414495,0.2698623230748814,1.4120503249289837,-3.2935728740634693,-1.7216471182656083,-2.528618674045818,4.9394719073599385,-1.32839711240812,2.1672378143583826,2.306899782627414,1.7091054037735924,-1.0398338120896915,-1.1862873033041768,-4.422741288410533,-1.7709494364634573,7.3396455846136766,0.08569009709421058,-1.2131719513435688,1.9535283692249414,0.208486248218827,0.23227796171928827,-1.6275371296211631,2.57291562237676,2.073162964110528,0.9759264828368642,-0.12898062430294588,-3.338246938881947,-0.4915117804650585,2.2716487101018856,3.808597518199544,-1.5413421626421648,1.3280344214475859,-0.4387623954189864,1.9776899490628428,-0.1266771584491287,0.6794260815027506,2.6056909933425976,1.394487497729133,-1.2738793417295677,-4.5426857919124926,-3.877336580421943,3.2064850201153083,0.9047618716470885,2.306464735657464,1.192821706822585,5.735411930861964,-0.7709506668875544,-1.864988521812497,2.0122499514102623,0.21214423014264713,3.1449573911419506
-2.9296353518312426,0.7426425101709117,0.7309762327651259,0.42081032866485835,-1.4002760333836495,-2.2755825633342557,-0.3421730445462536,1.466123413389213,3.0995265709823063,-0.05639312982303189,0.24534253602847927,2.087758523431111,1.5655223122552737,-0.5471178648506334,-2.4480195926597665,-1.8431897481070616,3.5285867548858403,0.16345769351275513,-1.2500380842609446,-2.8193086843891013,2.3405454600409143,-1.6577777018114384,-3.793944953051492,2.641210004849813,3.7932939501491996,-2.664829290239504,-0.01747458067200449,2.4042043667109225,-1.8105622097672232,-1.652475299469942,1.6360442167448497,3.9354163621092546,-2.1740156940128346,-1.7798001037988624,-3.7836220562866343,2.468947741546282,-1.1270975808865469,-0.3222602757124571,-0.049250403774313375,-1.01110195434013,1.0118045062610572,5.853763482995469,0.5268397220618232,-2.869017062281952,1.2485203299990717,-3.580345637157381,2.536989276440487,2.2834822411912086,-2.2246336131679456,3.365031837840821,0.36829240386292383,2.4999529465212276,4.215943167488803,-3.6194060989056895,-3.442861345407835
-1.2402399795251657,-1.2527573806681345,3.3094517333107976,0.8417509032633254,-0.37621404178338347,2.5467763953346196,1.9253523930025351,-1.9847030875682006,-0.18902060394040943,0.8321320815558285,2.2774633445640298,0.5321162212290339,-1.9508304104159093,-0.7167839477324744,-0.3397002966269815,-0.33302696207840393,1.346585059892024,-0.6111667816318728,-0.4980402227694025,-2.2014279158841816,3.1450881039569287,4.165850867498203,-0.17129033330171856,-1.0032347301127904,0.775306869907146,0.47486215378217317,-1.5231363739267552,-0.1961019699532751,-1.2681840004132485,1.036807582848995,-0.02058961272681639,3.6712083069187185,0.9687354768956951,-0.6500506943941792,-1.8576638280984865,-2.8360663482048203,-0.6964874550206547,0.6099313858666381,-0.5023567070893009,1.4369692460943408,-1.7968470615074452,-0.5154569997958021,-1.1160373627326092,0.8882468198693841,-2.561739426411372,0.31560233860091014,-2.247118104852366,-1.424690952161608,0.07055912567825293,0.4501421926880478,1.0540476668095777,-1.2772704273617295,3.3870061564524763,-2.0085875706089817,-2.991217517219328
2.186848565404594,-0.8484966093747794,-0.37604484793186327,-2.397420189804822,2.537901268233386,-0.5053677954972549,-1.2596524403711418,-0.747838826535312,0.8567985251789205,-1.8605969722884022,-2.66340702883128,-0.6930954529182086,-1.4505558196318384,-1.796843029998406,1.897669917123863,1.8538388352966428,-1.6363998311239922,-0.057951494334090144,1.0893832691213374,-2.368069706703831,0.6202754687332764,-3.4153732434403343,-2.063767294129693,-1.4731645949502246,0.47206601312378305,-3.3459129924855926,2.6845779650431205,-0.025180121514943754,-1.1851692219519507,-3.716335771198955,-1.8987331302360926,2.2987933333875223,0.5804415335294294,-1.3475127195805752,-1.2745129557495705,-0.0426557415575011,1.847009097430911,0.6892683138978569,5.873330365161852,-0.8272798784778702,0.09511922425132575,1.3407834588728578,1.3946845294729002,2.297938316232829,2.4040965985499376,-1.3764916260575502,3.4061639737165104,4.81659226317718,-1.9057221787594696,-0.6405519863127608,4.254147808255508,1.1807370582269963,-2.1995069100744504,0.188493598176867,2.1197285886746964
0.48988740128881364,1.175729397074568,1.8152865780888425,-0.1825798988772749,-3.9421371006543438,-1.2306510971018672,-1.090459666252786,-1.1358007236260996,-2.1569561323700768,1.926650794528686,-0.1569892965602804,0.24877977226155967,-0.7482624859430587,0.3528179883114129,-1.4517027699768297,-3.326678039471232,-0.6528743560283822,1.5058593023185614,-0.5139154398079816,1.735098570438757,-0.498649202362298,1.6804687440277704,0.1587666909278987,0.318226956837156,-0.07378994977418135,-1.5676447626652408,0.8733690425299706,0.2255351733076423,1.1293266989881061,-0.13258467893640433,-0.812002650247949,-0.4744601983091155,1.3756418603445315,0.9902626861518131,1.1778293282655459,-0.3762144613040976,-0.8441545998703602,-1.0175945317612787,0.04873690501715663,2.8117354928889458,1.7338756266762558,1.633251776957264,-0.37795684714064504,-0.6254469819575867,0.45108059049506366,0.22702625599068985,-1.8864863655303608,0.18733226969321456,0.7160395083802996,1.6183088828759216,-0.6980000794282738,-0.2843065895637916,1.1589073943774844,-0.47119709541844956,-1.4410037651010101
1.7732893840510184,1.7107854048717421,-4.897559058352865,-2.562572181791236,0.5653203932490306,-3.6499408925382837,1.0759731932583447,-1.3110486995627886,-1.60040401801152,-0.8729687030095603,0.2809524261489152,-1.0132822221831028,0.24828984917755298,5.013029843391849,-0.4909314548386184,1.5100826256134279,-0.3577339752876059,1.567453172227902,0.6821660696817228,-1.6567624246435446,-0.5544560103292552,-1.9828299425340792,-0.38009688513626433,-0.26422202275320483,3.058085112935929,-2.05978350763984,-1.4988099594235047,0.3886007276588824,-1.6098559545353288,-1.6382731775370614,1.2933072194196351,-1.115614128013823,-4.463119903620034,-1.221300960499554,-1.7264558069540408,0.6527643041808697,3.0759003166244705,-1.8913002698773027,0.201037703232352,1.7757785367345138,-0.6206426816887972,3.0211168518467897,0.06985511285256343,1.9686835665210665,-2.024106878972697,3.0959110698854353,-0.40550402584193274,-1.5151920771919138,-1.7166353565534112,-0.09281492879224981,-0.39373517235369415,-4.379800917900466,0.4788418298900444,-0.5989433971104251,-0.09412125017338845
-2.079236820302101,1.2744469758140902,-2.4824636822026416,1.526694095633247,4.658507950713158,-3.8419907268851516,1.4198440805003816,-1.820239002353475,0.613042894505305,1.5909755693302288,-2.983275043749268,0.3831986603886229,1.498808524654433,0.009076519074297794,-1.6691126982506506,-0.17491027352877486,-3.24677894757554,1.478152363694008,-1.0021926750452035,-2.986973429727161,-1.40411195802842,0.48093094803630015,2.573210979599425,1.4901925869929478,0.5569897985593131,-2.387624322721387,-2.2621584800829035,-2.803419319220951,0.3106735881677434,1.7694345009541805,-0.2861642710227217,-0.2815082077559005,0.32352923396401323,-0.9632888028976938,0.8280716435367733,2.601397648555545,1.755634307103225,-1.8833870034082867,-2.70210091841813,-2.8803623510936416,1.1424350462035329,-0.3207835407748286,0.7160517360997615,-3.866450565498574,1.201313365538258,1.1430732918022628,-0.4234616825186807,-1.9633072030474739,-3.793506918087531,2.756290110614499,0.9151311164046533,0.7637239066075334,-2.040951087985012,1.0978827502799282,2.705546008992049
1.6409738192857921,0.005236231013016626,-1.3312910105936937,-0.4021117871345995,1.3043704824389168,-2.2941802953909405,2.9821848010327265,-2.2031598380315582,0.37382284568521884,0.65464898867273,0.2902290757770013,0.5498996967672963,3.344186615184118,4.479201158496235,2.710371405862755,0.6658869187398316,-1.135168222864969,-1.2897838984870587,-0.32364614444664935,0.5629118982223583,-0.5464969011139799,-1.0033220702682084,0.8553901745457327,-2.4956309183878473,1.0187603382278465,-0.18125176593369485,-1.8390043284060136,0.5733713142104895,0.7961050969026132,-0.4037424921910136,1.7931691439106971,0.8172838993514678,0.46094786073272215,3.4562266968497224,-3.2771659372512483,-2.51986092025479,-1.6652453250522723,2.1052680775337302,-2.268669925433443,-1.1919047361679356,-0.21354693536185834,1.1251665617882862,0.03903059776654973,-0.45685979265536486,2.7141786168843702,0.29989278307810274,0.3695452773114072,-2.8674871778582567,-0.8719573956572149,-1.3611300901824384,-1.4463860855393065,-4.129382999954538,-1.2819496908417474,-0.2866941387376631,-0.600483529818628
-0.6815057060695494,-2.962584477101568,0.532230677062199,-2.4799799777592795,2.5277361053304177,1.592035207464351,1.1083572122572143,2.2453825945040053,0.1197095185288127,-1.4672134173459837,-3.496532967073823,-1.7224421816487452,1.6935487155687659,-1.7733203261572599,3.1945638358132173,0.7182417020210714,-0.8982345419562665,-0.4193057117955309,0.35734304284195645,0.8719839517811161,-2.9428807855579744,1.817618866914516,-1.45065129616754,-1.7023438770279025,-0.9303650754943439,-0.8380452661568656,0.09562527042567008,0.45862482151176415,0.4120452126266728,0.5836076517289984,-0.8667356546942186,-3.173712603142077,0.26257166598185067,-3.3621091156295657,1.674253349734494,-0.8331146937192245,0.10778515573494332,0.7869784850210768,3.8570328997740266,-1.5979422428300478,-1.5242137173048749,2.268825082840946,-0.04504952031533261,2.6169021473068934,1.7637958840266261,1.2740272950812273,0.855767704794314,2.4924470258832625,-1.4530508353323914,-0.2852832755603188,-0.16722926491260698,3.535849954111166,-0.9304037353532515,1.344142603557333,1.0422995981831304
-2.250386294986875,1.3345353953059604,3.123807011015725,2.477853205591834,-2.288633915038699,1.6887553901716834,2.2624580162560193,-0.33240196571522973,0.39703667673342463,-2.9958017696331662,-0.28565091538939086,-2.4407606739709506,-1.805773077936639,2.5643897196895016,0.17225916635656632,2.6136780524974097,2.2716363310758725,1.859768898134601,-0.6076089183920665,5.898622394908785,0.8371020140342408,6.328422213914322,-1.3399961205976505,1.0364065998367857,0.5137298759414513,-3.2395122555950406,0.9907921235287732,-5.183755475953168,-0.8791994123151665,3.889307430574297,0.05581313095184401,3.8412064070362,-1.062650189002681,-2.9859532022828743,-1.8215631128175318,0.20222685488057351,0.4708162102921402,1.2899430754621484,-1.6639940680912548,-1.957775867201548,-1.18620701028211,-0.04793143085994251,2.6300622199738988,-3.7207911272642966,-0.6752225038111842,1.4872781479380934,-1.5655407803349712,-3.3638232262565397,-0.7164390614138256,-0.670374387946767,-0.9007226663362485,-0.8624612848796787,3.6591387737413106,1.7106120936470939,0.8710829982274829
-0.06403122305875068,0.39918678865522167,2.4009184484254114,0.1567833687477049,4.4382119350651275,3.8851803652830377,0.3731145801855099,-0.4325452472392166,0.6478575788935086,-0.5590695268794272,-2.1672111845888766,-3.3148196101049527,-2.768412631785542,1.0775685541177455,2.3957023233487624,-1.5377470775398332,-1.604149646623635,-1.4133913057170702,2.8567596897475407,2.4789614805283042,0.7327642801285935,-0.12905949807721107,-0.7893690646571112,-1.6779728130417815,-0.0402948110242554,-0.06545370664312772,2.0673455702438366,0.08813862901239174,-2.1925528863139636,2.2268165140088576,1.0854876918154355,0.49927733721227036,-1.292862615556567,-1.4615079520148775,2.8505908019690733,0.7478498714814027,-3.4607569513004863,2.098884821213025,-2.60683533223771,-4.244024539789031,1.447423481876138,0.288251079874993,1.5741973951929225,1.1865795035790336,0.12278189855802268,1.1284146202676701,0.27671368720466677,-0.8541832670537237,-0.8661086360225895,-3.3763939275724884,-0.8596083370624026,-2.926491425867598,2.0574968542761995,-0.6806661021573833,-1.4920362306714066
-1.543118248986737,2.4109530673201833,0.8757022638619327,0.3030150908069565,-1.0549759780044843,0.7108657842963428,1.0873056339191427,2.080367919353834,1.2461520717171932,-1.3932576177531855,2.500709205229794,2.2393480002038695,1.5285940269305847,-0.7223992230357155,2.7467703721230485,-2.0474932220383475,3.031695873846498,-2.0632576134522402,-1.5915953732811976,-1.4916503767669385,3.9498390064326845,2.117896735277182,-0.7113191254974882,0.2017513801466837,-4.689022634008141,0.7577606775833808,0.5563190022664135,0.09510891720693378,-1.7916323465106774,-2.0534325723061824,-0.8560590194343015,-1.287052512739747,-1.0517846140273142,3.494680493741485,2.4560812528449665,-2.6893081476787866,-0.5158288117041092,0.18972007538494048,0.7249470135768847,2.2191100741309477,2.6712235421969437,-0.3676103361386592,4.096125520781509,2.2069576016943255,-1.680600767194772,-0.8335590188920695,4.553877094542633,-2.8910133789439487,-3.4755271254958244,0.5908792642240845,-1.996811359942668,-0.5226975041092674,-3.6843954237782723,-1.3374991891614139,-0.1852344807272126
0.8958724913240691,0.628745273563711,-0.28859808716204227,0.3533071019931744,1.1292803203352746,-2.5377494739440913,0.4543037518326682,1.3846715953068616,-1.5458338899610127,2.2302013643528174,1.9969027425660095,2.143771939658083,-1.5862529029692654,1.6018676841727233,-1.2378022870556329,-0.5673383875554409,1.9033419307643422,-0.315059180226334,-1.3863490671630334,1.0410531123592175,1.1181958694181449,-1.9498732752628076,-0.7621278466797006,0.2780123309473814,-0.2658278048263072,-1.9100552620145068,-1.0423113598633984,-0.8203015996391608,2.2920679121701593,1.3022536463176413,2.5625765184981244,-2.2759578523479957,-1.1725107697701636,1.475025525051776,1.8144529656225488,0.583575825303578,-3.7193473103103996,-1.2287417033176629,1.46975310620854,2.733626759188747,-2.3913676866462303,-1.3203203540987605,3.6289680196439136,-1.4834724107397923,-0.9624448999697836,0.8663576620266026,0.4583619957470552,-1.9374866172726137,0.6532693099661886,-2.6579415913002657,0.7926202918844532,-1.1226731768718328,0.7008014815887952,1.4619194584934891,-0.7339331800386257
-0.05721882077843684,1.0548062357945298,-2.8827014028274958,0.2681216005992769,1.284925590952619,-0.5832649963843571,-0.7519614073013273,-2.168491774580603,-3.1983271229914765,-0.5266511795532117,2.4581039950223427,-0.6365815766419534,-1.9821441037771113,-1.3580194110294455,1.8597900495146473,0.861395429779711,-1.8898832114652842,-0.017666241262361018,1.2680190078494002,1.7195327005038723,1.3403991026837403,1.9796636825979763,1.5737965200849267,0.9278791001660434,-1.0091056880904847,-1.5120610403655925,1.3500197079324292,1.134169046675257,-1.920505966334606,0.0962936584080283,-0.5240602875507875,-2.0634696856060715,-0.03753268470967354,2.2419687348887516,-0.7118233082370112,2.131644356675466,1.0396732765111423,0.33728967232884716,1.3744911654303642,-2.7337219598740683,-1.1390252632014373,-1.8248870085545437,-1.8381307351696021,-1.4711352300643565,-1.4760996028945228,-0.7899873919409699,1.0057723061140875,-2.046478869085811,4.848643920406837,-2.49441522846909,0.45926609966309784,-0.8706001777316873,0.10150674851900951,0.24785091095959338,4.746889686351882
0.12636750419747667,-0.12530786329845575,-0.8199619924801191,-0.6170654737503453,-1.884955891705118,1.7504637801793046,-0.7524803072437365,0.05589273631155695,0.5533721576049929,0.6429142206111844,-3.015789789634661,-0.5141730434048987,2.197388275532544,-1.9387272604864287,-2.9601126955360186,-1.507133333094794,-1.4518696076784778,2.537861152556929,-1.896970849013835,-0.4453081235687164,-2.4073282579566504,-0.05192343935322292,3.1962719064779903,0.13623590950893422,-4.050415615803256,-0.496703349570089,0.7593584589008872,-0.12721130024381708,-0.24004911642792623,2.27876311420863,1.2038355628356965,-0.7495780726528045,0.13260657059353692,2.7529872925716945,-0.6875280595957832,-1.5449674936173232,4.568870793211069,0.8547559757658623,1.1345689580366614,0.2397042305265258,-0.12841043335226845,-0.542057850070502,-1.831335113950115,3.1845943936939674,-2.886762220324934,-0.3118853023423133,-1.4007168944870891,4.770717059865021,-0.30159007176979746,-0.663485926458963,0.2509102264274794,-0.37798444556864785,-3.0663050698898116,-1.1450555361772574,2.670864109009643
-1.3276124331090697,1.3891643591046547,-0.16721153784268628,4.451454182252723,1.8954693389212018,-1.3834427341180107,-0.4680689120267711,-0.4964647641915148,-1.7008033125411677,3.5665535623946405,-0.8739007630884799,-1.2397671831004933,-0.649294345576886,-1.4209980875248565,2.0854010492833073,0.9479381372634472,-0.6359502991227658,3.2190247875630362,-1.0377908636561572,0.6000669940192651,0.7082988222316995,0.059076051251579886,-0.22171077575919845,-0.9043347572331912,-2.0439098197883356,-2.395948598103738,3.34527860862598,1.1906486076160403,1.1532493544004716,-1.0580348558021395,-2.1468464115100376,-1.3148480119477604,-1.9119485669628986,3.0910102682394047,0.34115857321912024,1.3685876686486114,-0.3725423867136825,-1.1349417434547657,-0.07989793920954935,-2.791715668640048,1.3239342045200841,-0.27628963285279284,-2.888558200739337,0.8155342522029944,-1.5230969428389771,-0.30635015243234737,-1.7347743880679123,1.2614199435790758,0.046386345778266655,-1.5894403495797622,0.8680116624593279,0.7988058513069894,-0.7509589530431403,-0.6111530258177245,2.4193217084400804
1.3110560785213752,3.3647825739045727,0.4671247623570564,2.250219500909056,-0.8400875417979146,0.4879054634691836,-0.7520541338427225,-1.4848198959055354,1.0331374771615638,-0.08521219751974078,1.3363573245134717,0.5519328662376596,3.6371500607751055,1.164512055185931,-1.7935883354286923,-0.904810939677944,0.1214202505295409,0.6475659726674547,-0.7334167620605749,-1.1201517928355416,-2.0682050780013355,1.7430941890311114,1.6417427198157206,0.21156437504692233,-1.6851567319524663,0.4767641459453634,1.9579048897867244,-3.33322152254672,1.9364313527351882,1.1828177065742658,0.17599476300094416,-0.9790944817726687,0.6200144233492898,-2.059142777058144,2.2245467458769523,-0.5035201862811584,0.3469232161120978,-1.8347593137107858,-1.8355387800590974,-1.343578671796542,0.3149401003448442,2.295299895168903,0.7190209383233689,0.06905975939729056,-2.4694634108435207,-2.5372355558916304,2.4179422704182207,-1.3781663762135825,1.5136359810821405,1.1299207803985458,-0.9162234969138043,-4.296149772939759,-1.7621564599101933,0.33034271132589066,-0.9032019565181116
0.7393278309253343,-1.3090989973002503,0.7923913898875115,-0.023718291507963046,-0.13833975143761512,-1.0683870701516225,0.31948717999660037,-0.8015209774508938,-1.652832107657137,0.4368268317383568,0.42103996931751075,0.20113211863467867,-0.37970288270529934,-0.6189753853862031,1.0630093653774964,-2.6447604714435586,0.43537740220253307,1.5385010266832282,-0.5944348078367009,-2.0015783222939776,0.03004548599661025,1.409452303175756,-0.07739409031760451,-0.32768972387577483,1.9714232569539147,-0.5477122957382101,1.0745638369263089,-1.2147195714257182,0.9772358826916544,1.933214824193963,-1.4330219986330726,3.2050064602920285,3.664877170654025,3.264933667502193,0.45400964462923116,-1.0662038706137074,-1.3367769525811262,2.4145904179369677,-0.4479637642294144,1.8964201536116665,-2.401742832581548,-0.1388295221369854,-0.4791419192239649,-0.07946540444559048,2.17836228736442,1.3783953829273996,-0.9182225346193791,-2.075669629873462,-1.6751643568601606,1.4476602285405327,3.0472684380721087,2.1314584360873057,0.8461716671729317,-1.464442377615256,-1.2445683280979984
0.3308926879205024,-1.8578918591641949,-0.29890120740524667,1.4074905196250806,2.25004556348202,-1.8997306843886272,-0.6241021478276441,-0.1198019335190411,0.9902752197542775,-1.4429432929583985,-2.512381861760573,-1.5039934699268243,3.8544576602713096,-0.5075571493226448,-0.3959886897549169,3.2560142043390323,-0.650391549889969,-0.4814118365421025,3.1840320769488266,-0.40554850565666634,-1.6295224773819257,0.16558099417660943,-0.666301924580571,1.1897460974420029,1.5303329061958884,-1.7308824764508868,0.02475015020831589,-0.5851068944467404,-1.2671279385727612,-2.3758054141157023,0.03995953412765231,1.4576027362826496,0.44569095542309556,0.5149869728314183,3.5159062812811874,1.8973072365928048,-3.2908946283091214,-1.0948733972820317,-1.1981004909248962,-4.248588254395797,0.5044646409288391,3.0047933183806363,-0.3584453609733007,-0.5671867159691123,-0.4040473241615318,0.8253622848697739,1.7063420775089169,-0.8330528029911104,-0.890438368753094,0.46279756217825,-0.6294848555441155,-1.1326541447931793,-0.4292065909507818,-1.3156431034947809,0.0768305287338115
2.8653188881420713,2.0317622647700326,1.427603016036656,-1.1410843496535579,0.32968683266900894,-0.7167777874770599,0.8394379795215695,-1.3616978932848234,-2.4669169898497927,-1.7509147467836086,0.5376255806618339,-0.1798340375016362,0.8162125387729637,-0.573289544894358,0.5038117744985916,-0.23771875024750577,0.9135518826298623,0.13298055419511512,0.6457938274676357,2.2129595148755437,0.11669437451640431,0.7094026763533645,2.3070532406948563,-2.9624499394688555,0.7232388751975667,-0.38094501948784093,2.326595086586775,0.4429107010038867,1.562582110944781,-2.288592766284033,-3.629492333891839,-3.041960539210419,3.023317064775161,0.7398325407374734,-1.4541580047476335,0.8762595860212166,0.35028612108509755,0.42250026180845285,-0.5641225447655261,1.4223949814873438,1.6742416497663513,0.6698343912657052,-1.3187035825050857,-3.024168079792627,-2.9327701599320197,0.2918933746848913,0.08765277751606378,2.8792663857165284,1.781771405610888,0.5509100113314727,1.3573221903468822,0.2649954798292577,-1.2482710327917612,-1.8444327427526994,-1.9042712150457128
-1.0188974783016407,0.6004710130004195,-0.8772743517539014,0.977047557269852,-0.6815045067076961,-1.75025966653494,-1.2496942760205676,0.1381520157892776,0.4121560185288215,-0.6710191984252405,-2.3935357957465766,1.6328371534791046,2.6275262737673515,-0.7112146840712277,1.4090202468163953,0.8551427946333212,0.5597724458888985,-0.055185292118850156,0.48509774421003615,-1.5419721396499377,-0.6088836550396403,1.785703323697849,-1.4242112217912433,-2.6847078735342174,-2.110000010498853,0.6780186305634684,1.981266367135552,-0.5671955140835002,0.2825468815912762,-1.7038353020973576,0.7776449488990312,0.5652292769357362,2.0119044483673303,-0.2863757847947596,-1.2752265626508115,-1.438887755996923,-0.3583522714295795,2.505944937580813,-0.5645790377997492,-1.5149545862929514,-0.1920125307236941,0.6442351906138657,-1.1743164584636636,-0.23130768695264667,1.7033120701744293,-1.6104854007911806,-0.45991882391191297,-1.1150295408553295,-0.11074719155144679,-1.4491951431977852,-0.6136057245052124,0.041341474716565775,0.49090362165361645,-2.680661491270203,0.5309392800746602
-1.314877479548322,-2.2807081622555274,0.2650556528509637,-2.522660857210863,-3.8198875364195444,1.3533999703993536,-1.067285017040278,0.19537790174943792,-1.536364583017608,-1.5245883059242358,-2.563076559276397,-0.18658767754039327,-1.338241344423908,-0.9685221568337985,-1.8202130742636022,-1.2125972261262563,-0.48828886642812575,-0.46841592912439467,1.6996730117194323,0.21800909937830792,1.6529577158515874,-2.453337998137742,-0.9916102050681216,-0.3625355503480974,0.36947879946946927,-0.3406782532790306,-0.12763980805464037,3.692310925394931,0.11170246667550078,0.6969535547671682,1.5765226149735565,-2.02448045350817,0.8493407795383583,-0.8980948584722758,-2.3742103091414855,-1.8630829328809135,-0.12010848751105778,0.6804903696992102,2.5809524254508625,0.37238383261398594,-2.4396270697795863,1.5835743398023505,1.4163210258426304,0.2745943127270913,-1.4297495824513031,-0.04664735465336699,-2.7211834897909175,3.415864112851864,0.0934990410551255,-1.7787096592222575,2.7761239887680467,1.332530987968664,0.32416853583566146,1.0544610853676517,-2.0336942060713565
0.8255000912025539,1.8868349216791735,0.2472750040319901,0.6705771764348278,0.5934355126556753,-1.2079331765419714,0.1118295337848411,-0.6814833112670581,-1.477298242257492,-1.6321531983436313,0.7800269655582872,0.14701240954915223,0.033208639993935606,1.7320927104099226,1.0449513993842592,-1.1054040646451349,1.4915503813799067,2.594854768450751,-2.2160290466663057,-2.010489943300712,1.9829358518993183,1.4914732773020822,-1.6168425717209383,0.6709444244631159,3.0577290104779125,1.5204066002326708,-0.95275751181267,1.0070859957530078,-0.3535437740933289,1.8641037883081386,-1.1786533483711066,1.7590127473710209,0.7305887419673894,-2.690279862242137,0.4758529587888303,-1.923682604920649,2.8708430023494245,-0.8269520645873699,0.2209163304593245,-2.323165522314341,0.8513065800651998,2.040457753792403,-4.823023481580294,1.0022542385601576,-2.3310875583229183,-1.3284161712214761,-1.5465127377246042,1.129051457832159,0.04445598720508493,3.6583957594234966,2.22962351544009,1.5766394596183297,-1.477647046273885,0.43006896831337516,-0.6067130816581677
2.2711376644848937,-3.532845080467089,2.8207555088690643,-0.15567978010255096,3.6868299402691487,1.2398280914054671,0.06675849529445328,-3.659876079645299,0.7301390463016282,-0.29998897036768457,-2.807433824628969,2.3319099733976048,1.45623263079458,-1.1939216834245316,-0.2766217623332339,-0.745982842528567,3.5023396296221656,1.6504854962146749,-1.1047531872997696,2.7982858248450304,-2.5758514376329766,1.389074634672715,-1.0512816398849638,3.6632365860532765,0.018251539494504317,-2.301833945368466,-1.9974714519085577,2.9806738217473123,1.4480395435269626,1.4687427779748754,-2.6532333549395704,-0.36627073646861164,-0.8614857808077055,3.035421136479634,-0.5784320099176586,2.0854790427112553,-2.1122236118695974,-1.4865025501745155,0.2828251236699465,3.3479401239148885,1.6742612995622148,-0.129662620311817,-0.9040102932105144,-0.8310767500040077,0.5281144142754138,4.068268283446644,-4.992547714255364,-1.7016943933810236,-2.244838529075794,1.1990527438372822,0.5052722391044339,-1.5192298581309676,-2.410699946007019,3.5761128857022952,-0.8372781825587144
1.5095914545093991,0.15522150021051853,0.5098306289604667,-3.0099748030948352,0.9771155110127179,-1.954573720424982,2.260502540610713,-3.302698017045395,4.766413964698605,1.0638889117390349,-0.4954176323454067,0.8752775407364155,1.7365515925373611,0.18228397614442382,-0.7647544153379976,1.3730862113763207,0.4626706116998531,-2.948080277155906,-0.36588843154339323,1.0674041329935466,3.6184214897517566,-2.591209920255671,-2.654645570317403,1.3494618211218248,-1.5417130854183978,-2.070047689163017,0.3321472849855039,-1.5518684845837842,-1.7875059395345467,-0.7888365092365663,-0.696596086427697,1.4909636008566967,-0.8379425397478916,1.1125139703885774,0.47371570719342304,-0.4734217623836938,-3.4747952462084855,1.6502347263941157,-4.269974205519482,-2.7161345772806964,2.2758892017570163,2.400851281274769,1.5303587771765361,-0.15109046031473977,1.079662295704386,-1.9103377577482854,2.2692440640163185,0.038888373365960203,0.589634976009257,-0.3122809827723806,-2.794448295849048,-1.215974336961252,-1.8481712674639663,0.3203176756459969,1.4506212761125346
-0.8189522768869056,1.9110761391467417,1.274697107185275,2.5407095576304943,-2.9290463132582873,-1.7897551455202902,-0.42290460130236956,0.30742722113818494,-1.5430120633241797,-0.4423297659409412,-1.1588340899680698,-3.32176173649611,0.8333830925098139,0.620420826115567,2.7624461772754074,-0.43572694887932917,-2.901339710961237,2.101761654511595,-2.3744028939436217,-0.8043388398974183,1.7630033360876038,1.4616877405639646,1.9977892639841754,0.9038874307101962,-1.6874136748726773,0.24424842851266917,1.7036601950021133,0.7576883541818865,0.5144291992391823,-3.180626236939145,-0.4708804288605665,0.6798053327897731,-1.5730573547734794,4.140412577633493,-6.258779130298182,-0.42689423091432116,0.20946717527055142,-0.8995092753265422,-4.298564148164822,-0.566190277881121,1.5012107767510896,3.0114845106250163,2.13226474430847,-0.5605629099334795,0.2870094344954226,-0.9774470128379268,-3.7865404311129676,-3.4652752560999502,-2.7538077129314704,1.3550707459587932,-5.849010047911349,2.521206272564494,4.487910146405782,-3.4738185062754976,-1.9611293490462678
-1.2757256489857074,-1.8565684132875564,-0.26989937675558884,0.04431049965135694,2.0728369659586092,2.67713439709787,-0.12049455802856653,-0.06801402174556002,-0.8617855959991527,0.5530264326403515,0.05767414463691307,1.717948367895718,-1.989463738062799,-0.4011478659352781,1.1901296298555368,0.46209648848969004,0.7353644918629916,-0.784730808314929,-0.2205705449356344,-0.8062694868202213,1.104110672885643,-2.518966311606379,-1.156437481115312,0.5409300812192421,1.2991067084559478,-1.7906287260151204,-2.986918930542651,2.730959137652397,0.15500378201779375,-2.3757678008445984,0.7177691191868243,0.5621647616069566,-0.8624808598182835,-1.6061505825695546,0.21114032927364154,-1.488339428225777,-2.3920810831174744,-0.4313532582524113,-0.10350089077072229,0.34537885114801287,1.9247621571578475,0.9406265470550426,0.95492152289614,3.5261988980143744,-1.7021909597655673,1.6663816961922604,0.4849222878060893,-1.2218300032090925,1.1530874593101168,-1.3737640203801564,-2.8708662015541955,0.6568825522915106,1.6012324310554116,0.722469168351603,0.10158425239771283
-0.6654191377848272,-2.0382529685650708,1.310271206251285,1.5704220891540113,-0.553718053086457,0.770949830832273,-0.22527876679135778,0.08290458449949553,2.4344509920234234,-2.8430598912905736,-2.358972860847982,0.09224170589896681,1.34539382535021,-0.8640175557981682,-1.8954082430437578,-1.4448839927550745,-1.243939605876355,-1.5447917058923504,-1.8126963270766387,0.8545377532560291,-2.434367101248212,0.14038944439663978,-0.12768113276950793,2.0674067890058123,1.2544582703906544,-1.5446177546305075,0.6164168417449449,1.0517827807373306,-1.4223351396321933,0.5009374915513387,2.3682245877761066,-0.26460192840499513,2.47419510656244,-0.7025290305521379,-1.8154196167928487,-0.4571252030479883,-1.260877396329341,-1.0807200170540883,-1.3588072100694895,-0.8278087670780858,-0.8126238073973511,-0.2630736986011875,2.3115581245321923,-0.9273061611617156,1.0516674205004735,-1.831670750778626,-1.2737141690174578,0.06026281728027332,0.3443324759400199,1.6141437748448701,-3.0657853392990146,1.913057762375391,2.0730606871862,0.4531637437479013,-0.3033987397386541
-0.19757620405597884,1.6082542811796585,0.0851523491451031,0.8033980391612182,-0.8910473605934877,-2.220349116950045,1.0137357784081815,-0.3269556886377129,1.9890184526736943,2.7957910376290145,2.2460637924667526,-3.239568629067815,0.262019219845049,-1.6390961642198882,1.1498435847079573,-0.4873945275302923,0.35622231139486404,1.6874109501670707,-2.622440326470389,-1.592227541611049,-1.9630742448067704,2.6127765263149225,-2.3962813773141485,-1.4899836113754037,-0.7877551887199867,-3.1531302373664873,-0.2471802582292312,-1.3653250956318843,-0.48705232970493084,2.493534195484258,-0.7843738917692888,4.168021852963342,0.9682389693626373,-0.41038948466740693,-2.2561296532261097,-0.6073133544359591,1.1977406585747614,-1.1862448661132419,-0.8727242262035961,-3.1952895742895517,0.9948519948708263,2.097431499557133,-3.5163422443549917,-0.05748031634739443,-2.4772716265236436,-2.8921469026911906,1.3948827049112773,-3.1734916525092416,-2.405580587042421,-0.8956052947917085,-0.4241427258630367,1.8409519551095566,3.5217453452280627,-1.5625810097812662,3.508549748528059
2.93747797885588,3.606381521296145,0.1284229580807005,2.3537569401829344,-2.059867737370042,-1.938782218134543,0.5376521574615969,0.6047673594366728,0.6610793526072204,-3.073698480365377,0.2948140415339253,-3.392209008652534,0.6244912606241159,1.6913796201860953,2.1569946144170102,1.854469817275912,2.5069853612887374,3.2779632394150298,0.32140728946974456,0.7481141712166358,-0.20988679922877074,-1.2529174708881408,-0.21575954000296332,0.5293068887741577,1.143674047499338,0.5643227477709208,-1.4142386189534903,1.5512836535342387,4.187211138909412,0.6361229100975359,-0.20193437585540236,-1.4689091859483117,-3.2662221987679825,0.1973164758034546,2.7475927538147173,2.035166705104994,-0.8005015173599204,1.0840658204966502,-1.7276192392339909,-0.05584980655914033,2.538452639770772,1.5666096839396368,3.9298878716120464,-0.7298915481257102,-0.4861863754767445,-1.6631698267930515,1.4523463342728773,1.0161934501241294,1.0542300552127004,-0.5203357705709181,-1.9660996438874878,-2.3179884631012917,-0.10934342954930609,2.0940051516824436,1.4698345342035417
-4.281022820591576,0.37409076124845125,1.7281232397039068,-0.3220118203201393,1.0230042929726284,2.7981595657096214,2.196620828496636,1.4191652066101539,0.8293514052597557,1.7393871862103862,2.403413093213238,-0.08429455347104217,-0.020705337866331372,-0.8323563067801664,1.7458588457651993,-2.5897307496619586,1.3864147619174243,-2.0042986679497266,-3.1513055913263415,3.4892818207178546,1.5002840176458887,-0.34182737506407324,-2.999384275726374,-0.01487782277383086,-1.905448637692071,2.6384735988932073,-2.6640150630795043,1.6076050244315825,-0.9770217727354439,1.5502213881505178,2.2575072303811474,1.2642227752396538,1.1590144233760287,-3.695037532100676,-0.5874265122443978,-3.211847074854866,-0.5857198020689593,1.3773915451460688,-2.3554420486243544,-0.5798190357510531,-2.3093789961301123,1.9267525744081189,-1.5421421995581897,0.32977185260228137,-0.4081372569668435,-0.9226816501374403,0.4534019296617145,-1.601913624484304,-0.4785351814979047,0.7259750528432088,-2.229513596079468,2.5878381970990545,0.9509554980616562,-0.30054433415723036,0.027366302896019122
-1.3850106571459935,0.06773284547707246,-0.6336643522231928,1.2108446675412943,1.2900091069747759,-0.3848213060121466,-3.007681181562495,0.2012297581009434,1.4441798335744187,1.718984736327527,-0.7414030068070127,1.3405686524869016,-1.400200478333603,-1.1283298359937672,0.6174748336437715,-2.6410878104913187,-1.17394802135693,0.07613874408229165,-0.43631784018194913,0.7194635145736084,-2.7937413877521804,1.580098125444184,0.007730399598510829,-0.6440044905499992,-1.2990252768171455,0.6541435485251783,1.6287301972957104,-2.0667442553050885,-0.009010520965185047,-1.7453466281406207,-2.565250688002341,-2.5925235468556793,0.9371512518064514,0.6757634201957373,0.823337531216604,1.3359123523643146,0.7575344375774992,2.343873802000476,-1.099197814951103,-0.0059534021470865365,1.658231869879173,-1.8738036909028635,0.5388812215466416,0.17610404800686072,-1.0328241570176158,1.2733887878825725,-0.9069438286201974,1.886717456730702,-1.527613103918828,-0.4584638954787749,1.586230626513486,-0.14198636669714915,-2.97075343555133,-1.4745074291082916,-1.4569524440891746
-0.6575472572670361,-1.3747827472302565,-1.4325552776125234,0.36303854679185776,-0.43655533213193265,-0.07581420182591378,1.4915039181873473,0.6279685879958242,-0.9226576348802854,-1.21740786498905,1.2934905411578532,0.8284009941603558,-3.375520721321147,-0.6834092097295308,-1.1185127906484154,-0.7793530719342096,-1.3626888377494628,2.8976585585060133,2.0273775625717274,-2.5371645418736124,-0.14733777496800027,0.7152152528040514,1.1951503919011892,-0.5517514175124234,-0.19929990232215122,-1.8090650419861216,-2.32308856466155,-0.32578055033951,2.509136082091755,-0.3286638741782713,0.2952441832857424,3.128733216974597,1.7851916191672126,-1.693715160238118,0.034929652076689355,2.814957374105143,-0.7776970661139633,-1.7090921506425993,1.5921346741789761,-1.363296531873325,-2.739306109547051,-2.2878158975415435,1.2742266150811137,-5.329923744258983,2.620351825760888,-1.8294562604765445,0.6852907853186876,1.2259652285558218,-0.484994708441615,-3.170765356468684,0.8786613527335801,-0.60287094114315,1.6644027196697153,1.304329401556954,-0.09318555399863218
1.38120871153183,-0.6457023311823263,1.6168148896589811,0.08984675738623409,-0.7691763737983117,0.04540882119451806,0.9316962297819011,0.06394879184187446,-0.5775174971823555,-2.062250459702843,-1.0313014409482764,0.45586422774809104,-0.7432942600871464,-0.6027696733194331,2.160754363263828,-0.6380451824811487,-1.2664869905120555,-0.5402665280374335,-0.13735545907138524,1.0960479519885993,-1.6449276019380241,0.03091538423852656,-1.9122645230851985,-0.47795527853968783,-1.4547621042714864,0.49557693867455055,-1.0157009584013272,-1.365350769597419,-0.5562974041729902,1.0556459862106764,1.085762955391322,0.15357331355895174,-0.4713101110230316,-0.20248383339214696,1.7450108507468347,-1.3407600593267825,-2.7125820591147116,-0.9006124387307746,-0.5637836235781414,2.3566962387510193,-0.3260024506025331,0.07913728130746579,1.422567403649438,-1.2634134857462276,1.6992081028512669,-0.5276134336045801,0.903400702861985,-0.3269928648083544,-0.8976325140839093,-1.1241298546470415,-0.7623496223417097,1.405884411527969,-1.5028802264791574,0.6532786983374058,0.38056008032626826
6.484648383779795,1.8228363229870201,1.536374023835215,2.3541394277765,0.5053275189254323,0.9925637940799221,3.8134036485263865,-0.7801473875632606,1.2507258749991348,-0.9755222142461744,0.6940645271086986,0.7286226319269037,-2.527295860278596,-0.46272734764471113,-0.4230509041549192,-0.5131426893838189,1.7721673529619641,1.0532595030546694,0.4965020328329805,-2.177304095993608,2.919949280003744,1.0741654975473776,-2.5831245512169922,1.2287304662636647,2.3238274614065006,2.0683800401285057,-3.843860987349293,-2.2316732637440557,1.9102067335527688,0.8448518607922809,-1.5732052222927135,0.6477843119852768,-1.269862472359417,-4.624916000464445,1.7469302992743305,0.9511042773602421,-2.7546501242398036,0.2866506827317382,-0.42003045213722623,-0.8288688140002103,-0.1144663617655756,1.4223095186875567,1.362933253564064,-1.5097197820314272,-0.1058435994000045,-1.8059768881134703,1.8582288447139865,-0.4374459514364621,0.07915679211508013,-0.06553181071301137,0.6431543295351565,-2.704194324083941,0.6808767387910376,0.9377717250926567,-1.6059574214560075
0.2558414264880504,-1.0058142697735124,3.452869859749083,1.9496029221532043,1.741745885224574,1.038765917404393,-1.062080106379878,2.2626109458208794,-0.577975546072015,0.8087352747328382,2.261039853205812,1.5349489436285793,-0.8876272376805691,0.19172486099894848,-0.8443249045745929,-1.2243834663019986,0.6386665385160396,1.0679722492619295,1.730183297717896,0.3034413803123439,0.5123375453297058,0.8489359186100642,0.35723633115167697,-0.9062257972430463,-1.4418515392856885,-0.21398391966302163,-1.1408259880771472,-0.001952585402510507,0.6021300443235881,2.5685235373394337,1.3870883879151583,0.6061043871738394,1.2353398023122433,1.45441502656324,-3.920835568695504,1.2520549411134239,-0.13566708175935763,3.4795988780478857,1.4247453776512802,0.8994003547961944,-1.3619246786648718,-1.684218466754211,0.40290494736069116,1.3719669073668117,0.9265897418773258,-0.9228072343591573,2.2082785288309066,-0.06928650472042598,1.478158221646951,-4.566539094471516,1.927271089518247,-0.7572094428932521,0.6017092751465909,-1.3206840335238936,-0.7243086151378108
2.217197059156551,-2.096351082422071,-5.825471106709316,1.0925061475343756,0.9222321768858047,-1.9818431573873099,4.1999264954988895,-3.7072808087558085,-0.0793871464595547,0.865366654097065,-2.982743027524865,3.8930438001944028,-0.2597251700876417,-0.2896474592965665,-2.0765859278527086,0.8709655914357144,-2.572295863904658,-2.7337076048796156,1.465443613223399,-2.515209924907768,2.725671987452855,1.8438290424151214,1.0537932313973983,1.9358131478702993,-2.271139553228918,-3.979450218900843,-1.6912338939202096,3.7300433663226573,-3.252569343406963,-4.017799592555319,-2.5177432223826224,3.0568404842805803,-2.9923922022291873,3.3620196651828125,2.220616890927758,-0.6796803623935949,3.0637103483735926,2.8463379223720433,4.279235649031965,-0.7404967452706964,-1.8046011864932006,-1.6588607198883447,-0.6356970566062081,-0.37239304618501284,-0.02975118490525674,0.9231476409660732,3.9929959988159918,0.16998221466699764,2.239892816643996,2.3984782073364097,3.2827465841512393,2.674789754744608,-1.482896443864518,0.9867219624466785,4.32392360235772
3.4422426507099813,-0.6954248515863436,2.801673811628248,-0.7388317586735099,-0.29884194974810463,0.6700264976921829,0.822837280991343,-1.708676395378208,0.3298403838991866,0.5435859452499231,0.8952501596633616,-1.529550326232552,-0.774226939792748,1.894834068865913,1.8196148303317399,-0.8453572411716281,-2.198826476025541,-0.18085346060034574,0.5228608177239362,3.6383092754459643,1.9993065860098835,1.4096665352070337,5.28784950495433,-3.5173132605538653,0.8344965421587889,-0.7761357830791862,1.3220837975320545,-0.46373685088426575,-0.670861920752341,1.2558749210404987,-1.207874870082047,-0.006689860042555183,0.9540957208549452,3.3543758090272493,-2.1089422465929637,-2.2648622070995788,1.1837731956825641,-0.9206051179791667,0.7506939810617673,1.0647165435881552,-0.44693055864701603,2.18668055172066,-0.26903726044166204,-0.7380857625915658,0.6066813923924153,-0.08988777289008952,1.1648087133025893,-1.152167674063093,2.7335368889984046,-0.15022080279820693,0.5542819929140576,-0.6624026148945303,-0.581406731152357,-0.4035762750652647,-2.2710538956199535
-0.8512717004899496,-0.3846590349065103,-0.7776892140149533,-0.7761394805493602,-2.421472810565806,0.3885071077782507,-0.6518757994989781,2.3447095122561668,0.9962286890257096,-0.06408614516783676,0.16182931995464547,0.461567619713517,0.7022251889697643,1.1032114536978896,1.2389150890807046,1.9293720905400125,0.369616842256271,-1.1396776427554447,0.38993194414155596,-0.1846624899196537,-0.4224203109896866,-0.38064232460244934,-0.27483527164818006,-0.18218470673740503,0.3773633301066564,2.1449905154163917,0.9206542168519375,0.6929535523437407,0.6769167728847074,0.5636829624265902,-0.16291454218142654,-0.9454458279744195,-0.24977152979968348,-0.9824651489312639,-0.4642561427559544,0.46816503198304604,-0.19162558658744516,-0.517646825587373,0.4852677719463803,-0.004262540927405187,0.1357025267153382,0.827631645918037,1.2040273231396568,-0.29578820584128707,0.4260429497954606,-0.16224866081064102,0.8789011740217737,-0.41929898724337966,2.153674468613996,-1.9090680605852035,2.7929946319902554,0.04209859810370786,0.3196543215830338,1.2632181997555698,-0.79951438889974
-1.7211428396918296,-1.660819928609463,-1.3058917709185376,3.87178457186887,-3.7635541014128293,3.21379070675102,2.137615464746772,-0.5353763963372361,-1.6269111832421892,1.0601690766810221,-1.541186668000032,-0.8928566615881681,-0.9690510946794713,1.4686983526989492,-3.2126131491597785,4.06572874859865,-1.8672147376675088,1.5014616056385264,1.8592967540882335,-2.168376136070706,2.699934270037286,-2.8555778475876186,-1.0683905201998538,-0.6785284757402416,-0.7236587040608907,1.0662375013123508,-0.06703661231796627,1.2799706205778791,-0.8126239621063578,-2.908443471181524,-0.447836005304005,2.836098087813155,1.9525335361602438,1.42658990185733,-2.3016199176108136,1.818845930017847,-2.4165303711798756,-1.4896415610857796,-0.15387225222571993,0.619806369039926,1.632076277723901,1.1715378160963243,0.25186720197171136,0.7468265399250823,1.5599445752050196,-2.4577672892705444,2.4464374156908413,-1.1023257460354,-3.924790018352611,-1.4097538145906694,-2.709833229440292,1.6212135583842682,-2.9808931814366098,-3.0095507814167357,-2.21170044436416
3.1733302610432554,0.3380277030999309,3.1942436870221798,1.3278264465490321,0.9190894737297014,-4.059821988659651,0.23650816734655417,-0.9514988394652919,1.5174798213912095,2.6011554181459826,1.1113582558856394,-1.1651155042888974,1.3690870333756389,0.5976929121889807,-1.433057981364592,3.3419675578317825,-0.39649130269378124,2.2628523039264623,1.8648751545962847,-2.8239221021080927,2.208072322486441,-0.5918536139653675,-0.4096088692652648,-2.117211402007396,0.4637512582713627,-4.644045204729177,-6.622272950808093,3.3398088957088135,0.43607379299260934,-3.629242858138633,1.0207957809729145,-1.1146514922881832,1.7317350047715314,1.257177478909343,2.9089899650401696,-1.2966475116651597,-0.3075651868656679,-1.2297430115424126,0.6223755451493348,-1.054815780482885,-0.141274343632528,-0.023097800387376254,-0.12343697303355305,-1.5359696601943704,1.336822015124831,-4.154154670213896,-1.548623387478962,-0.32790941188351486,-0.7522131122462647,-0.27579539419770016,-0.25087971198193515,-0.4950514679502696,-0.10415583629648542,3.4010989711498416,-3.4696758731421125
-0.6613774972540294,-0.16199626538945663,0.7381866826934587,-3.4975806035804053,0.8595087181536776,3.3931402462728038,1.9015860794524588,-3.2570449041926124,0.5104540254611306,2.7166323379578032,1.298936858991459,0.7645226331887498,-0.8596020134983365,0.6830816682768927,-1.2569309024721185,-1.891121030064658,-1.296379396204335,-0.45043954522793583,0.9088044474067627,2.1799664542244463,0.21929443438630494,-0.3487406006493594,0.5868512355224691,-1.3270564671270353,0.36687413508949934,-0.7771817022308695,2.8849217834324743,-0.4002785345466105,-0.5023997085541201,-1.0673521583658578,-1.7024650692154002,1.7710160785243043,3.482649148276394,-1.9594295500903123,1.5650855683004976,-1.1266405827452972,-2.020826302717272,-0.31041075990971284,0.07355340327446001,0.9731803290123369,-0.07212913075486603,-0.9126918225500484,1.4778913717909015,0.5603799669706301,-1.2300482222192275,-1.9103070616026083,1.5164644012886752,-1.447899542668889,-3.8229753272409406,-0.19005661294378243,0.8463583718882625,-2.7571856833991415,1.3779043283339627,-0.13486083302999272,0.38412684015213494
1.175810783561429,1.3063922208478629,-2.7095259404312717,1.8610294609144271,-3.3489344045831246,-2.861958244839421,1.3558470967894651,2.822587754337327,3.9990492815696173,1.9939767099130679,2.520271032499874,3.3070375555221028,-1.2603422080197155,0.33930659879885666,-3.191993364797593,-0.6477144207397126,0.7890936854954447,2.391767404202363,-4.577422928566791,0.6617687094851245,-0.016424435559059293,-0.904549167148471,-2.746858999674015,-2.477484850149474,-2.3880917480345034,-2.2864514898920514,-1.0498882401429708,0.6878689049454969,-3.8606859604864554,-1.6276520543537907,1.0926099649247227,0.10262350068395197,-3.6748617062903213,1.444157558546296,3.5052484348355986,1.9060788474688017,-2.336282257881068,-1.4347133715042788,2.3748958067405606,-0.4653465929486207,-5.819196759487497,-0.6790300581800708,-2.0625966169394916,-0.19634232926004713,-5.041962987644559,0.3593777237875693,3.2209371944763,0.8586478767657593,0.35230380169278946,-2.884995801075431,-2.2382723038674968,-4.411550155987001,-0.9116862142380534,1.1797408886160015,2.087088645470742
2.6517269669134604,0.7277361042473662,-0.2894252745256028,2.6390750288928433,2.9640233574540353,-4.742625168767323,-1.2523759920347104,0.8484014085436038,2.8825369770476557,-3.1975156229549553,-0.0334158261715099,5.193961193163074,2.3178491123407214,2.102977017766007,1.624170258369942,0.4404870453266994,1.4690798008224344,-0.2911210633688321,-0.3437139266705229,-0.6868280497531873,-2.919119970312721,-2.649187450931428,0.40411400540730313,-0.4936851804237787,-2.2855010733344105,-1.8194937790004646,0.25227463273604434,3.1432177640413546,-2.3133365090298907,-1.9209168902771048,0.2011308469164803,0.19233830345665215,-2.3951909049505122,2.207878047521039,-0.9314159187006039,-3.6562903148528405,0.008161988675940991,-0.10335129979816068,0.09822364863555705,0.12693551892443714,-3.3050062455082334,-1.2806820252916735,-0.75775167161456,4.3369737673294635,0.7409267743491793,-0.5719436681276981,0.20884493410146682,-1.319941548389973,-3.966499835440652,1.0760765744367913,-0.6921631336782357,1.2916422777226413,1.7340660943055595,-1.6858895114762082,-0.1397972247394578
-0.38386634260418584,0.22320099005813582,0.39301549459748886,-3.2341578873124512,1.9760631795783863,0.2196587267320074,-0.9817469134275151,-2.3372518601780228,-1.3739090852040838,3.1010287321810015,3.7114730651144447,-1.6499617313553308,-3.4377424048769147,0.8126740726142938,0.984135363439061,-0.9087800765632642,0.1751803238328582,0.003977917993406119,1.193058579261591,0.3261549344528035,1.8640093539910685,1.1502251124439429,2.8022573060257,-1.900683306697742,-0.7243992907454078,-2.918126082675436,0.6866493480202103,2.437996429843347,0.14069073817559274,-0.0678347323672205,-1.4879566984652526,-2.7790458594400067,-1.3881344429787148,-1.1983569697779803,-1.0474590431247373,-0.9243297141946852,2.003437649904566,-3.0363950273677305,1.1944311845894067,4.40071597139647,3.505274225365624,-1.4807460971792032,0.08501007347390942,2.6349712059206456,2.974713818388513,2.6193704018356847,-1.5015057385111128,-1.0933153966457643,-3.0344962272296354,-0.6098078058370403,-2.8557667988014845,0.5740143945583455,0.5830568109123418,1.1230007119459096,-2.236059128986853
-1.201608167466708,0.0987462638000935,-1.333609537609463,-0.04595000480340354,1.6792075113119853,2.0070771313859175,-1.2300216883159982,0.04273249400089152,2.1231355790625606,2.9540217361765824,-0.30362610914964233,-0.5958471248752497,-0.7657105656589053,-1.434552791593693,2.1235753665948014,0.17188649193384095,1.27741213387501,-1.4322670794039085,-4.735466364589387,-2.6308914150959866,-0.35872085711729795,-2.7828778288728797,-0.653010452291831,-2.141170448586955,2.5639596005345644,-0.07507754577534219,1.2786887040009576,-1.4899215843096758,2.9233148307281716,3.5509690459520007,-3.3230146986313227,0.7384413385733432,-0.22075137828943023,0.6448596760391724,-0.9096584009448241,-2.4347532042657702,1.220245205475158,0.668733521351076,-2.096247467731272,-0.6075579482038768,-0.08315174696668286,-0.31880879526001477,2.7785030297574385,0.11331070630201341,-2.591715496386531,-2.3202093865631874,-2.7530841553440846,-4.510437818858018,-2.5622724275222013,0.2639731707112581,2.8609262090437353,0.1533624455742985,-1.3624396469957667,2.4473237524607248,-1.4136658871329422
0.07713925655119294,0.8695220132942626,1.0095614024010493,-1.7660172988816871,1.3747313458101806,-2.7059802622382536,-2.6099039492589817,-0.2875903927291609,0.5586981416621536,-0.472148140679689,0.6121303246737787,0.28940702961274767,0.6928348643294104,-0.10244853398185183,-1.1799835516485624,0.27453673890849645,-1.988872840548817,-2.6439774430436485,-1.055821488298324,0.10569445843482808,2.684493517410759,1.101327863667355,0.4689968987716651,0.6763765170031357,-0.05933973944734999,1.187789117976844,-0.5456034225287809,-0.8624936137341285,-1.9458848375876077,-0.020137962474148285,-0.19313590111335435,2.044991306107169,-3.6253664353502195,4.26068978728609,0.8089382694764498,-3.3250552192933727,-1.2192461455737766,2.2741244448608575,0.9343788766550267,0.8687752573015439,-0.5002398092370758,0.03728412385446874,3.2180584085442248,1.4756930076483696,0.9024540263405376,1.2498230353337956,-0.5419315985718168,-3.9185603742380466,-1.6765435288817498,0.42547930872693984,-3.2368749150496936,2.2532999481307026,1.3253838227457553,-1.339567922437761,-0.09007932122799216
-1.3362960513349593,-1.0694227966259497,-1.7040609887130493,2.2284925308284778,1.176295325500957,-2.2231872031727637,0.6681950998948014,0.9569271714301163,-0.7439370483342042,-1.4965093612307236,-0.8144968636340967,0.6540194988681086,-0.4974963878013379,-0.04068175823091257,0.567499899799763,2.0846675931692373,0.30803742859399574,-0.3020590224149061,-1.6231217316604727,-0.9405836363538715,0.9079765903589393,-1.755848074322055,3.1932903768294003,0.295148626471453,-4.931020486180306,2.6817762696943124,-1.6377664925837978,0.4694348666198132,0.9340037036305812,-0.5779040811880582,2.7233031092784152,-0.8048278909434466,0.47884976302745624,1.1506080911806735,4.6833108376821295,1.607324627011239,0.43754879742870906,-4.487179862989748,-3.15014567806207,-1.9310725797825403,-2.826855509079487,1.6051242578589586,0.14196762700597068,0.03312678284790739,0.5469773157932313,0.7432027178814502,-1.2152017782294107,0.5700131379691541,1.792311129829538,-0.5621723752137079,0.060435227370674034,-2.288411367200481,-0.4867069746431708,3.5684957466705916,1.4888344476624265
-1.6032569078117536,-0.022038206305445424,-1.7306195884997777,0.8447125215633848,-3.7951401882582876,1.3840638548093385,-0.11282154474238994,0.9593704738988651,0.1789279986425276,-2.390539772684713,0.49999880890786247,1.0439017142522318,0.48365499941675605,0.03804102270272357,1.8141832609658828,-1.2597548183760992,-3.002817696807771,-2.3273658501387993,2.6019521988292498,-0.7406852645043943,1.7302913461958727,1.2271382476164632,-0.923530102177999,-0.4145848481706396,2.9951196558999573,-1.414496443982811,-0.6413387234624878,-1.4490563207644973,1.8984329230717572,-0.5441720019326834,2.170860866210978,-3.069099430316675,0.007108594154172933,-4.671216137062133,-3.4054784862716097,0.12320514747982449,2.3969550067766856,-1.3537197871931779,2.9188631476871505,-2.5957195979441794,3.4195657481484876,-1.7297425877417019,-1.589740374561862,0.14490083081785585,-0.30741857029393055,0.6402694197872821,-0.4245738959504366,-0.2977418882291144,1.4114851525521994,-2.9485990485709075,0.34843018282977856,-0.5906708659007319,1.4098628156226154,0.8688639488069398,-4.38793646416473
1.7919942438103145,-2.2881840513227205,-1.5423735559070288,-1.7522550342607957,-0.4964353842571349,-0.291149819101083,-0.27122347529721885,3.730549508248004,2.795319859416479,1.2050428707745178,-2.966264126512846,3.330420506124722,4.941691225697145,0.40183971994483675,-1.3735350040586456,3.4987571267617104,-2.9078117861915347,-1.9489358917079596,-1.2057480728372718,-0.6309203602932848,-1.3537706839930461,0.49698792605038183,-2.1938964098616616,3.535489599399641,0.484729887336723,3.3514563322989406,-1.4799732894363826,-1.968518373123794,-0.07112208851812911,2.3324323466456622,0.9260239094417345,0.7402472247030022,1.6109694214645947,-1.120773875766998,-0.4048275870370529,-3.6290732927849305,-3.7681716212424448,-1.0775342292317174,-1.267387935803828,-0.6244408700738889,-2.012779534775555,3.545444921952023,-0.06823586262422537,-1.7502964448313072,5.183282278201074,1.1871658547906994,0.08551071984761505,0.10037494635810248,-1.557866358922738,2.1035159110039183,-0.5596409726473528,3.721296654776834,0.008503651829871246,-0.23537970840965997,4.770315438359485
-0.6902139391062385,-0.5308914642540983,-1.5829873852763585,3.6346557134147734,0.34920411510460025,-4.024206937156959,0.4632967529865008,4.063459758207071,2.432753725530929,-2.236900342548508,0.2287632696206839,0.7423376530283334,3.1165800386886304,0.05385191867184427,-0.3170989764954064,3.661400144097743,0.4089446071532551,-2.7726578403047224,0.9996161657903503,-3.1689096111165904,-0.2927244008366563,-0.15993296309533883,-2.3513473979326727,0.19534016938731252,0.40296895614055217,2.227221147811081,-2.6271934957633314,2.076680468436574,-1.0109917739170662,-1.0074260173843352,2.5614457059065727,-2.701792677742501,1.5302361933664748,1.5344791300478553,2.562167728691056,0.34126573543343297,-2.3834154069862983,0.006075849979894439,-1.2634330684658537,-3.361851228381177,-0.6138568556799776,2.283293964885722,3.6457691128616085,0.8674215983420572,-3.381091526279163,0.6951522424137679,1.7835655728838822,-0.9621342278961739,-0.9757143584460694,2.296626594296112,0.6073249678985287,0.12357034486670983,-1.4952779690202138,0.12967983811460415,2.3592881285600815
1.2575059463296208,-1.7961738955939337,-1.4933429197720112,-0.07812375675213151,-0.5880026233741615,1.966151726415892,-0.42005165566611213,-0.12146645072528883,-0.8972340354729892,-1.0792060938823929,-0.6306566127493498,1.6105521399486846,0.043202405550062495,-1.5372462635153814,-1.5177090863676141,-0.686978762406707,0.6434457717672314,-0.02414970381470062,-0.5623966428996633,1.8230534381801171,-1.580912287818479,-0.36847343647787967,0.8358955172491078,0.5290057539901891,-3.1467123370193955,0.22823421872000688,-1.8374205094679255,-0.35657823953053763,-2.4498586475011703,-2.617060691921312,-1.5662156511449927,0.2629949557031895,2.0701847712050974,-0.41862857274605736,2.190399831777398,2.1886425573237753,-1.6997327130854272,-1.476558507255893,0.9000017087045171,2.908600546393875,1.8904045069892745,-2.1776801055732857,-2.5413893139861856,-0.36937455094954097,-1.5232190374785461,0.19083238528109253,0.7211280122350695,-0.8438298690689474,1.8891219727320518,0.18804660240527474,-1.1052771351235269,-0.4209184855715098,-0.8038423932903047,-1.3827388415915218,-1.4858065877727153
3.0585284710660323,0.42163948823803815,-1.6198021130322062,0.06514533232435125,0.7772900575423619,-1.514570823673558,-0.4449757813424064,3.345815697327002,0.35642371851297616,-1.045278407423907,-0.2919788397039225,-2.364980493833662,-0.901290670735812,-2.7745681429006357,-1.6127227166031393,-2.271410642446201,-2.2141275618943475,1.1769657136941885,0.7976414964902903,-2.8484877126303227,1.6591042923356287,-0.9004053023105738,0.052867423200997694,-1.0917101260023963,-1.019666546033,1.1323533214035444,-0.5874065852583757,-3.6401847193346892,0.20352153135118908,1.4100191580605754,0.43184284977667126,-2.3608625605888904,0.5221825883401956,6.261686159040164,-0.6406029278198845,0.9971512887149494,-1.7451932275360686,2.018879135966705,3.986661668357727,0.344375154671037,0.2100860149048236,-5.413461575739735,1.406650992698823,1.5580521852349192,-1.2547015553674334,-0.011852701497151624,-2.249083476307172,-5.942698545207627,2.4027746687906837,-2.1761773993820244,0.7196877367891443,0.624340135384531,1.2152318253015575,2.0049286926765713,2.296485613265137
-1.6205816779126156,-0.33156024125789646,1.258344750611044,-1.0989633526180655,1.314527278950463,1.3847486123092458,-0.5818958849777767,-0.35720244150282393,1.8272485730312018,0.4833490748759516,-1.1497802935178734,-0.12276573380423812,-0.6327128419431668,-0.20676622635832304,-0.5187557761174446,-0.6884954738729769,-1.6272331259234367,-0.8487443028450063,1.3875307771952108,2.74720345200644,-1.1400228870843243,0.21220231172168566,0.9924586377714191,-0.9651989215106813,0.6707741607289222,-2.445977925740106,1.8653406554174707,-2.101866368912974,1.0585943093279635,2.054839527582242,0.9631114584271997,0.35082834913083816,3.3343361353833414,-0.7701528301810298,-1.4359071160095325,0.83986426054432,2.0674523664067723,-0.21786374583598836,2.212178477163964,-1.8699065131768793,1.1258020175740384,-2.87311997297064,-1.5247735818148973,0.06910732569861926,-0.8026007986984603,-0.8232003758429892,-0.29967368673787304,-0.2832331117430268,-1.0838981631907236,-2.721307392611826,-0.3429624738230041,-2.7411919683929864,3.5181243791972543,0.4470734009172729,-0.3612217799707619
3.476864258754755,0.7373512004120177,0.29159528388772904,-1.2015784694630827,-0.6128433328903844,1.1511352907521506,-1.3881316648600013,-2.590180178734539,-1.0061004212334683,-0.18351241562275927,-0.1921417720469333,0.25465154254466843,-1.1056703445485474,-2.4901187228649855,-0.5665243994621255,-0.06893887649802277,1.5081752744091805,2.721560248403184,-1.7059611914363826,-1.4315795844827592,-2.627057022949737,-1.3284264435482849,-0.18642838296033998,-2.1364574730803234,-3.0802268458896314,0.21405925314122545,0.15863484086351196,0.7596936420003629,1.3311265012565288,0.06451680501086281,3.019550930669309,-0.09287538299710028,2.574676204901335,-2.08749936624699,2.4016067861717474,-2.2110077504796073,-0.5189962792654066,-2.788212807909428,-1.8184586081330238,1.7667494175192382,-3.0715772630514695,0.10449700505005598,-0.9363748416145808,0.3848234201497231,-0.8013131706828175,0.8024692623143574,0.8183409456492918,2.11324139374435,2.1775458853083443,-1.1445918329817222,-1.2981486746260702,-1.1481898821709864,-0.5176057118972359,2.7512167663967464,-0.4739621937387856
0.6894091692544878,1.4908520148166573,1.0953156069039867,0.04399260779021195,2.0294854795548183,0.5889992272468532,-0.6499095910845529,-2.694163482396294,1.19440656499714,1.2031830833046409,1.7896441205402935,-1.4183158807077403,0.7225973243526823,1.3587169164938335,0.18904404795046548,-2.113483119103911,-1.0259079157648794,2.1308150740209006,-1.5595257629564683,1.6998137518198737,-1.8976536044484489,-0.9955692009468228,1.8274201357671735,-3.7827774597369945,-2.393159799081021,-2.462760969853328,1.3908489956908499,-0.4954227812591427,1.1210674084468262,1.0075381512741495,0.2637577549082366,0.5835136383488091,1.345682024486422,-2.322527981247957,-0.7207133457568322,-3.145310552138073,0.5651803674627743,-1.4157539738901632,-1.8625796081837913,-0.15316384596910773,0.21316680998746512,-0.8427285666631721,1.676940067195071,3.8001890091537085,0.41095204989040096,-0.09068501055773823,-0.05330470190450775,0.13457950345255223,-0.1360656761856723,-2.344219365495943,-0.6437015540951512,0.15127615652660564,0.4233986611436466,-0.7350864708023862,-0.5616158139658419
0.5151879107926451,2.6046102564227582,-1.3681618763416787,-1.048336947602595,-0.8283622304135635,1.760142112114758,-4.0357140372733955,-2.1375162459474333,0.9835444265913849,-1.5596649321617975,-1.4267836141843475,1.7191276644798108,-1.2185429159931045,-0.859302223535063,-2.512930514345602,-3.1466142927878304,-3.3930300580453236,0.8186651826050545,-0.21924995961318072,-2.3074221035890785,-2.691699607947598,2.8977044951436914,2.5578679347649893,-0.4088166485840184,-0.584759393391928,-1.6869954977229613,3.9984218538233374,-3.7794527346885656,1.1737427354404395,-0.8555186413177066,-1.869673791833774,-0.7585796210164418,0.8612948597517079,3.6984711996842266,-0.21817021753579935,-0.7133259739947521,1.9681127208674236,1.393348460010304,0.09860930476896176,1.1295466101208218,-0.5359777186327904,-0.5335737008665822,-0.7706422130846722,0.3970477398786796,-1.7956573005039635,0.4397103350321113,-2.5471162497331674,-1.0281326690234585,0.38510476902313734,0.9073570425538829,0.989688511771072,-0.8766635051709387,1.1896959542571008,-2.643381598211538,-4.032139110891922
-0.11087323827306084,1.7225094901094125,3.480257993971202,1.676882788049448,-0.6929280034016829,-0.9809439050759848,1.9381003803321024,-0.5070209615572148,-0.16992495429285878,3.9552098668348976,-3.2282890309307644,-1.3609941560687555,3.025155979298093,2.8902056184188227,0.5869269744054719,1.523110164081474,-0.9870024821217067,-0.34968852365183195,0.1319604141615123,3.1006054958132934,-0.3409214117702339,-0.5994076921701609,-0.8707416606114563,-0.9954101231126293,-1.017513203395513,0.5195387877662375,-0.5669738527943889,0.7005054171884992,5.2479301151435855,2.504996162684713,3.4936017611560057,-0.6430798189570506,0.4632672821715122,1.7136985481586537,-0.8102173843513794,1.1847041541622447,1.3831131606300393,-0.5225806910440394,-5.0317303816856755,-2.596690475632047,-0.06476526929478893,0.7111727459755905,1.7434385669083747,-2.3466358416279203,1.9110757484348375,-1.0381788899269822,-2.2019212772966372,0.45237750442720925,1.392693687501292,-1.7899889014104253,-0.17940211604274858,-3.21717227581322,0.8366501705062382,0.1464901414000143,-1.2082566251342752
